120 130
-0.848009475766 1.30590635795 0.924207966218 0.640411801233 -1.05473698293 1.79776071513 -1.01278675049 0.823623324342 -0.294650353351 -0.592470571512 -1.3937270587 1.10417967172 -0.9323402859 -0.943156436837 0.4366062317 0.794958270036 0.719533152748 0.0876622565702 -1.32274840626 0.0517939788301 -1.83479525766 0.327496473189 0.476237234368 0.168428645615 -0.862411331108 0.907444498481 0.422889372577 -2.21242895344 -1.65420574095 0.321375263805 -0.462674353874 -1.08075020535 -0.313774139664 -1.01785188687 0.499422699732 -0.0299462410654 0.047090104598 -1.17085876168 -1.91252729135 0.271542219821 0.322065298595 -1.13100015945 0.157861140178 -0.920397555942 -0.74590987862 -0.204213089644 1.96638482185 0.823346112017 -1.05748398059 0.551049365854 0.274123250207 0.367296464282 0.195889334416 -0.113528706286 -2.08892706137 -0.939464548117 0.275847384633 0.427606857363 0.416746332391 0.301753913621 -1.91666376392 -0.1800725621 1.26964413246 -2.57568271259 0.557686213348 2.38902089788 0.0630227603932 0.295206869238 0.941794035281 -0.0275475290648 1.02093210675 -2.24605086621 -0.407225488149 2.19171256824 2.00709773979 1.42914719187 1.08941097344 -0.78707093858 -0.0759207509186 1.15378479956 0.388743948643 0.877282434377 1.39110701612 0.23432772053 -0.142817113072 -0.0573514569644 0.548428958505 0.571178632177 -0.355107620349 -1.75385252205 0.526805569849 -0.118913267877 -0.506043608158 -0.172655907211 -0.293223363363 -2.13807142885 0.987993158031 0.820486612334 0.581123877301 1.77745082604 -0.984595264176 0.40320046862 0.932856212399 0.0345600001113 0.362431456302 -0.425475908087 0.735280240181 -0.549536513246 -0.111421590408 2.26565050749 1.44626252618 -0.0400930324056 -0.832472796381 -0.532238437035 1.75987131595 0.213959487798 0.810739182771 -0.537219171572 -0.47203812223 0.373653308071 1.08148674002 2.31351708132 -0.807441888341 -1.00562199324 -1.11398692435 1.34892807446 1.09806890007 -1.45334495623 -0.0195088635075 -0.0644538446996 8.60283727483
0.833437150313 -0.82786848474 -1.67893467116 -1.15034115562 2.18231542164 0.898322280094 0.384652481738 0.153201843047 -0.368333558495 0.158893127127 0.490037463547 0.601427473094 0.493813407052 -1.01821439014 -0.209075610837 1.08963638833 -0.736777110341 0.492271708368 0.541701013636 0.504837520293 1.55683005887 -0.0511321618345 -0.0212079118715 -0.183855949736 0.250672030361 -0.526583794495 0.2171094814 -0.176879480002 0.493268841923 -0.570386727093 0.460588144707 0.0384676977847 -0.968028119326 0.255126893874 -0.978575713652 1.67642982255 -0.709724021169 2.95206542544 -0.305298681285 2.82924097833 -0.179446400774 0.571396666987 -0.0114451207541 0.250751385188 -2.25153302484 -0.437312305992 -1.13624652295 0.0452587473285 -0.325203810744 -1.60720674098 0.237948249452 0.527553974446 0.454531490479 -0.239844263885 1.74247323812 0.14373463393 -1.46857828529 -0.243893447576 -0.51108193152 1.2811680317 0.374704143384 -0.707614261788 -0.0233723538397 0.209686905889 -1.41798541685 0.741537604 -0.933921648894 0.366912026928 -0.222516460476 -0.431230375498 -0.380330249789 0.810220278857 -1.02828702192 -1.40837354034 -0.358205408778 -0.438503321366 -1.89180503961 -0.283815358829 -0.953275969928 0.0235596102609 0.976276288402 -1.0193718431 0.339769129808 1.21879451341 -0.265856740109 -1.65052360718 0.213142592928 1.60493300379 1.18291330018 1.84835363754 -0.376624157921 -1.20818462146 0.263224895121 0.360585955261 0.213341476774 -0.126613497827 -0.63595216129 0.77586567704 -0.0651022550318 0.107296645478 -1.04768155652 1.85702155687 0.320400651319 -1.09512619753 -1.38678741289 -0.353949596621 -0.285642060189 2.05925005693 0.232776028237 -1.61224692806 0.0718537291182 0.666335077363 0.332115583162 -0.336504981082 0.497755356415 -1.79408896571 0.346034077956 1.36030707408 2.33292788113 -0.710241262736 1.15687395339 1.78980305424 -1.66714396465 -1.29429431789 -1.3422598624 -0.539570381665 0.495656625869 -1.15392211082 0.508617431664 -0.613012656546 -7.41714250827
-1.1340138851 1.23001579928 0.290835039543 -0.274656273769 0.328073469647 -1.28361997686 -0.0766176419431 1.01100174041 -1.71799330361 -0.523779878934 -0.240344630998 0.3876911017 -2.42875649376 -0.183609040539 -1.60642335307 -1.65084424079 0.491279328461 -1.33850546386 -0.296088331225 0.613710414078 0.0909427965266 -0.212251184713 -0.294426219489 -0.125977896267 -1.03883801937 1.04460526778 -1.20940192664 1.52853452199 -0.925698357625 0.693501717008 0.616420128896 0.130391294071 -0.0333731053293 0.585679677021 1.17608306131 1.01534337419 -1.41235248186 -0.471584685231 -0.66055710157 -0.151622561523 -0.0529207737397 -0.213367018589 0.185531890348 1.1059078857 -1.21378977801 1.0217557709 0.270656536923 0.778642307673 0.845273651402 0.905722168807 0.754320773425 0.0245300370003 -1.50293394635 0.98907704348 0.66369094796 0.661495711613 0.428335980705 1.10609408881 0.376243038995 0.617333495058 0.417607919811 1.03677702168 1.25724659688 -1.11995832648 1.35529083182 -0.245594880595 0.528419453237 -0.0420992593183 -0.418323935756 -0.000508085380369 0.0490635167954 0.961278749076 -0.00370442801202 -1.35469188016 1.09725617127 0.122158466506 0.148778897964 -0.225454456382 -0.313169085225 1.99859726543 0.819640820144 0.134542672136 -2.10723215442 -1.09220819452 1.39407335905 0.546238409438 -1.9057283105 -0.187414639475 0.849062926564 -0.056852182987 -0.418241219655 0.102706072999 0.686758032981 1.13814254769 0.823680531065 0.411272276498 1.44537395792 -0.580254893941 1.5760817297 -0.798909740032 0.23635109637 -0.496738714396 -0.544288542087 -0.659073349153 0.206681272595 1.71981822483 -0.589887691076 0.615952078284 1.36741428165 -0.457636867143 0.423705347423 -1.95629985089 1.87294449921 0.686050646767 1.5065846492 0.28241568304 -1.51593831013 1.60397418825 1.22500686218 -1.12318149056 1.54794788669 -1.347309879 -1.35775640144 1.94780992353 1.04457755843 0.235812593864 0.868179909494 -0.00974696018675 -0.729421246821 -0.415160956276 -17.5337170603
-1.27824689796 -1.1610506972 1.34208553736 -0.00120334731959 -1.19381120967 1.26891140157 -1.30199561467 0.233253292274 1.37936818403 -0.836821566807 1.12224759338 -0.935132076004 0.329204473414 0.544270032089 2.06138818923 1.00970430978 -0.28734119204 -1.36678362746 -0.820475237312 -0.592288501483 -0.548867967474 1.3424179703 0.0638663675973 -0.214207322755 0.11091909662 0.534242838346 -0.293333575268 0.737728999486 0.929987150613 1.00712592936 1.87537583216 0.390644179902 -1.46145086541 0.234155938591 -1.10529822141 -1.22488169244 -0.830268913896 -0.833832577037 0.845823332011 -0.974388559541 1.07520649306 -0.165093468757 1.46574339482 -0.0247854442008 0.585816445133 -0.473920545442 1.32450692023 0.422499686001 -0.233202439768 -0.931790349248 -0.391757017639 1.46481952297 0.544758045624 0.363371115513 -1.68216542161 0.758861200296 0.823583515537 1.22446051754 -0.247642450248 -0.383873414576 0.499648623747 -0.0577619426428 -1.76641844941 -0.243401873258 -0.565576670603 1.95510796493 1.09120140519 0.938911923638 -0.539569514105 0.25459974235 -0.423663371807 0.918731559779 -0.513652606719 -1.31516804608 -0.765184288954 -0.435568183779 0.557002690571 -0.0678511634855 0.859678904415 0.478515875198 -0.267084626634 1.60563538378 0.752354520247 -0.809918565473 -0.22322758988 -0.827168900403 0.493840826408 -1.01019034353 1.97878777982 -0.650067896277 1.14352291653 -0.749659377142 0.494365603192 0.457299472609 0.711389169201 -0.974286651021 -0.434337909131 -0.416302846598 -0.513481541162 -1.02158664661 1.38294972775 0.974859962923 0.242870572488 -0.723020756339 -1.38068080884 -2.8678930971 2.17654541279 -0.17724655143 0.349864886484 0.429181263789 1.21818367018 -0.495374634708 -0.703474565278 2.35648279797 0.402091491254 -0.364542553286 -0.349940683901 -1.56765517919 1.58068227554 0.140327629548 -1.3584897961 2.12300115152 0.486848817073 0.983571695921 -0.566932042819 -1.10193820715 -0.750766716744 -0.787875358032 -0.598297685911 -1.67545588406 -10.4385567077
-0.750175068149 -0.400448349599 0.663918707579 0.371531184055 0.0827431366735 -0.504338887366 -0.265855194661 -0.585300468886 -0.398586572996 -1.99657214568 -0.164789781052 -0.702939280461 -0.524166407393 0.798351276769 -0.37893329936 0.231882860042 -2.48959532994 1.92719679671 0.83422182838 -0.310211921867 0.209308288185 1.15925958383 -1.892270467 0.332898916914 0.353908752686 -1.0051863358 0.583959900998 -0.414198260499 -0.495798887289 1.2386301014 -1.99667231782 0.522846919145 -0.588687635664 0.279489914625 -0.035106003828 -1.64835609807 -0.776188389353 0.798988694736 -1.01349338205 0.714148403601 -0.342816842253 0.627579335981 1.01640659262 -1.44451755301 0.528562484273 -0.229434347603 1.08392901084 -0.026176079297 0.712638874996 -0.102761313038 0.273457314815 -0.268409218696 0.470261567799 -0.539506264158 0.554355578789 0.0629000401682 1.79532035174 -0.8290842306 0.0880786560816 1.88078671739 1.26853984281 -0.889509075068 1.0488204293 2.82403558924 -0.399841387383 -1.27328385367 -1.12150423106 1.16259699397 -1.63311309113 0.146951605533 0.424944924067 -0.576844729729 0.140300617825 -0.535205006518 0.521730693936 -0.0500105162572 0.102698857039 -1.63010290991 0.271868513787 0.549029179267 1.76496615045 0.202756318768 -1.11815811167 -1.02435516833 0.526455992225 -0.0199270956586 1.8261791767 -0.695820381415 1.32351292217 -0.483110020839 -0.268421138563 0.597758109733 -0.126653920748 -1.45154185373 -0.582157971769 -0.471800248821 0.428646884986 -1.09477655512 0.427123730548 -0.570571627774 -1.01477750113 0.499113637395 -0.95383040434 -1.31732214881 0.0443467319898 0.24911581892 -2.07854462582 -0.626447794173 -1.60553380027 -0.467273045717 -1.58737053609 -0.645714457199 -1.34278900899 -0.228194579667 -1.64505699703 -0.358977791192 -0.36564679829 -0.255916008532 0.849465228618 0.630828087677 -0.532118603747 0.768908643979 2.00694968269 -0.889787061108 1.07186650041 -0.887126446398 -1.33109702425 -1.12224119743 -0.304604611176 -0.832353240097 18.3533544504
-1.62771065933 1.48448874691 0.796523917449 0.442270204655 -1.20203483466 2.48174577057 0.437656045139 0.729848903601 1.20488453499 -0.425410755181 -0.537822490382 -0.876905300054 1.59104730212 2.18503639669 -0.59751805776 -0.85690011805 1.10366207495 0.606368520494 -1.19560174553 -0.373727672096 -0.373244756586 0.638910595597 0.0538595135674 0.548769789409 -0.536202982165 0.751252608185 1.26389702346 0.346920410185 -0.48221906758 0.110751696172 -0.861315603439 0.366234689556 -0.748703760919 0.373136803395 -0.15410990072 0.7492285382 0.800749158745 -2.39658839396 -0.743809448041 1.03523597717 0.274039094605 0.444626537067 0.769990738201 -0.733600280364 -0.609597549486 0.499086863906 1.3766323273 -0.80682973172 1.12525779397 0.497933127659 0.307188672486 -0.289789426556 0.00831266680273 0.433754232788 -0.161935414743 -1.60367894227 -0.434168817405 1.72647156306 -1.30489228221 0.393785372029 -0.705301836486 -0.596211567114 0.995652535899 1.00731457436 0.99175213502 0.366976736906 -0.584249718303 -0.121994990404 -0.248250420047 -0.579688928731 0.0445713995929 0.406907141076 -1.04078789985 -0.739731075078 1.00692479582 1.52605149554 0.734982873428 -0.0535650635857 1.0784436888 1.40788837991 -1.30481916635 -0.556569453754 1.52822807593 0.493021743009 1.23874183076 0.62187390216 -1.20326658657 -0.941120020262 0.136847796606 -0.790992117015 0.22704924144 0.155611611746 -1.14148738362 0.392904876335 0.0863656635033 0.975956453342 -0.625760762495 -0.40793220746 -0.536910496428 -1.2257720304 -0.0365796136501 0.431640016221 -0.654710876857 -0.388093740231 -1.02214350408 0.0030170774249 -0.609572828642 0.501832948534 0.544031547488 0.439820930246 0.915144513113 -0.745539567236 -0.957490081515 0.447449687077 0.278310074144 -0.803490593302 -0.568621825517 0.340087479424 0.538694074647 -1.16114215971 0.128243905689 -0.50796511955 1.14251829773 1.06530336716 0.161303067494 2.20232511626 1.15614067901 0.414482889195 1.15725595062 0.654413803149 22.3936367854
0.228872257996 0.111304475886 0.0844669445175 1.67118759612 1.23951349679 -0.146946911082 -2.00868522131 1.49678769935 -0.334818346978 -0.29754980969 0.448115923358 0.589298520937 0.820053815905 -0.995254273739 -0.367788129125 -0.935828663108 -0.0265131300102 2.27516715163 -0.0725779394597 1.81743444714 -0.691613818527 0.507701144739 -0.118770936901 -0.39477669523 -2.10023878066 -1.11886464662 2.69952305721 -0.234885964044 0.187617524765 0.212884437315 -0.0272737775178 0.392166043097 -0.773655594824 -0.618610346819 0.61177276179 -0.717215652222 -0.6013292259 -0.55368940585 -2.0817964166 -0.776851095444 -0.263601866227 -0.105606839606 -0.988925704532 -0.559134078737 -0.083232349873 -0.781170385537 -1.30456936429 0.834412546029 0.538500582985 -0.152797525063 -0.952366323431 0.303474553707 2.14031344652 0.397097609201 -1.38554242412 -0.616358655356 0.951874795514 0.693628357058 0.807979100553 -0.910690966254 0.84456303644 -0.192036707565 1.32707888909 0.118030194363 -0.0742394872197 0.548249315866 -1.05777882273 0.232301263164 -0.871971958515 -1.82969262877 1.63610565535 0.5675483189 -0.416479003019 1.20992257429 -1.43625703146 -0.838460466136 1.10904094588 -0.886387374485 1.08257605784 1.40390320498 -0.130513119245 0.601778080631 2.83132307238 0.884913391824 -0.998707947548 -0.848123901799 1.92202797392 0.514766176929 -0.00598780297845 -0.842290033305 0.834964207161 2.13420404681 0.0541081836886 0.451259343314 -1.18355767416 -1.67754275354 -0.465867761425 -0.664452309078 -0.115999215099 1.19185686503 -1.00570393464 0.188745972434 -0.193729150383 0.905267921503 0.877394803068 0.0770701587283 -0.870665452761 0.818884624409 1.53597372145 -0.235870446895 0.359763002659 -0.0178740740556 0.0110823175991 1.56065597066 -1.38582725389 2.65173907344 0.68672202678 -0.260213224532 -0.679547160995 -0.463405338529 -0.802302039434 -0.392159756516 0.384540692042 0.107031753239 0.932132314017 -1.43626695875 -1.15111309354 0.494903086931 -1.17943960219 0.116838751319 -18.5911016996
0.0212321083315 -0.443807123958 -0.0309849641303 -2.09142537267 -0.497457214211 1.38036717336 -0.225930267685 -0.33872110553 0.920463176207 -1.74867115179 0.316390995157 0.592406840453 -1.14792559586 1.78351016586 0.452147926711 -0.0314173075206 -0.628830413692 0.158282180822 -0.0859068381292 -1.28000076512 -0.74097984911 -0.54335019496 -1.75579939775 0.663252153297 -0.472197108434 -0.262880552139 1.95374645354 0.710813630484 -1.26300541449 0.729923040325 1.59436601849 1.49237487783 -0.347786022282 -2.05962032168 -0.323340222003 1.53532161204 1.8565447142 -0.556768528707 -0.753439056857 1.93450376326 -1.84321161443 0.797807171746 1.45199528173 -0.597592633606 -0.00268276033481 -0.723842233172 0.54064630113 1.33595051358 -0.164284732634 0.334058046702 -0.647767837383 -1.3807107607 -0.474190920037 1.26947607719 0.479879028775 0.14736588845 0.489089241694 -0.264805706057 -0.232294002617 0.140256647219 0.00139599784328 0.211392899704 1.84996286213 1.47953461922 0.55327134499 0.307487055949 -0.0966076552386 1.5420079543 -1.57992613957 0.634511012634 -2.18689172256 -0.088936820194 -0.0484365378631 -1.56251353839 0.132306379248 -0.97438736447 0.469655749015 -0.59915977592 1.47026874058 -1.08740261439 -1.05661203721 -0.0133890629756 -0.65357948837 0.885236053953 0.812497499821 -1.4111885608 1.08033218167 -0.35679894523 -0.80171170704 2.02544569088 -1.45901232972 -0.366547356944 -0.449045483699 0.285325093837 -1.96414826021 -0.591777413998 0.248033985997 -0.288989374866 -0.0601230039211 -0.341339999514 -0.245253664213 1.77437449716 0.422823825483 2.60283076435 1.46676808764 1.42152034176 1.85523309392 1.23105831389 -1.24341806381 -0.0705128260651 1.2018856336 -0.669484255622 -1.9920518569 -0.959229233392 1.0257681259 -1.22485523817 0.22129516694 0.0388152359514 1.35944772445 1.38474133746 -0.0691837521007 0.461846697132 0.968590031271 0.497044982739 -1.01627501893 -0.655913648679 -0.193759155552 0.833432829379 0.427946228808 -0.0821655799834 1.79295838558
-0.819596092423 -1.48962708284 1.24706890858 -0.566500190191 -0.783546228245 -0.309247969065 -0.9088881324 0.744597127308 0.251862216797 -0.049670194341 2.19735453069 0.343718872484 -0.392346282505 -1.08576286909 -0.44076056877 -2.12285961494 -0.0832175173461 -0.0943103114623 0.70426146476 -1.00019242385 1.33079106547 -1.47174289907 0.142115466457 1.54546405186 1.96323138462 -1.12384140974 -0.0818216127599 0.394397089154 0.238100633561 -0.0302922078441 -0.622679262465 0.736328481874 -1.96837500333 -1.57692116583 0.072729590862 1.79828505154 -0.872692660166 -0.543442679975 -0.741859246053 0.358282449844 -0.066496249818 0.330825218164 -0.208011878226 -0.818720751246 -0.646491422904 -0.100380140845 -0.459564048186 0.607050856283 0.764860071896 0.092451110821 -1.53049313606 2.40152648286 0.753078305687 -0.454020931219 0.879719280258 -0.332717532006 0.170855235928 -1.12897071552 -0.0463786456587 -0.168650986023 1.29853696528 0.669238343466 0.0991389354706 0.825011759604 -0.55660621771 -0.128750543951 0.146598480707 -0.0808968202537 1.50834472924 0.028591996861 0.550488388572 -0.578497244144 0.550389942091 0.773297903288 0.129065716779 -1.78638314456 0.139380038402 -0.640756125709 0.328494777926 1.68931770337 0.414145950065 0.279202871735 -0.535257538369 -1.15600138769 -1.77159219951 -1.40741719072 0.497691173126 -0.538247166825 -1.13642762417 -0.324702999012 -0.649742249244 2.04906088208 -1.69886958776 -1.25843242459 0.692359384163 -0.236934040782 0.489722536467 -0.51287755025 0.397299621364 1.41186464293 1.01237595214 0.623145751917 -0.440170183466 0.16008225555 0.899932788446 0.548935959704 -0.247494833138 -1.08682307079 0.698683912734 1.21016179763 1.06910942713 0.229977486549 -0.187693687091 0.997828065528 0.796992442996 -0.0079365867291 -0.241158164184 -0.375533898428 -0.146886117533 0.500139899983 0.321144329601 -0.355697052821 -0.132521883956 -1.83018952437 0.868020418153 -1.45955477437 -0.896760897412 -1.58234420818 -0.0835869053025 0.684540791999 -14.0621901587
0.248556553605 -0.0805089435923 0.581181699052 -0.315113277516 -0.138780699757 1.09648907101 -1.43277437473 0.560364269936 -0.286604505189 -0.817409813001 -0.776763847579 1.29108907694 1.03617192212 -0.750123979268 1.7149473625 -0.411734841804 -0.756291628205 -1.39470642677 -0.75696063021 -1.05645304598 -0.917292520653 0.239229976333 0.243445686711 -0.793005743022 0.603260302716 0.425038369536 -1.58242938331 1.24357577778 -0.844040090512 -1.9855648898 -0.18982106347 0.339444478776 -1.80637045219 0.605262855602 0.240847892794 -0.0412698088616 2.83619565724 -1.5285774564 2.16507096025 -1.53392187344 -1.00588261769 1.36961420419 1.18488902916 -1.13340523993 0.397302185867 -0.245714860408 -1.82048688965 -0.6790463942 -1.21575143936 -0.328186121328 0.941356724106 -0.384316136983 -0.586676372479 0.861342444859 0.77924044256 0.950108031731 -0.760136210177 -0.215126573088 1.13716582934 -0.69200190718 -0.582505179472 0.148095261497 0.619192849184 -0.0357140969913 -1.37306769282 -1.65141155342 -0.852384536011 -0.215208844486 1.26925749611 -0.506551745691 -0.794635494829 -0.827299947078 1.5199111448 0.391280900966 0.0427959792374 0.540772335463 0.2451122066 0.366953629749 -2.16866592525 0.510426927582 -0.0240820097235 1.15211306341 -1.95617872438 -0.545086066901 1.65789042389 -1.00921780771 0.64226347455 0.38064300286 0.725047314538 -1.06264216016 0.287130741067 -0.765051462891 0.26656587163 2.01984339259 -0.451303228423 -0.0492851928336 -1.30338853708 -0.667400166215 0.837241610187 0.603148950932 -0.122201268737 0.386669451681 0.926177406382 -0.015187432612 0.165170829604 -0.198046653104 0.703572887208 -0.451143737519 0.503494286191 -0.00762389645993 0.602204539449 -0.265115234302 0.705916068565 -0.336251278512 0.60606614925 1.28126134289 -0.219704497656 -1.29380278259 0.450911526652 -0.209910220944 -0.635822854607 0.0123470993173 0.795456844291 -0.988913022795 0.766569587624 0.00227559703538 1.53575701596 -0.427686863636 -0.564724169157 1.52590490981 -5.26252950533
-2.12014199728 0.587636554462 0.844343331028 0.677282052568 1.59757476067 -0.696478331189 -0.133459880477 -0.753436942756 1.10647197724 0.855491600127 0.606420601769 -2.21753622694 0.0300310714841 -0.0188763147252 0.894197237937 2.55971787994 -0.279259993386 1.02194640557 1.60303678917 1.54074509111 -0.967505668214 -0.511696220506 -0.316154206333 -0.0936867330215 -0.301563993216 0.238626801702 0.324769691837 0.743119582269 0.0268007955085 -0.440765146643 1.23054892031 1.23294107181 -0.279806869797 0.358517703198 0.524939230875 0.396019472597 -0.905563758503 -0.0469228474379 1.23312729196 0.605531235319 -1.76331793684 -0.545035025934 -1.58154463325 0.631275319366 0.252017244287 -1.3499673653 0.86335813115 -1.17043460456 -0.13280792509 1.24521633747 -0.287051262459 1.36676780308 2.16710004453 0.255873314371 0.273355034711 -0.0392890769103 -0.93739962545 0.634237773955 0.951640581863 -0.10791958849 1.36238125553 -0.505642732665 1.88211367241 -0.667064201482 0.18646439419 -0.93199737663 -0.0176028055691 0.827984836988 -1.29924366152 0.677565122536 1.99549029747 0.283440066835 -2.09899404672 1.17021626791 2.42466818893 0.120197681067 0.373734387593 1.26938372869 1.30602984359 0.510525861501 -1.5358582541 0.129865581244 -1.38060232956 0.546527448601 1.23421178433 1.1949765065 -0.353968263538 0.763090758261 -2.0063007011 0.172280928922 -1.01081291449 -1.09225456831 0.692837324452 0.586544571557 0.46707336325 1.26015791448 1.10591511383 -0.964880113575 -0.237119610812 1.10468730899 0.473654797648 1.65413173123 3.46371284402 -0.839178290107 -0.476725469538 0.955072234892 0.579045511027 -0.398483857013 0.064389050156 1.47015734711 -1.66892380579 1.303433778 0.751621840136 1.89430409724 -0.55397344273 -1.21430295289 2.55497081089 -0.606556145873 -0.872716413697 0.355437448762 2.08070287336 -0.548510059176 -0.048090898438 1.06735740751 2.23128840346 1.58216281412 -0.881104239151 -1.69705438222 -1.02397113053 -1.40501952108 -29.8003720075
0.00947753913222 -1.16776713053 0.767755514842 0.694649757434 0.309998420028 1.18231047613 -1.349804712 0.589613563401 0.114726235662 1.46762190285 -0.387149477458 -1.37549343231 1.79160219 0.508570614468 -0.198350000013 1.03100005761 0.0378350811363 1.32703453873 -0.260992025942 -1.5529409496 -0.83300061649 1.37195510571 0.0359474000334 0.62697222956 1.06622242054 -2.19227032112 -0.699588571848 1.05625940467 0.112249444449 0.206482238575 0.199979447873 0.567486136376 0.435807975583 -0.396893168693 0.882261419888 -0.550337613923 -0.565399413917 -0.408328236328 -0.43900055784 1.11607888058 0.240712495972 -0.191444792642 0.830499254527 0.270645333117 -1.43200289941 -2.28987943154 -0.628454232095 1.49300215999 -2.04547720446 0.100046478578 0.988076720986 -0.330576897143 0.093745396457 -0.732719131011 -1.25894486254 -2.64618649472 -0.255297709911 -0.128850819123 0.122054366622 -0.531709931729 -0.17666762263 0.168072226658 1.52459435121 -0.409868507762 0.39130009255 1.14148415991 -1.9890899515 -2.25657718992 -0.34434574943 0.570183537982 1.24317640149 0.685924565439 1.70583071549 1.06564954351 -1.21735063333 -0.287641973527 1.88514480714 -0.102171971258 -0.46969699257 -0.275549811617 -0.508030009388 -0.347708615648 -0.342131254138 0.724700793052 1.07868148531 1.16962291229 0.738141866842 1.09421857249 0.367941613538 0.188230469806 0.177122944306 -1.17381968093 1.03656186201 0.107405857107 0.764617639478 1.48128899114 2.72919051454 2.01308475903 1.34499406608 -0.284982247728 -0.807878612215 -1.88087574175 1.80814349495 -1.58437586918 -0.369951316008 -0.377573537542 0.344577750935 1.30502003671 1.33527644084 0.0589906284993 -0.48234960823 0.124832816396 -1.20651652565 -0.0989303208008 0.0766495305291 -0.046964963606 0.856679909064 0.16093104473 -0.143643076719 2.02622434034 0.432923213496 1.55454516863 0.205128711354 -1.07439437023 -0.410751119227 0.806625506692 -0.737632721468 0.566867166196 -0.219298296695 1.09675256736 5.15373976878
-0.285277164258 -1.66627190285 -0.365539469984 -2.34768989719 -1.49667880326 0.949583811182 -0.0926527622972 1.08410562517 -1.50809137183 1.62391017679 0.147928878423 -1.06338352231 -1.0990382397 -1.00632998728 -2.32315854113 1.15766941861 -0.0257376788771 -0.526938315049 -0.199343244242 1.6865607779 -0.21442529225 0.700146529222 -0.358934086899 -0.0328188822151 -0.876434479806 -0.687603185383 -0.335093766365 0.23371320551 1.67797810081 -0.986426989596 -0.416447133891 1.15655646111 -0.249861140955 -1.51684504906 0.466737814862 -0.249805368435 -0.509432619387 1.9910917886 -1.74701539586 0.345283112547 0.820570317992 0.737947213865 0.904115772424 -1.98693548048 -0.617226013854 -0.775546410048 0.932385555588 -0.365883218569 0.515588782243 -0.146523305828 -1.45529265676 0.0175306252531 -1.46037268465 -1.06407155176 -0.791324570413 -0.363971834808 1.30979484925 -0.72160451626 0.822128334266 1.90013320616 -0.159301459741 1.73613291905 0.34435059877 0.855748987564 -0.766215757481 1.97213129443 0.257214904085 -0.155888607407 -0.36436955316 -1.59020100028 0.360848345874 0.0366415312928 0.285336959927 -0.853446343969 0.137733755591 0.719408401601 -0.321697127119 1.61582072389 0.553895219849 0.528585354383 -0.692840718467 -0.0438341857678 -1.94902806623 0.665293818596 -0.224969614398 0.153835377653 -0.458340012801 0.822140517047 -0.993953723953 -0.184072196717 -0.477375482706 -0.988876008158 -0.548371581477 0.868143696553 0.340158254889 1.12845305049 -0.478951607301 0.750121919616 -0.752228362704 -1.08456560941 0.228093139713 -0.225248620235 0.79942951814 0.123360610075 -1.19588213562 1.23014828768 -1.69893751491 -0.307374855634 0.390692678693 -0.0588255045011 1.7977175005 -0.00596967613462 1.83163528157 -0.698675774558 0.778183390934 0.636670262924 -1.35765180788 0.992009406976 1.24088836571 -0.769369867313 0.842614091368 -1.27246067482 0.0914196185649 0.0674971510186 -0.37357815463 0.228757390941 1.21276406724 -0.0158759929889 2.64811237545 -0.0487055432559 1.78721067273
0.358900501299 0.930384096809 1.32771678503 -0.349259769176 -0.0217336611101 -1.2309979866 0.320654338054 -1.275382019 0.0615838569945 -0.876377060945 0.874352083625 1.10690134187 -0.905798568695 -0.0552213705527 -0.320323679493 -0.0889538844378 0.198542773325 -0.12332721845 0.016988480749 -0.682999772026 0.76375172605 -0.962553982046 -0.364206609727 -1.71633376917 0.941748346283 1.28586458165 1.21820549486 -0.608239681613 -0.518927552018 0.398051968206 0.200967283027 1.53415486968 -0.779411699872 0.257173030167 0.313170993182 -1.32040107732 0.771133499328 -0.0561455094569 0.635589496307 1.39831276992 0.424019043807 -1.08105504618 -0.960219041626 0.559599212423 1.72235635554 0.858260354991 -0.901016111246 -1.46257158857 1.64779533471 0.896118537406 -1.6185793515 -0.858813020598 0.776627819515 0.0575103458284 -0.103048331812 0.0203997524176 0.549918898599 -1.12799893662 -1.04576882893 -0.214953139981 0.903975785367 1.51067375476 -1.11263489965 0.604043849587 1.54197296791 0.0351015770186 1.46019911 -0.073202853433 0.591513118344 -0.222571288167 0.457704636911 -0.715684110651 -0.719372730072 1.28597724098 -1.02773571034 0.0499102515544 0.0712776878053 1.07711610031 1.01952886303 0.334103604028 0.048507068252 0.762841156153 0.914342776308 -0.851784976419 0.450114518004 0.748252728928 1.27743868091 1.52041475824 -0.376405966706 -0.202749926248 -1.27962007591 0.309951829139 -0.927368712353 -2.39651515818 -2.26623808392 2.30881101172 0.537741455418 -1.10023726834 -0.142285846699 0.87983960613 -1.54530550165 -0.654899254622 0.398905775736 1.91136075593 0.447050388698 0.901561438762 -0.178297079722 0.292286060843 1.65752065548 0.554771752517 -0.101603237434 -0.661596164726 -0.27830797788 -0.489453656766 2.51171594673 -1.75061796411 1.07070829908 -0.109282007803 0.803831351521 2.3010777938 -0.648292286405 -1.1958345851 -1.10564648131 -1.333100823 -1.07234228223 -0.269864388514 0.718441608552 -0.973165001915 -0.46799438862 -1.35881801692 14.7509641151
0.54317365647 -1.13431625428 -0.276764928509 0.617159356279 0.036961294054 -1.42747553569 0.626089765673 0.0722758311872 1.22137235482 0.843203027896 0.6145871012 -0.2878042268 1.61174273557 2.08522465142 -1.85839609683 0.00430505914705 0.344550468752 0.5500581173 2.25135021503 -0.0168221264929 0.342469906455 -1.14829278919 0.172519256483 1.95698369081 -1.21087286334 0.489352896185 -0.31797929858 0.0812186880185 0.940336844046 -0.230302599759 0.937871372392 0.655330826087 -0.197285132128 -0.00958471836354 -0.194448284988 0.034215449523 0.0982673412362 -0.251270702199 0.0597211446486 -0.127285087463 -1.58360320193 0.47390904089 0.770875586762 -1.66250783491 -0.133319542768 1.61108372054 -1.33748320768 0.315090029095 -0.527825732724 -0.34824394579 0.169454703786 0.756243827673 -0.866915860082 -1.69682284603 0.958272252652 0.214943445884 1.22648456719 -0.781440197712 0.330027408705 -0.0122939739654 1.03311606145 -0.366259713266 -0.229229791798 -0.770279311364 1.02925684296 0.0318698061442 -0.151173455429 -0.842583100783 -1.27710942077 -0.893379816514 1.43336705057 0.481228513292 1.05658125979 0.55377361352 -1.55965724423 1.38088610444 0.261918296752 -0.804997956751 0.472404057593 1.06563083415 -0.215261902575 -1.48969173581 0.818353767697 0.210831741915 -0.324985028159 0.639147213185 0.182009449732 -1.72866402247 0.382462776305 0.622189202775 0.192805514338 0.834787662754 -0.798102459481 -1.05606229747 0.27720711167 0.0844303082893 0.67892018329 0.0155099602451 0.464515124494 -0.0639940425045 -0.929856614941 1.85660257136 0.478400801354 -0.315783200631 -0.936717102209 1.15166106184 0.373104184741 0.538965518567 -0.221200265791 0.478658913438 -0.0171015476184 -0.58442477245 -0.443523157557 -1.8229848508 -0.957035210515 0.7726459576 -1.07528155009 1.13825768508 0.095350190527 -1.2022659019 0.322637132057 0.767317401479 0.559641420844 -1.69430349277 1.07590993686 0.521669095102 0.66985734638 -0.464911762641 0.880724111051 0.185656862213 -23.9623102824
1.09498566019 -0.313038732499 -0.354629873143 -0.702948586316 -1.01502774374 -0.470438433807 -0.208430931907 1.85731179944 0.188289536455 -0.14043291975 -0.995191117344 -0.92386632991 -1.82172510488 -0.0986622783004 -0.62833669258 0.148034679443 0.249513473921 0.145561162995 0.842864826593 0.486033421112 0.835329409116 0.74041269637 0.917982454038 0.196129086008 -1.22298646045 0.586881518938 -0.343823835685 -0.67282818106 0.987280116968 -0.719513393519 -0.927156900402 1.2422286993 -0.643368355562 0.388255228381 -0.174493334029 0.773902497007 0.158954603441 -1.40289545082 -0.783290425022 0.660203402457 -0.742512527447 0.832762531215 -1.2843803223 -0.345005322443 -0.717771880326 -0.658600294024 0.292092277391 -0.517308416681 -1.09746268164 -1.31591660501 0.493355149664 -0.0583880679058 -0.841609017915 1.09593842726 0.420935054814 0.0821529658097 -1.55592462632 -0.38318943498 0.104067430876 -0.396264425541 0.38106689595 -0.857374211129 -0.387207110607 0.875069738404 1.30258013127 0.683247161611 0.929517488257 1.35567722745 0.475114304965 -0.00241822054716 -0.880922458857 0.575587163473 -0.0468284579008 0.015188807652 -1.09676125651 -0.599424705885 0.545226454636 -0.817167359238 -0.776331631072 2.00358350644 0.882409420032 0.741525143429 1.96285826459 0.749947304215 2.67007742165 -0.374320520779 -1.61315766248 1.63230627343 -0.294980314232 -0.338457370295 -0.53744594984 0.388246654236 0.652691564635 0.718543604514 -0.161055733248 0.825461087761 -1.40433675708 0.673246475296 0.178397035714 0.411959581405 0.59638890905 0.0818819142224 0.196561355108 0.530264048607 -2.16623276258 0.793372594027 0.997002517248 -0.754142898352 -1.74325739631 -0.732122208951 -0.855118695325 0.674438821446 0.637205415063 -0.315234435708 -1.87072894098 0.303917190776 -0.610268576304 2.24311475815 -1.20960379406 -0.0397337820919 -0.248604757068 -0.468327977107 -1.18942060673 -1.02506241295 -1.33446493215 -0.91301959746 0.269558436005 -2.12400843328 -2.13677215117 -0.897339594891 -30.6649276694
0.944342882049 0.411433100796 0.31322313606 0.13668760086 -0.464215334497 -1.05201903446 -0.867345684476 0.795260443882 1.16941878535 0.082706385366 2.12873067051 -2.29850987423 0.78512252201 0.405499584853 0.652335404504 0.404882090201 0.827666346826 0.699432779788 -1.93966610464 -0.266059760688 -0.0940379943296 0.75510482163 -0.267631529913 -0.833841448286 2.32935828817 0.955503586186 -0.0309601538758 -0.456092417174 0.96838982066 -0.282300705792 -0.538848626782 0.644292860121 0.59818499356 -1.01112341887 -1.22006059649 0.414393564044 1.02180467225 0.671646813925 1.00196851508 -0.244295809823 0.675579969495 0.158492109153 -0.141839049384 1.98957676529 -0.333360775679 -0.894140367479 1.25512198903 1.64502820124 -0.379104133586 -0.743800936481 -1.00177046762 1.68608710611 0.0726956474827 -0.788440178476 -3.05382810003 -1.50190602614 0.608979347973 0.336783798171 0.128642690143 -0.375053814521 -0.444707876889 -0.524974818426 0.447150443531 0.342547429801 0.249432572414 -0.0956718076898 0.957436680204 0.330218523315 -1.04987776354 1.80022573976 -1.05030190517 -0.095172276145 0.160928207067 -0.928658385725 -1.18084287953 -0.561977875669 -1.21081289112 -0.62858184614 -0.266782450898 -0.316484740925 0.507464047626 -1.93238244464 1.59021154857 0.954773155321 -0.895590847174 1.10532693967 -0.479500067904 -2.59382583432 1.40194205404 -1.32845716054 -0.638151125718 -1.72415563323 -0.657749110396 -0.531327580655 0.660878308165 0.636740437157 0.352482157024 -2.52845890401 0.0228928104966 0.851778459005 -0.952108337443 -0.85798861268 -2.51726815715 0.85350897459 -1.45991844274 0.806785003337 -0.95862807896 1.99076000639 0.153301136122 0.840189547497 -0.570413491982 1.73595776619 -1.27331566831 -0.38916002104 0.182958232933 0.788737753562 0.822849857604 0.776091205164 -0.898534998945 -1.03403673322 0.0302671129064 -0.30049649828 0.280128153314 0.749527770436 -0.560020375157 -0.177902104783 0.174454296332 -1.04242292134 -0.150826576462 -0.946110476328 -2.51518113304
0.065678655059 -0.521052407035 1.47503457964 0.309342578053 0.0527065456372 1.06010006993 -0.54036127912 -1.68418639174 1.09786709737 0.508908378959 -0.528919899329 1.02596651889 -0.00981666072528 -0.839848225458 0.120766182055 -0.332873546734 -0.329625197201 -1.3382792846 0.727166544784 -0.940114175325 2.00524979337 0.648628709192 -0.467615514966 -0.556842507157 -0.168670831759 0.651566437596 -0.819752492045 -0.768405054911 -0.495398113553 -1.08463387953 -0.480524519172 0.881676801012 -1.32067535958 0.742619177283 -0.640283707902 -0.794457765653 -1.54185066354 -1.03543597579 0.834832390755 0.639813449717 -0.592540170616 -1.04895084125 1.35554153755 0.103676972201 1.48891912254 -1.04954741575 1.58230623322 1.05579093021 -1.07474551536 1.44670924347 -0.037360694369 -2.75531931293 1.24862273297 -0.242222977209 2.13160794285 -0.580186509247 -0.814446888195 1.09066870412 0.185953245129 -0.401145839584 -0.901477571849 -0.893535076558 0.81549173489 -0.405191508041 -1.25098103192 -0.442371990297 -0.315255339663 0.230530063706 -1.74512710933 -1.12341028423 1.16726093697 1.59545749192 0.802612065122 -1.63703424652 0.22568183625 -0.350072823033 -0.686386038807 -1.0674653011 2.57941835543 0.841198711692 -0.892950070072 0.305093851958 -0.588577692001 -0.525362177065 -0.323543705028 -2.1818303226 1.9146822558 -0.138555727809 0.699677045445 2.70004250012 -1.06182806976 -0.894426593925 0.621331517892 -0.26554804169 0.80646782557 -0.307407814021 -0.190702269638 -0.613276462502 0.293157669086 -0.80320582672 0.087129488797 0.39215011397 0.113739610137 -2.01189558077 0.970860937962 1.19752706073 0.459476430353 -0.450164388416 0.00786054324417 -0.872309436858 -1.03501336998 -1.95142004683 -0.274597960141 -0.646478226265 -0.996766644671 -0.420269887387 -0.430071981331 -1.50168207851 -0.365323171697 1.39643788734 0.0607381758508 0.563697142818 -0.401231568338 -0.746886370974 0.567086930509 1.56092692898 1.55691977428 -0.700949399863 -1.37674450565 -0.691122753919 26.1204467528
-0.0369260693295 -0.722084852688 -1.23713819517 1.00485878732 -1.03067964805 0.305488995696 -0.155435206941 0.158058795308 1.49524666245 -0.581171911984 -3.27352832783 -0.994005222337 -0.230403156839 -0.331250370782 -0.190079741328 -1.52481845144 -0.41004851879 0.344821243905 1.26842727631 1.73829393332 0.752030477304 0.377622627296 -0.791256694435 1.96767146901 1.01081547491 -1.90845807088 0.825682767031 -1.38820582731 -0.106075929922 0.0466722524263 0.716006328448 -1.16743524586 -0.171259732075 0.136962182289 0.600561347528 -0.200676105777 0.620815761462 0.665912621477 0.607721205597 -0.702823960602 -1.85566825706 0.769950111368 -0.133897415937 2.12952018238 0.0729427232869 -2.29798801554 -0.206486563148 0.269827602268 -0.725622216113 1.7522720321 -0.180139985046 1.60245330015 -0.905810348446 0.555698640487 -1.76678911969 1.78220482513 -1.21558903131 -0.948093256954 0.151108053726 0.457017542478 0.239902304799 0.349672114662 0.125478769627 -0.368724982249 0.185545154596 -1.68564219889 -1.86299634516 -0.193354404795 0.809043359073 -2.18110119708 0.728462748411 -0.767598307583 -1.42963115659 -0.0280189203471 -1.04572163855 -0.939634303755 0.491994626632 1.45198486977 0.220296177287 -0.84246407582 0.821060767614 1.06135489031 -0.972019126992 1.70746581896 -0.545712055573 0.693473762381 -0.66649690483 -1.85866231213 0.105867027766 1.25977840811 -1.28856618393 -0.806038104988 -1.00478350105 -2.16303526537 1.04411950168 0.198271992334 1.53350365547 0.222078499873 0.0310165129292 -1.82841102022 0.200906637838 -0.841287274476 0.860366841746 0.582011552975 0.465018953021 -0.189830955944 0.607457544063 0.340988411059 -1.01827644265 -0.163188205297 0.708717363122 -0.568459618211 -0.497699744191 0.631035793166 -1.73843800922 0.105371912513 2.76563221047 1.09636575252 -0.837721699541 1.35521292335 -1.47951829346 -0.595545068394 0.31171172164 -0.590141864453 -0.126886136001 0.455474669586 -0.555945325432 -0.255116335581 0.739244865193 -1.37665779439 -8.00899324245
-1.03448717465 0.0734415033482 -0.508944842795 -0.0513248029982 -2.25883325112 1.28971235984 0.0806217145634 -0.102797539804 -0.157054135041 -0.134145801698 0.753254526835 -0.0336285285662 -0.246581502086 0.160532873522 1.05298670308 -0.101279064146 0.150612242765 -0.84306727509 0.950065249462 0.00777537328879 0.720182872469 -1.36385941037 0.108401599012 0.165033770387 -1.04283297582 -1.30474079487 -0.407715848489 -1.27140187324 0.0888219575965 -1.76731607255 -0.380933029096 0.778922310142 1.27790130528 1.44125419377 0.573331339032 0.356627860523 -0.464802550925 0.935077640551 -1.88622896029 0.936094852271 0.87018990542 -2.83305976106 0.836722452417 2.10814352612 1.07516739262 1.29906593859 -0.162757675501 0.961433664375 1.51745593351 -0.643854562006 0.883622355181 -0.342217658973 -0.595222589156 0.896736019996 1.17867853357 -2.99092503723 0.0175901924148 -1.02225419229 -0.639069240253 -0.215187440106 1.93816142912 -3.69582515731 -1.05332456816 -1.05925710093 -0.289525795904 0.255125958296 -1.72627277797 -0.610004458311 -1.18086222075 0.435690093703 0.262468380756 -0.411266189669 0.448208689031 -1.19132875822 -0.204900366089 -0.561359512 -0.0107283692944 0.114136272256 0.778377618697 -0.396989375313 -0.32095428598 -1.83906580148 1.11239632597 -0.385623514827 -1.35366866266 0.119054208828 0.925585788073 -0.16556819678 -0.482299502186 0.387831878212 0.184888118132 0.855976902415 -1.20829202785 -1.10450941554 -0.307477407777 0.178618707294 0.571361389843 -1.25373378607 0.455288235548 -2.21187794253 1.95350900034 -1.51228276973 0.0336767965996 0.545667221902 -1.23206585573 1.06717755523 -0.278622867995 0.732885289415 0.157734189611 -0.0913883610583 0.577726828308 -1.01727565963 1.52990106379 0.844740202641 0.686416544919 0.713069813465 0.289391788911 0.118830959187 -2.59587575817 -0.0430751794048 -0.383901834478 -0.77514180127 0.268614249512 0.388859421866 0.598313805613 -0.18546310096 -0.491836810697 0.989361550268 0.280184869099 1.50424177174 10.079538356
0.627078558061 1.03183983368 -0.447268679874 0.322856342051 -0.180776363825 0.148989224907 0.0536645746937 1.90352110922 -0.938854727903 -0.142755237709 -2.12851455563 0.257253167794 -0.799940735572 -1.60946009209 -0.128706994957 -0.702406266928 0.481124267871 -1.00664065474 -0.482482551751 -1.21242900808 -0.488284054346 -0.871267904135 0.736601912163 1.14701186372 0.506194121602 0.849559039966 0.866302685648 -0.09971215673 0.944317913763 -0.0348614842506 -0.673939261313 -0.474655869521 -1.06269883463 -1.19063542652 0.503388957255 1.00574302811 -1.06037045676 0.0259243961537 -0.237498884061 0.0888533189045 0.0103218666511 1.23433771495 -0.356285976303 0.779137708204 -0.706715823107 -0.357460187667 0.579268968312 -0.797865206276 -1.29692972838 -0.00243517111156 -0.011991023964 -0.532758919773 -0.748475188506 -0.338320569176 0.331467851295 0.309589806905 -0.329291044581 1.36093753438 -0.620633255024 -2.2867368256 3.06023589547 0.402980548252 0.532340308685 -0.755234997941 -1.29991063459 -1.5429077292 -1.56209690773 -0.676092563232 0.654070131979 -1.43908346021 -1.26078826694 0.162833536256 -0.204922353984 -0.908235954049 -2.6867064664 -0.76545023807 0.198900190362 -0.436067631078 0.303839375573 -0.0272085079006 -1.9655649951 -1.06615646835 -0.609259691964 -0.84079111153 -0.324666913893 0.383925716916 -0.621313794793 -0.399133222044 1.24330395048 0.521603478044 0.681930617608 0.921645015575 0.43107222528 -1.17121405847 0.0303295937127 0.510498236208 -0.902458440215 0.888387437485 1.27316167414 -0.801794805277 0.832219025437 -0.429204984914 -0.148276417304 0.229167824333 0.990391181963 -0.314573310648 -0.896355616172 0.0938465966482 -0.530748511542 1.22271015541 0.991694594546 -1.78670753265 0.671359026948 0.522102862031 -1.50064061316 0.328174190228 1.08997418356 0.641304013679 -0.0327786473971 0.0567869836241 1.06382562333 0.566042418683 0.434988427926 -0.650346178067 -0.162959842087 0.815277431921 -0.876831715343 0.398474870503 -0.219706721261 1.52098526819 -26.9448046923
-1.36845625429 -0.316676992679 0.416582217385 0.302559636513 -0.287975645561 0.931238669435 -0.570291642999 0.0334956719169 0.846957878606 -1.11932425596 -1.73172025102 0.226676744623 -1.11986079645 -1.22653720485 0.973257433526 1.62553695106 0.23794606231 -1.12125386386 -0.300986615519 -0.253751446701 -1.3858749689 -0.0205399708207 0.0940779128421 -0.027620616324 -0.138860836716 0.530876461186 -0.374750179133 -0.0847796346099 0.468152963635 0.478553981948 0.403975444203 -1.6262042116 -0.217461711658 0.698652960259 1.75030625598 -0.825196335943 -0.102443365423 -0.739806850082 -1.29926107856 1.10740700709 1.66512925359 0.826138094426 -0.936300833123 -1.21855720043 0.663546648178 -1.85721228886 0.0506093519458 -0.402000435534 1.30683585932 0.132167969188 0.58490563987 0.53194354476 0.312835982233 0.674449904218 -0.289553319467 -1.82052285131 1.42474562127 0.0709303643875 -0.937153163697 -0.0177239630248 0.17596609819 1.12927246208 -1.5566338832 0.759484808517 -1.70459737922 -1.20392300864 -1.13021300784 -1.26731049544 0.87395716081 -1.39506771423 0.0938647424604 -0.586561969945 -0.505663816398 -0.482898175995 0.955244147486 0.773501219895 -0.459031651531 1.85002711477 -0.600996107088 -0.304872752604 1.18131895807 -0.221494176902 0.613849829968 -0.874778331684 1.10974581838 -0.104573580488 1.1260537874 0.549929321951 -0.937147695748 1.58358098782 -0.925329382984 1.64653822151 -1.02914802774 1.26000499684 1.56892464314 -0.759502555621 0.337760948544 0.356877650529 -1.00200976352 -1.32780598784 -1.21590447757 -1.52475674552 0.133733859555 0.309068592677 -1.05554177972 0.751089994182 0.638358992142 -0.335230297543 1.52014095016 -1.53136294373 -0.535762125601 -0.181390520207 -0.66863945001 -0.515819560465 -0.744669483141 -0.653636125464 -0.0371239326001 0.236883070542 -0.702063757945 0.114524109194 0.219705069758 0.549747396635 1.03736768257 -0.221023524683 -0.304686585758 -0.494721677279 -0.138995118351 1.15465442443 -0.755939745917 0.119815486784 38.4797907701
-0.497361688542 -0.820816980888 0.584198718816 -1.21135584342 -0.488475836369 -0.933151073255 0.306073876804 -1.84023756296 0.200523474448 0.099793973416 -0.344069652647 -0.0383981256832 -0.0463073913967 0.850048863505 -0.81320659161 0.862687247923 -1.02771720177 -2.02613689214 -0.833403811382 -0.345721475586 0.0139330414946 -0.134092785573 -0.197783588522 -0.634766568674 0.0534955610228 0.651038900836 -0.0179993355851 -0.0255746054594 -1.32466763188 -0.362971877106 -1.56498027422 -0.640831653445 0.460198285639 1.14530893724 0.0132215684568 -2.41178597817 -0.235946672809 1.251033471 -0.6562674696 -0.0489314431505 0.358153043215 1.82345472369 -0.633643894886 1.59028540668 1.09069825818 1.08027802812 0.905650409333 1.52776110704 0.0195955903487 1.17405097948 0.448471120507 -0.394291981261 -1.90872467003 1.20514600544 0.186837074868 -1.68003277702 0.21123795773 -0.417205487702 0.339607514048 1.85646050669 -0.614279988508 -1.21773379371 0.967444251656 -0.600079359971 1.2206502033 -1.60068128755 -0.0171140256186 0.559476214515 0.525592942064 0.360034497319 2.26304320258 -1.12343567031 -1.94942168629 0.0321544381369 0.62868053173 0.98339857796 -0.750165140255 0.0199027179168 -1.09219514084 1.35246759248 -0.335292674177 -1.23457336597 0.121129310335 1.61233910766 -0.925638602303 1.81632080779 -1.68950142516 -1.6621068252 -0.0232852699227 0.502286969073 0.6368142572 0.446566343046 2.30116266332 0.10601714673 -0.959755450564 0.127820057795 1.23693511336 -0.817729018508 -1.12876204372 -1.19644199729 -0.275820658118 -0.613315115051 1.20178055194 -1.12044812663 -0.590946814373 0.915281293714 1.60586009261 -0.978432647403 0.617844414571 0.549455877908 -0.237304427505 0.820305210081 3.14603700477 1.18554880645 -0.623613337046 2.02344875918 0.265319840695 0.0521457801401 1.07486764739 0.914126469408 1.62577111334 -0.756230963587 -0.706123822656 -0.125266946407 -1.07908107233 0.584699861521 -1.40713471322 -0.593396876037 0.365551523335 0.589350038443 12.8760597805
1.01935168062 0.571583200924 -0.325258563569 0.189011722244 -1.21597066402 0.0179819974094 -0.5145551348 -1.83336636909 2.02181295198 -0.351315946235 0.525263306715 -1.92617682025 1.35852399749 0.0913630895763 -0.144933422549 0.628795187658 -0.19649716811 -1.70858457729 0.80637207834 -0.0854198842878 1.5159791894 -1.62186920608 0.874825277455 1.50316753535 -0.786323425865 -0.325822423846 -0.253210107467 0.453273783635 -1.31542053205 -2.57046114655 -1.38790209157 0.748005112211 0.902237412481 0.403989851094 -0.606218397089 -0.443890506602 -0.437739525665 -0.331350842048 -0.396543843695 -0.761233464492 -0.43386122689 0.328805207187 -0.693762529732 2.5763122608 -0.700264991473 -0.970439400958 1.08320117187 -1.32214299815 0.20672806786 -0.554812731809 -0.847583513552 -1.35272571383 1.24908957977 -0.735772813567 -0.155358244326 0.15657228941 0.265267595049 0.308812588281 -2.60971744136 -0.966490804559 -0.0924053537375 -0.0662050734584 1.15443613516 0.0966298492658 -0.826009860434 -0.409985810261 0.430432368946 -1.20553547708 1.72321370059 -1.0050659287 -2.72115278905 0.987451115987 1.09226559567 -1.14445847531 -0.105909833773 -0.427926883016 0.0980765284741 -0.524544823197 -1.13962347871 0.366820389364 0.606513794521 0.406336281024 -1.01549681154 -0.855955095393 0.891106821756 -0.599345142924 0.289719033423 0.652362908775 0.704033866979 1.07345427152 -0.995192182573 -0.804964401139 0.794071178024 1.70083168229 0.414505304995 0.459284542792 -2.54560540244 -3.06800616927 0.457457065708 1.61697286519 -0.515633659222 -1.41121772287 0.112025939009 0.360575324807 -0.386979692588 -0.380433628318 1.37816304516 0.993080260871 -0.0223484850543 0.939561244485 1.19866169645 1.03117142718 1.64328944487 -0.839775352137 -1.4690246316 -0.594882670201 0.974895402292 1.08236726828 0.155597144245 -0.595059765248 -0.778120494836 -0.787292362913 -0.461759373008 -0.313352068592 -0.714529568818 0.169368560619 0.0910873454814 0.762502803096 0.707637113619 -2.06639190279 33.0094885985
0.146020381565 -1.66670218161 -1.85047567043 -0.377248588824 -0.721982607773 -0.937126687774 -1.52018956572 0.37395997269 0.78110906452 -0.183100888243 -0.604078253797 -1.29874151213 -0.962907817307 0.0989071199407 -0.330223161615 1.02498478648 -1.23533131436 -1.06339018167 2.52945238611 -0.902608796063 -0.240183216071 0.367044615321 0.357678130838 1.20086118898 -0.6120116975 -1.85002449255 -0.107645768434 -0.727072996057 -1.30767219587 -0.769144673163 0.456691079791 0.595321777461 -1.22106400033 0.327469949683 -0.403695421554 1.17001603047 -1.60814257405 -0.954952121721 -0.0479595731596 0.741198941348 1.86076245264 -0.342986017817 0.234764149764 0.90715226079 -1.21385662887 -0.636587611137 -0.207390493281 -0.873404142134 -0.0118447921456 -1.6417328912 2.32177203253 -1.55535997012 -0.508254087707 -0.658812989392 -0.0519833997076 -0.506354992789 -0.00546340701971 0.807074431726 -0.321202679326 -1.04278635801 -0.88343305733 -1.42518999577 -1.16588324313 1.07086827409 -0.867074905942 -0.407293948685 1.16794453284 0.141352494361 -1.28615095493 -0.372145699083 -2.61649147788 0.770645430915 -0.0801492034188 0.539626080943 -0.187702864637 -0.734088871567 2.57786620992 1.78640013193 0.654256130581 -0.733835282845 0.646128408753 -0.830080799341 -0.866717043925 -0.819500789723 -0.853842038069 -0.0314447883693 -0.184831515505 -1.3320614269 1.13399634295 0.924472404648 0.429177322471 0.207911558931 -0.303358197186 -1.24461889819 0.325769114532 -0.864088895815 -2.93226762561 -0.284548095246 -1.2007323889 -0.0848850821486 -0.405189096125 1.04838750966 0.251148555331 -0.650608296024 1.58236094116 -0.0698607393035 -0.23362941312 -0.459654030353 1.28058369104 0.376196607039 1.1319419396 0.0387652978889 0.648427251975 0.389312412126 2.03536990604 -1.34742155991 -2.06839179856 -1.20743930807 -0.325561271824 1.73426067592 -0.957804497321 -0.35175463229 0.207149186323 -0.211575249668 -0.438122379591 1.2547625345 -0.806167202609 0.391538009649 -0.678638427368 -0.292756864142 -29.6861907501
-0.356877396417 -0.997203604242 0.610695973865 -2.11116852553 -3.09238778713 -0.233263592391 0.144312658192 -0.131750073303 0.324141423288 -0.392178549616 -0.152369506652 -1.12306097891 -2.39910038115 0.109731217379 -1.80476371294 0.180151684172 1.18546524982 -0.188278397278 2.34026430328 -1.37383972423 1.06971201792 -1.07250852908 -0.528355700681 2.25589397882 1.45931778619 1.21365066414 -0.993491972885 0.294885305004 -0.421509206289 -1.36305552915 -0.242864607982 -0.883035093812 0.0127137494712 3.01074877317 -0.246817205067 0.169585640034 0.304368481654 0.450724288007 0.889219439907 0.32708365581 -0.838017061533 0.0577996429105 0.719869312357 -0.283720314459 -0.0542646641115 -0.398954551606 0.810783303468 -0.260809875911 0.122634795359 0.471741341596 1.21030414929 -0.721971513509 0.591709330284 0.491319546953 0.644488471657 1.62015213364 -0.219105406171 1.1939480968 -0.736583400535 1.13872805244 0.927550207733 0.153201267416 -0.277019477082 -1.70345606871 2.30960703459 -0.319694481326 -1.5306157884 -0.315691915037 -0.405724561322 -0.488709462736 -1.10762346091 -1.03431117672 1.23244440156 -1.52784926107 -1.49714645998 -0.165294894033 1.16414951939 -0.216035671064 -1.51496748455 0.500854652562 -1.37061498097 -0.170767072804 -1.8107132372 -0.978238972504 0.059172254768 -0.402783179619 -0.706098370619 -0.487796877707 0.830694699323 -0.0848993675928 1.27581107874 0.282088326114 0.121193571212 1.39600999469 -0.344385958305 -2.13755272286 0.473737952653 -0.48018991802 -2.1148775044 0.085865422623 0.49252808729 -1.24617690597 -0.872994910942 -0.482771737399 0.2462122086 -0.321862065668 0.263225323067 -0.922071584088 0.609679321139 0.654374947774 -0.771942839688 -0.201781196252 0.318586057183 -0.072217720399 0.0414301482174 -2.16069585029 0.535333153437 1.09913730734 -0.0685440418535 0.535810691333 0.175176429872 -1.20759211944 0.361823187077 0.7289530729 -1.63465931385 -1.14556268275 -0.933711875999 0.918474388263 0.956791448237 1.30172350925 16.7765273338
-1.65580542479 0.855198580041 -0.447760762518 0.150674293885 -1.29206712295 -0.230542318028 1.20215802281 -0.855430564844 0.221988868382 -0.367177116713 -0.931814454229 0.192243583609 0.581556861096 -1.45136212081 -0.216346782193 -1.83276778068 -0.13189017407 -1.62707756498 -1.34900333822 0.70838661345 1.54914234361 1.31210220184 -0.0200254700939 -0.0524823414926 -1.068240087 -0.804303879561 1.16001464224 -0.141173033659 0.995536936544 0.0780479913956 0.628633628566 -0.983710166624 0.368204996715 -0.0499898990453 1.71949436087 -0.339480640515 0.219855449794 0.0234499752513 2.04852332792 1.06327692188 -0.124838489027 -2.44037946742 0.503342195109 0.120174468069 1.31203255356 0.842344484842 1.81084826207 -0.13630976813 0.180108423256 -1.6043981994 0.34628620757 1.47254747506 0.252859989032 0.644267826345 0.109937644805 0.0139103107687 -0.317781433836 0.113843292945 -0.201926536545 -1.70437373938 -0.649239799216 1.32674116983 1.22482154557 0.583417073653 -0.559499568431 0.959921207357 -0.225179100981 -0.999984051661 -1.35109341603 0.643731675895 0.795588492817 -0.261309189062 0.714585379606 -0.370836068504 0.128932901474 -0.592137907266 -0.788192407316 1.38353357024 -2.17460882884 -2.49481247282 2.46306847818 1.64962015891 -0.0630401799858 -0.930744420539 1.02684213488 1.31798531248 -0.0601228464112 0.976841012298 -0.699076650999 0.866845318449 -0.600614233182 0.18416586788 -1.01008468325 -1.0892410342 0.831531069681 0.76915968234 1.33365997801 -1.38860625573 -0.817954781596 0.260905542612 1.00215908017 -0.666605905132 1.96266710022 0.448317297873 -0.72499684467 -0.0493657569272 0.398051381977 -1.70661881661 -0.261254277883 0.29579761247 1.08870954108 -0.00636431871034 -0.664906752774 0.270068042354 0.373912910274 0.676751065502 1.66966134205 0.444840943986 -0.31081398877 -0.805315757601 0.0320249930303 -0.408518529353 1.27234674109 1.09186876318 -0.0892068222359 -2.77620409238 -1.08872206163 0.537282874643 0.157453425162 1.04408771036 4.46188107263
-1.31878757485 0.221056680845 -0.189616056644 -0.711749183645 -0.679047823879 0.679380880887 0.348404640641 0.91255502836 -0.00799048164281 1.9681483386 1.93683057112 0.332878392899 1.0439693313 -0.0476966456136 0.538977387884 -0.181983279244 0.0449085562812 -0.182958383123 0.708512001707 -1.50201855687 -2.6770559049 0.0147169496261 -2.02763760657 0.542949072102 0.343123297049 -1.19004219904 -0.306205746565 0.446587984831 0.52363006655 1.68919529848 -0.496374216425 -1.09401464203 0.424349726755 -0.548645095189 -1.7073096949 0.710702685239 -0.869859109725 -0.422482054542 -1.06207785667 -0.217720060828 0.0994832973513 1.38262497702 0.335330613525 -1.33787914509 0.683540444013 0.476000748484 -0.0624373446836 1.17510494552 1.99799138708 -1.54474108955 -0.449596184243 -0.264181251202 -0.973916042867 -0.928854443856 -1.2961985294 0.121835984677 -0.577916132915 -0.0428927845822 0.599519665072 -2.45695223235 0.0499496223583 0.194728038657 -0.537209326578 0.711510603569 -1.04189868061 -1.90152632765 -1.15762120382 -1.47726955509 -0.82836145954 0.159513829355 -0.759079072809 -1.19616889938 -0.815441917647 0.217281312887 0.931228768192 -0.0119895278115 0.333576116249 -0.863221860296 1.93427185636 1.79464592795 0.899829219847 -0.512443566321 1.46992882469 -0.820601336629 -0.131210540254 0.529393416512 0.364614243852 -1.31874851832 -0.103792695368 -0.463746654471 1.19965810358 0.172799437586 0.239637858524 1.30720653696 0.994013455467 0.19557663698 -0.0950868387175 0.831744312554 0.34203871256 -0.135962341658 -0.502844041929 0.771924892378 -0.767746714817 0.556572027395 -0.992285561045 -0.782203390237 2.26238171698 0.17155893916 -0.864722268954 -0.489999751415 -0.251504909923 0.683067163896 0.361083248014 -1.03495649919 -1.4656952665 -0.92550234664 -0.0472540325827 -0.610580569231 -0.186187074852 -0.467406199167 -0.671196672861 1.88510823384 -0.0345949730874 0.28315962165 0.584115916619 1.13695678424 -0.391160935598 1.3900841848 -0.0173463689927 -0.233141570101 5.92501940914
-1.94418830548 0.441708475105 -0.570752340204 0.519523508632 0.716562055051 1.43537459217 -0.223880087101 0.597396740502 -0.422887997235 0.521674545143 0.0827943325139 -1.89144544855 1.62793953138 -0.447069476931 1.04435612374 -1.00921465286 0.33004878468 -2.1872752039 -0.831441548057 0.247620852647 0.96007762518 0.593478332158 -0.637902699676 0.60840971506 0.596801623745 -0.725572494907 0.234427668774 1.45193344629 0.453165826181 -0.493675575287 1.26606325371 0.895803514615 -1.70333451858 -1.03914498765 -0.99033598686 0.767134766585 2.03193725533 0.332075527795 -0.0768997538275 1.71679022278 1.72257651893 0.314985092645 0.266181958823 0.644566848896 0.0188113529507 -1.55659331876 -0.402293835212 -0.905012611162 -0.396569976811 0.141292794876 -0.682137642307 0.918432427212 -0.117070770423 -1.61047672336 0.738718103691 0.234759201023 -2.4735034768 1.95865479674 -0.164548486389 -0.802296688089 1.6255766943 -1.68863697616 0.598191987407 -0.287157914658 -1.06983208495 0.365513700042 -0.917630520667 -0.162221258677 -1.92567864692 1.67857836148 -0.0422735575385 0.432319612662 -1.21214349893 -2.11623969213 -0.906975902664 0.386728347645 -0.021627698056 -1.01287718215 -0.168956044546 0.772790437207 2.18417621056 -1.15094856094 0.790496521119 -0.440164909949 -0.575830563343 -0.517400697959 -0.136057150052 0.203810227666 0.244061311738 0.513084423399 1.081304497 -1.45271270671 0.425803315996 -0.017913253932 1.16629227273 -0.867548004552 -0.192718743491 0.042050739544 -1.1832878021 -0.0821826766316 -1.0262874577 -1.50527865886 1.21811691236 -0.135223645612 0.785526025227 -0.20748670229 0.0723095657909 1.0038199089 -0.011965050037 0.756152465649 1.54523777686 1.0746366637 0.241858278664 -1.35388386515 0.246987221947 -0.588692345271 0.389318340004 -0.491425158766 -0.783686374937 1.00951656708 1.6972720118 0.313928835712 0.237489314927 -0.401148519894 0.756019854716 -0.395757097891 -0.110797879583 -2.96989851691 1.41350731213 0.0971714624606 9.83905931838
0.131997539867 -0.484745219275 1.8435411465 -0.850587205342 -0.613337109872 -1.45151159153 -1.0070049403 0.603719940092 -1.87380949465 -0.0280257910359 -0.585936848039 0.844148549654 0.583223951807 -0.142245983092 0.091053204595 0.753955067279 -0.481984293327 1.26853188483 0.0250342117844 0.522387907177 0.27841946033 0.902613256902 2.24928826844 2.00643133578 -0.481984292373 0.52928437397 -0.984081614038 0.900884972722 1.65069097899 0.202458359069 1.68584410813 0.16586558679 -0.481586055426 -0.0221308099881 0.935719089818 1.40692611995 -1.29879274886 1.09000128688 -0.100052111646 0.941315714322 -0.588291022316 0.303240625581 0.858011600893 0.554797068789 0.668499315494 1.01548755642 0.472381114043 0.873549170774 -0.373462396916 -1.29991052093 1.04990992536 -0.226040946617 0.311593418671 -0.0861346867437 0.786197688507 -0.172735755193 -0.433545692671 -0.592875735303 0.127835525017 1.35541135572 -0.989488406452 0.516971309806 0.770807556399 0.443967266153 2.11951766617 -0.205821923971 -0.936172824173 1.71537120525 -0.435052822562 0.61231744871 0.898692407585 0.298847206127 -0.198614396025 -0.668766952301 -0.56403235945 1.27961866956 -1.06289455981 0.884157998021 -0.414752939311 -0.928943909396 0.543297323823 -0.713924678788 0.0894338678592 0.327567689466 0.618001086928 -1.31865279731 -1.61370404221 -0.524449961783 1.13245019907 -3.89769161568 -0.711218925767 -0.281218048092 1.81079053675 -0.743552283676 1.88089082066 0.308517597768 0.744540282042 -1.61866540127 -1.31157582263 1.01324337647 0.129185614246 0.941317968856 -0.727641300012 0.0681689155217 -0.603832677868 0.912402100616 -1.02895710422 1.03490265506 0.163346685279 0.847676384041 -0.354178083808 0.645728933906 -0.478058090965 1.01284833269 0.244756149854 -1.21978751704 0.173381692973 -0.125790932966 -0.747537504046 -0.798777418739 -0.719841182232 1.77008830818 0.552077767396 -0.766504974924 -1.39832263003 -0.245007317902 -1.20171323127 -1.44784890573 0.508725108051 -0.558117804789 -33.7752526363
0.00720160020706 1.5168793615 0.246251368764 -0.173878062847 0.689485017727 -1.78480033164 -1.38337321457 0.407866733441 1.06551157794 -0.268934883958 -1.06246781726 0.359132281227 0.268149781134 -0.107243984295 0.0675476263331 0.741250984384 2.10366949563 0.693335426144 0.98896640424 -0.623563876384 -1.91131788113 1.16967217771 1.10596460528 1.77324924273 2.08244251962 -0.281808150623 -0.95218684532 -0.9706672084 0.283210290966 -0.110083572172 1.98258607539 -1.3921459076 -0.0295003406915 -0.831305276662 0.159409988024 1.02236066477 1.67693644098 1.5538463184 1.2338689436 -0.42439810916 0.979043809462 0.0635138388533 -1.19057091315 0.214936916689 -0.112273447255 0.996320051401 -1.18856197065 -0.837168443787 -1.14849669646 -0.193465666268 -0.344308410876 0.820059062711 -0.113806077447 0.371725255357 -2.65803179872 -1.47571411887 1.54886539151 -0.489236427706 -1.37871294724 0.654471162464 0.905247123384 0.0426935438209 -0.65003645123 1.95933436065 1.60760603463 1.12679375446 1.39779717828 0.406294267831 1.14130699916 -1.13526837203 -0.0134973571144 -1.08138599384 -0.29688136995 -0.726104752165 -0.204336780682 -0.273961381425 0.695113898536 1.8838856246 0.847631496324 1.83848845313 0.0330131433282 -0.139881282415 0.401450138906 -1.30910928906 -0.440617933214 -0.864221227409 -0.370165602351 -0.510375983749 0.29698342776 -1.15191354677 0.207096856923 -1.49361078765 0.161380817387 -0.601918566779 -2.47654203718 0.871942742808 1.7264103835 0.845485267233 -0.647655497511 -0.897178168798 0.622013097654 -0.819606208999 1.93393932158 0.98929596942 0.800737204259 -1.71194244724 0.831053677976 -1.10282736641 -0.035579975632 0.0174969143855 -2.20207990752 -0.0596492270459 0.0620564197119 -0.153205314439 0.636615556774 -0.405617924324 -1.8245252872 0.611013201371 -0.247164116252 -0.561567154721 0.767375640169 0.0583153605034 -1.01382305096 0.21687421126 -1.08889447475 -0.162552669385 -0.675337091108 -0.752707942149 1.19518003759 0.163081328851 -30.3669242854
-1.05904802913 -0.127501647958 -0.516120034933 0.61701129735 0.62306490878 0.593541105241 2.57677357435 1.24678646005 0.505307337922 -0.228325323514 0.241518051694 0.258289876255 1.60484192728 2.5322857436 -2.48677808401 -1.91219692107 -0.0301312535209 -0.306950398727 1.0619624281 0.160194063751 -0.657067031032 1.51053313457 -1.23906677333 -1.44745688442 -0.303178331122 0.100943473558 -0.209566355485 0.293882168872 -0.0723709387514 1.08329112604 0.969638224804 -0.18312645054 -1.68634023761 0.639190819935 -0.595837486611 -0.622585816531 0.991417744092 0.311853789708 0.27460371751 -1.53125155725 0.130923960305 -0.825755067337 -0.995997315421 -0.375698263482 -0.782724756226 -0.761493142818 0.236652947495 -1.28755690839 0.494266334411 0.14125510218 -0.215947245796 0.0582270234419 -1.71855658578 -0.668448609944 -0.0496151746591 0.104494150906 -1.098963798 0.994830194069 -0.334353360189 -1.01738577726 0.0601794441836 2.37544967338 -0.51773731831 0.536436942307 0.661672434415 -0.29521750307 -0.681049274272 0.329269800253 -0.848629745822 0.0970882129107 -0.468969566197 0.367512229423 0.301806368973 -1.38957192788 0.444387911072 1.60878878641 2.11725832201 -0.444014803629 -1.462660858 0.72530568303 -0.313273262971 -0.148185575213 -1.39481128806 1.84702433034 1.06932177297 -0.641566512992 0.900913830646 -1.03652621538 -0.496660329886 0.406435693699 0.683912997805 -1.23059494373 1.18195294659 1.1349368287 0.795436381675 1.07064407403 -0.333006145271 -0.240292680407 0.95168885393 -1.58150784391 0.529514675797 2.54497908528 0.571650451608 1.67007437239 0.727002862735 1.08769912638 -0.627380790456 -1.08194590891 0.992660255428 0.262291362618 -1.4165694909 -0.493265129802 0.255768953612 -0.272949824447 -2.17267338832 -1.56629248944 0.561156048713 1.18109292589 2.58805235146 -1.01945534524 -0.893745781724 2.45999108368 1.34283379464 0.586631624987 -0.995217504133 -1.99331378778 0.618538446664 -0.786870308866 0.466460007765 -0.767645257072 -27.8065546531
-1.06393817617 -0.124181657532 -0.489897910704 0.99066174587 -0.247677123034 0.297290583093 0.501861924353 1.23198488987 0.234284107671 -0.171742858682 -0.00675283046889 -0.629420596162 -1.8236224394 -1.56182299661 -1.05784339276 2.70656863702 0.532609139087 -0.445849471993 0.59877722435 0.203408243155 -1.96862902464 0.285237826182 0.54658401807 -0.619778647586 0.231122802735 -0.0872616443225 -1.70120279439 0.917543833456 0.306874934408 -1.61445914885 -0.81826597101 0.376343620549 -1.08890770477 -0.340208275229 0.338780504672 0.0397902484008 -0.87608725724 1.31115272288 1.09166340273 -0.567186977375 -1.22283319265 1.57050994483 1.72048389722 -1.18365398655 -0.454238254997 -1.55904695355 -1.69075445067 -0.844355521118 0.0965708209012 0.513393093875 -0.776392552741 -3.16090262099 -0.879386126329 -0.0589702572309 0.442844996663 0.797500580271 2.5927982837 0.520791236338 1.35729406652 -1.18021243446 -1.27627220852 1.33709955713 1.09165778474 1.15214510336 -1.69347474299 -0.227431098214 0.756470050871 -0.944572522282 0.231872416397 0.813426876018 -0.9417348225 -2.09990673071 2.19143155119 -0.238733279973 -0.0820601163246 -0.262626070171 0.312705277164 0.023694383843 -0.190652611859 0.44842629588 -2.08925772027 0.866051307242 0.808317029552 1.96563282318 -0.635035588685 0.232937708358 0.343974614354 -0.170112326272 -0.288316948764 -0.22376070689 0.376427771867 1.05123332162 0.834290726975 -0.233870884734 -1.12768793635 -0.222022844732 0.444404947098 0.89251231849 0.425456089099 0.0422882996347 1.41121113313 -0.444530153293 0.296511414302 0.107807954517 0.275092067553 -0.0552109420138 0.935463130379 -0.0936928634214 -0.190010783686 -0.0462512062341 -0.378299765886 1.14726327346 -0.889087345888 0.55514629008 -1.17541695293 0.0315242391053 0.111725295798 -1.41396768807 -2.18240022099 0.0753911227633 0.625910094006 -0.0572109013193 -0.677064697515 -0.00670361608454 0.278173586052 -0.395210578612 -0.358511390906 1.93992225604 -0.347400048797 -0.144071401421 -8.92936768814
-0.0642292593606 -0.943303506406 -0.187677163156 -0.760399419307 -0.753042298603 -0.979798138837 -1.46072782513 -2.20813485537 -0.929837228646 0.382930873366 1.10345320696 0.273171128977 1.40147604386 1.54684466706 0.262828844886 -0.35570654698 0.602403717171 0.0178052127784 -0.198166872162 0.447614353464 -0.528283074803 0.131382636156 -0.452674159468 2.17540170791 1.01850693325 1.85030955505 2.07577279163 -0.400893893432 -0.237437267057 0.459290966607 -1.93317368925 0.19195808161 0.0725979332783 0.660523108279 0.123126139088 0.197421257374 -0.272374478315 0.730765474002 -0.593566428102 0.447956812256 0.857126488817 0.615703161242 0.499278111407 -0.104070556212 -0.499333055221 1.26667840499 1.69119037493 -1.25930578433 -0.36583162961 -1.29367064523 1.48669386019 -0.487160308879 0.342089646941 -1.04337834441 -0.302098486744 -0.629840495548 0.341092781034 1.51419901149 -0.923348813744 -2.19826498642 0.126732016643 1.361936564 -0.401152062251 -0.819572976118 0.214250493844 0.447492702511 1.35482457606 -0.0895408970229 -0.174476321057 0.128455742015 -0.0193433336732 -2.03418601499 -0.774659284847 -0.803297861642 -0.167708296276 1.69104518751 -0.646415705458 -1.05495023115 -1.45330927124 -1.34501470404 -1.08483069492 1.42886688296 0.67554168281 0.273352654836 -2.4445841165 -0.522264948954 -0.609779475878 0.449527316497 0.452440952862 0.763499015436 -2.22975635954 -0.0762386192417 0.202807816205 -1.25274154529 1.13360102062 0.960554993167 -1.01339408497 0.718085932794 -0.742259101499 0.0845002860431 1.27454847725 0.469738236462 1.33670113904 -0.93939458308 0.668673052789 2.68055241248 1.99776699747 -0.567531579535 0.528881254076 -0.0058872393531 0.353617790936 0.713189448944 -1.27520570165 -0.579483900171 -1.34823217 0.168779537064 -0.664738625755 -0.948787237328 -0.554846716655 -0.297586773176 -2.10064598695 0.234433486786 0.717955355569 0.415253121247 -0.684344460535 -0.607936865294 0.161785465345 -0.513052151202 -0.208675861797 0.0688319277887 4.8596045325
-1.62927919715 1.34857728162 0.229232689785 0.882661629618 -0.915135670646 0.020293387145 -0.641600070137 -1.47621659289 -0.153677056398 -1.81953390103 2.35774053988 -0.856212384908 -1.42903002502 -1.91791677893 0.403374857247 0.0187021233402 0.386683621453 -2.78347233705 0.199266817043 -0.297518313993 0.758086649404 -0.273792366005 0.925913762763 0.70972344254 -0.686043933154 0.067397383977 0.223147466062 -0.202720850185 0.13740091617 1.01386578855 0.57992699961 1.11836207748 0.0236036007502 -0.0220115570557 0.589469873386 -0.768802204113 -1.36236884561 -1.32753528371 -0.593206811058 0.0437380656115 -1.41076882763 0.931420564687 -1.68938997315 -1.58680325683 1.23178780849 -1.26489443095 1.74319366045 -0.789935107067 0.600887653908 0.0602958498942 1.75851094445 0.19207059664 0.779255418477 2.35885928465 -0.661436333406 -0.676354776541 0.77915220753 -0.0236764173126 2.85871846668 -0.131529932835 0.245818206017 0.75650607336 0.955604077823 -1.0240345889 0.0654818396013 0.457903999791 0.739074662396 0.993110788566 0.647592970872 0.776200705472 0.608228832042 -0.507977372384 -0.749825709476 -0.576047579179 0.593073332747 0.408059923453 -2.23721069194 -0.347165748899 1.05375136517 -1.95947928516 0.13926561281 0.249151088399 -0.22155955956 -0.873200112993 1.29767768868 0.559646168774 -1.51525373398 1.38814792194 -0.304320367827 0.443142304178 -1.97302139349 -1.50226262163 0.722782876242 -1.07695604839 0.215773255883 0.467149583264 -1.42555303749 0.764096585749 1.49495970444 0.381536621668 0.205663116757 0.792906138041 -0.0118323179163 -0.31619189424 -0.487322737286 0.141166764713 -1.25952691664 -1.07534433128 0.711108269712 -1.37201548447 -0.886453672837 -0.160987383556 -0.0789897164811 0.393010220727 -2.36898365649 1.70806619252 0.100912359461 -0.132228526836 0.748914896867 0.19286527365 0.476087491302 0.171782255021 0.96725565166 0.155040817309 0.143329868207 1.31202377741 -1.4502229576 0.959632748205 -1.3449266401 2.20749051969 27.3978041928
0.0808829116578 -0.198228008701 -0.27659893298 -0.917023336478 0.128790541633 -1.1009033571 -0.582105996014 0.621926651695 1.90923359377 2.2126930225 0.0511827810209 -0.0132706754774 0.956238842192 0.451149377065 0.162134171186 -0.588897499021 -0.323408455356 -0.138197878755 -0.030545255158 -0.163343146361 0.944561994169 0.218588886108 0.317542979536 0.554809401633 0.130289749282 0.568355422551 0.137187557424 -0.783023854528 -0.77340648427 0.0723202356153 -0.302725374161 -0.829749815151 -0.617517064315 1.59206170048 0.669412549852 -1.44241356148 0.160124162777 -0.533851863895 0.54346463365 1.27198824082 -1.14748444883 0.078237052433 -0.263933559333 -0.734674783736 0.937380111709 -0.680365098836 -1.94114042328 -0.246904078772 -0.157256005108 1.32273557043 0.920504250675 -1.38757624952 -0.309152997472 -0.490767322489 -1.13263286388 1.12702554829 -0.220946489258 0.401073473991 -0.533339698446 -0.308356435293 -0.0417229438147 -0.271176395919 -1.21006348654 -1.46784175805 -0.274299844163 -0.284550032357 0.782079655637 0.786511236875 -0.183427856117 0.966203594725 1.38478203155 0.702746893061 0.125582982756 -0.0471683748945 0.343328953637 0.718019972456 1.96618445526 -0.886623869135 0.101756896494 -0.503300269891 0.288902984605 -1.01557284989 -0.258499630671 -1.10588799361 -0.914996810593 0.858871514563 -1.03197349401 0.195315959438 -0.191278415789 0.67788335136 0.58268463557 0.0352791908955 -1.03307556418 -0.468611564547 0.990251108477 -1.63167430033 1.01921570928 -0.63860079559 0.0232917211 -0.841701247524 -0.680169576922 0.963929973717 1.15800797182 -0.624691925618 -0.885873577824 0.0540451764508 -0.879031965574 0.365317632079 -0.963397487322 1.42473283194 -1.08004659302 0.343166070183 0.157544121639 0.780796935718 -0.783756326187 -1.2644152191 2.52659042875 -0.947549139912 -1.47801747557 0.0858404395054 1.24230892359 0.307785640189 1.65176352662 2.92783386646 -0.665977346164 -0.887740841824 -0.633282247108 -1.06704939828 0.959183234796 -0.086953389129 -30.3293125207
-0.226511869583 1.33131001318 0.520587818697 -0.750750865611 -0.876744235586 -0.0120306446051 -0.186694779238 0.477821753752 -1.03640318782 -0.553228972171 -1.53551805387 1.04431621898 -0.285974729488 0.214669594731 1.20865346368 0.856154364644 -1.00539292836 0.0323656040446 0.505489284187 -0.339566801741 -0.539771689999 0.141581282043 -0.571043024672 0.36636279738 -0.305125284999 0.411307252036 0.429809259493 0.499215616613 -1.45148234124 0.690263494154 -0.937516904751 -0.388144002622 0.318864302289 1.47884904169 -1.72135753947 -0.854763478401 0.595357179312 -0.718383211115 -0.312077779002 -0.623343005443 1.10941547102 0.906846657566 1.01990942902 0.447024804164 -1.06791744114 -1.1075875308 1.36549224888 0.134424882036 0.0918710095345 0.243016415927 -0.784002058118 0.43335841095 -0.644436114756 -0.208984027111 0.462964770323 0.905190810376 -1.96037651794 -0.610481551368 -0.498144422594 0.12897393108 -0.451139820674 -0.378751187426 0.864066243057 -0.641049309979 -1.06842620085 1.36350294714 1.19611752868 1.40849947094 -0.253078758039 -1.27927303346 -0.461695309261 -0.31835874134 -1.2098608492 -0.386680327312 -0.656734223923 0.645260464965 0.238094809166 1.49489737856 0.376192367859 -1.20903820979 0.555219341142 0.657320294939 -1.92361296123 -0.0903958834831 -0.0963913174195 0.230813967973 0.0385308315284 -0.21620964816 1.34983629656 0.0465394331405 -0.0175094580113 -0.813833530154 -2.45496190895 0.244045751866 -0.814738417244 0.0472692749221 0.887077390216 -0.906827160625 -0.439008274598 1.54279479483 0.186939994576 -0.570698055934 0.900380657732 0.257637570192 0.112691976026 1.01478545114 0.142705608408 2.91124317188 -0.676665893547 -2.90038315488 1.65059933211 -0.731354044878 0.0513004281528 1.64501617933 -1.89149345694 -0.535240584186 -0.393342412677 -0.795318064811 0.6467846854 -1.38149734392 0.192374584244 -1.28087329277 0.374142090207 0.0160467611386 0.725633330946 1.16315565735 -1.46597264579 0.0139633328132 0.845870325547 0.507593663616 -10.5298873734
-1.40662717002 0.390189666637 -0.153215618302 0.423260518663 0.979583221387 0.775600202782 0.454397896769 -0.931347634668 0.125090626287 -0.131958991861 0.265262476871 0.207827804721 0.0132020792714 0.313930050613 -0.195611948107 -0.352950989393 0.972717364836 3.03516293255 -0.101612241184 -2.00493637653 0.320548686563 -1.59386188067 0.174042269009 -0.930278940531 1.56862904205 1.73105283251 0.0783330785747 -0.943292437358 -0.759799716694 -0.122145475011 0.682361750405 1.61409661986 0.820575886949 -0.551260998586 0.861263667516 -2.19689775753 0.456692871512 0.0477462111996 -0.559250780247 1.3761026105 0.832633686553 -0.649546985595 -0.0792868308037 0.929831656971 -1.56690455738 0.692280191088 1.90559605959 -0.0692539988123 -0.666182239588 -1.7026864182 -0.652640860731 1.7982158707 1.71569182954 0.124136873808 -0.0445105211426 0.39166155077 -1.37996386813 0.20396350594 -0.692635355337 -0.600859454595 -1.39369520484 -0.259704203764 0.0563944532643 -2.40054489438 0.898976375694 -0.135208109966 -2.07639142851 -0.45576593336 0.339433321734 -0.487173542005 0.296422458217 1.06780933931 -0.8650416743 -0.656122155645 1.96276445363 -1.86600578646 -1.27381915272 -0.325509247582 -0.321664240705 1.49134104496 1.98590307234 -1.8013702987 1.33130648779 0.46611745193 0.879104350649 0.519043658797 0.835030366058 1.19138169693 -1.56097421528 -1.53190872771 1.77182898867 -0.00245353825561 0.842868082412 -0.44915633687 2.12302192322 -0.398009155743 -0.441549627579 -0.951369398626 0.12882127125 0.901094972247 0.583710937815 0.87569560029 1.80114040624 0.748448681993 -0.329830391943 1.57689769752 -1.93116840317 0.166786066806 0.495979202588 -0.727226092165 -0.121601600626 0.854558378289 0.538670428033 1.05739232638 0.747424006849 0.0815031643448 -0.91251280678 0.0434302890435 -0.244565159918 -0.495397832965 1.43893059788 1.57100930789 1.39725777799 0.417434382794 0.840742118077 0.823849822119 0.296999335762 -1.55557832675 -0.470585878029 0.764107110524 3.35835944571
-0.123736818362 -0.744246586853 -0.92646095326 0.439489296175 1.00197956194 0.0576349230728 0.324584908475 -0.282694954952 -3.06161678582 0.312380988711 -0.0508945912851 -0.135834775342 0.653719031904 -0.389656490479 -0.0759322911642 0.0326153926192 0.41175283264 0.00915195077873 -0.233295084017 0.609668362513 1.14309834114 1.2934900194 -0.107412332382 1.50283097847 -0.917746164994 0.388154039805 -2.21371444422 1.0561471615 -0.368566389664 -1.48600713982 0.612885823149 0.475538523481 -1.46564849658 -0.00660438915126 0.690536715568 0.289287004329 -0.422676096003 0.372726429339 -0.941176237295 0.299440442266 0.154386623003 -0.678194047713 0.672458400775 0.339336950917 1.91108226126 -1.25355033715 0.876153582327 -0.866875217089 -1.76321620222 1.61142903606 -0.451782873593 -0.986963165468 0.301217974545 0.659808322903 1.73445626383 0.265273133856 1.93923634963 -0.28552247392 1.56079623349 -0.917991483014 0.448695398332 -0.603155735747 1.17834992128 1.87339704359 1.39117725942 0.319017260854 1.04781553911 0.568211175576 -0.717445853856 0.0524259250283 0.814647799521 1.23998245296 1.09804307924 -0.365448506509 0.285861827402 0.941822314365 0.012832876627 0.323478188714 0.269147165699 -0.668562827611 1.09665732298 -1.06528373521 -0.726181779402 -1.93485588942 0.615398801306 0.297402807934 -1.16240178837 1.27802950675 1.25032455054 2.05451051086 -2.77355134426 1.71430453779 -0.161509057911 -0.052620932946 0.440170735208 0.0749440004555 0.0461918767461 -0.431273689809 0.750253213705 -0.447993659532 0.658470759418 -0.483203280216 -0.302522076731 1.65510935553 0.736723461347 -0.224424775315 -1.19967902735 1.20563597113 0.80122957138 -0.307967804375 0.169565442756 0.945632073254 0.234965134806 -0.506081380848 0.257769669892 -1.39312329414 -0.653701182363 -0.161491732958 0.638489600829 -1.930793358 1.13439841492 0.642023073763 1.05652479651 0.367602305265 -0.819404408107 1.73749602618 -0.937741309329 -0.875780713305 -0.582155594922 2.04248355594 8.7368789498
1.15499160901 0.401431154953 0.719046300208 0.0635883029697 -1.06590203633 -0.625077173988 -2.61234130694 -1.05112300884 0.131954039214 1.98088202237 0.0592629974275 0.393816004619 -0.133258578377 -0.704028722271 0.665874382385 -0.805876647112 0.171966728303 -0.435962701126 0.454273939277 -0.277363414423 -1.79498659184 0.479169690633 0.227110177035 0.224038083827 1.09456369979 2.06225202006 -1.32274441522 -1.57328692875 0.0582423465957 -0.0238862031801 -0.441986662949 -0.221590520173 0.497432489567 0.170408712903 0.516772289924 -0.552679935275 -1.14489107147 -0.606082852648 -0.013727804415 -0.725458954199 -2.72051891283 0.106805466098 0.14058690365 -0.330179135603 0.0250735020222 0.457864193756 -0.129304930603 -1.24194160889 -0.155393613796 -0.407298114248 -0.719770510996 0.973845557994 -0.45274482797 -1.5912527233 -0.502185819787 2.37320332927 -0.726178284979 2.05458189297 0.679446225366 -0.949078939617 -2.6210519127 0.917537212381 -0.167248823793 -1.83048164367 0.479878011402 0.617003232441 -0.594649375095 -2.48492981068 -1.194487503 -0.901513063397 -0.693804379138 -0.623999145264 -1.01323172921 0.0821607492629 1.04662623218 1.04855920538 -2.19184274396 -0.508689698999 -1.88464264578 -0.840089844174 -0.0760648159107 0.084246019296 -1.16690486866 1.01334403766 0.29717175314 -0.820050651265 -1.01513083573 -2.23363967203 -0.861285092984 0.197525584057 0.47069687018 0.172611597757 -2.10536306881 0.871219400495 0.121404463475 0.17935530688 -1.33574468142 0.942734762707 1.12544531531 2.12786872507 1.68324090262 -1.28148673884 0.326923169025 -0.666204547528 -0.603747310984 -0.7910506149 -1.46859574589 -0.663291171076 0.501710710035 1.23725698838 -1.99346643589 -1.31738408882 -1.07002774452 -1.3988083125 -0.0860616833802 1.17975661388 3.08075964804 -0.491531048274 -1.1950422288 -1.28421117654 0.772362919886 -0.8809013087 -0.932930266144 0.807028994796 -0.872358026884 0.398632404405 0.465269538186 -1.03434504059 -0.745133280577 0.449527282279 15.0435346731
-1.3348572065 -0.230759680073 0.0172303076476 -1.39519901581 0.366082617295 0.436155245136 0.561325563928 1.56507149019 1.09290485993 -0.328458383118 -0.321983800286 1.33208695047 -1.05586333921 0.688424997048 2.28294068317 0.400016976413 0.568441628697 -0.332494667466 2.26069617968 -1.33003429437 1.49066581743 -0.0767450640675 -0.918562677209 -2.52074729112 0.333323423878 1.07768118179 0.517864919224 0.155417766499 -0.444096422566 -1.16908094167 -2.08279208366 -1.1413089771 -0.714330719593 0.14796961498 0.699337454923 0.46981830092 -0.0958321231687 0.0125510976406 0.351770901565 0.180285740339 0.454309858019 -0.665370469331 -0.503103144567 -1.04069628465 2.42803667614 -1.55783725235 -0.0840609810549 -0.620947470116 -0.121533312624 -1.19444126119 -1.22659005408 -0.476657270346 0.145741500666 0.678850303582 0.783887489791 0.991116334697 -0.86047785094 -0.565115959638 0.703899857995 -0.119769146691 0.228206279446 0.387433215944 0.57061445298 -1.84374962986 -0.95849664802 0.655588763373 0.888848526416 1.22889891559 -2.69535116556 0.938161373558 -1.90385892551 -1.08041647406 -0.153208358059 1.09892916336 0.266515032779 1.33807142556 -0.862113159964 -0.0150563295347 1.63160481882 -0.968916110608 0.771452952819 1.7424010364 -1.11774748605 -0.984369380605 0.608503271614 -0.127289224611 1.40893122543 0.645925279655 0.663386396804 1.4955731408 2.61480739825 0.290374080672 -1.00943515423 0.926030303873 1.0095794734 -0.0698304158412 -1.28327801545 -0.581093750336 0.416705693756 -0.887627494628 -0.689500992024 -0.386849931825 -0.412974629866 0.431907108747 0.806787596549 -1.27273022398 -1.2340802329 -1.11370011932 -0.930383976753 0.381491769496 0.350084537587 0.386439299067 0.946414090695 1.11369910102 -1.28945927585 0.997932815474 -1.42625082752 0.440187987508 0.341023678153 -0.0749118998859 0.672738729476 -1.36746590037 -0.611214337982 -0.378022290836 -0.414176753662 -0.162433724393 1.81409878875 0.282943238463 -0.539681199908 -1.64225339889 -0.740875773384
0.0988331374309 -1.20225910615 1.57139101862 -0.324716627965 -0.0675255331361 0.35640403793 -2.39626054816 -0.318065994776 -1.06561121611 -1.83515064668 0.286852908201 -0.822871814261 -1.25038709061 2.34150211617 -0.830715140154 -0.267092401482 0.0406254671386 0.331411776267 -0.102451543115 0.0753445575785 0.16853961675 0.0390328633322 0.493286952416 -1.9540366313 0.823723678165 -0.924212841298 -0.924444193547 0.631442018438 -0.576898223606 0.42872304142 1.50306757822 0.140579941489 -0.791737984917 -0.567350970923 -0.556154267432 0.0713587204079 0.477167568261 1.94246528114 -0.892617334514 1.42557298458 -1.33456194771 0.437678127298 -0.48895251366 -0.470139014534 0.588287654024 1.12204260747 1.88512437737 0.19931031905 0.714821225763 1.68671596168 0.174795901554 -0.641776391375 2.52953374841 -0.168377376745 2.17189612337 0.510905676607 0.315785382076 -1.14448529706 -0.935908162175 0.787259332967 2.54438786967 -0.531393360575 1.91695397143 0.211047528568 0.0664491519105 -2.00054385119 1.30915158355 -0.808287934627 0.00153676464256 -1.75029010927 1.31723880451 -0.597123027395 0.0240114058083 0.543503672246 0.748025067397 0.732193160732 -0.148373905723 1.42537846318 0.0896635922255 -0.416930021721 -1.26376768195 0.920136575675 0.392380796903 -0.718956721851 -0.331638817744 -0.588939670864 0.0783542657256 0.103284652414 0.366029532802 -0.465552566167 0.629859232201 -1.0625498196 0.887961316394 0.935652099725 2.1724491904 1.60859478544 -0.196724847632 -1.44497432359 0.731043790745 -0.482526279691 0.0608796582865 -1.0253652811 0.400116346367 1.76846727024 -1.79333759556 -0.101179780203 -0.873076965782 -0.491712289102 2.05545290183 0.835234063468 -0.037013873893 -0.0175153491289 -0.665037336345 0.672788648896 -0.195118673351 -1.4463485978 0.710140920141 -0.330260713919 0.569977228303 1.0444984399 0.202045042766 2.08670231764 -0.227762819888 -1.44169438675 -0.76919282121 0.0829151937638 0.644589724531 1.51712790631 -0.243771183863 0.890121955241 15.4905296938
0.41411557308 1.39367950252 -1.10583751139 1.22340843154 -0.0148228113836 -0.873356049032 -0.649991432008 0.553366179439 0.174523102841 -0.178650707919 0.0284015718943 -0.932617409955 -0.628696093503 -0.617385412877 0.541302538585 -0.0783457845722 0.222491510767 -1.21037593343 -0.516006651276 0.0753670740177 0.599796027025 0.0707577603823 -0.915904915224 -1.87116305198 -0.104407120884 -0.498931802352 -0.546861432331 -1.06010418516 0.218433650833 -1.44141325776 -0.363515112995 0.389217411382 -1.06565352609 -1.30548558502 -1.46044122278 -1.09938482901 0.835138929519 0.127145125105 -0.495677098593 -0.415400312321 0.672486958838 -0.344106688897 1.73904052372 0.0554633261974 0.70135046028 -1.2086519495 1.0861884598 -0.596093824427 1.41834675115 0.635285984296 -0.080685400896 1.7271567357 -0.452914431571 0.25354507701 0.269052041516 0.147399336125 1.95028336201 1.08157042132 -0.629859667698 1.15805630612 0.596640269242 0.0781410155522 0.412010747122 -1.83125170327 0.0214277614626 2.20696383306 -1.61866553937 -1.10819950475 -0.401723240923 -0.82763341031 -0.011024996709 0.133331554589 -0.543855188805 -1.04232855538 0.900248150271 -0.350410999705 0.0448275483688 1.45837942162 -0.190962062672 1.22892058228 -0.0214358751794 -1.60223385659 0.564020795767 0.574298974423 0.249475029361 0.590982524663 -0.677693500268 -0.222369999073 -1.39868864986 -0.586676635829 1.32312283376 0.0148898870207 -0.890394254083 -0.618083683476 1.62380432361 -0.720814908793 -1.08594232305 -0.0615298478281 0.482082529942 -0.292238358767 1.24904796048 0.505131520872 -1.05421392444 1.66803222952 -1.33314198006 0.812483223429 1.43129017324 -0.230282950259 -0.392687059819 1.09640539902 -0.7717811094 1.40465935123 -0.058303196899 0.65746997348 0.402296905044 0.641148172751 0.305237039792 -0.078082905909 -0.0888392157816 -1.11192716212 0.776640837285 1.15430803848 -0.908286124894 0.14242932214 -1.36453582987 0.387020087075 0.540110944391 0.509803766008 0.968535332025 1.09565868627 -17.5680830416
-0.186889203835 1.57190286038 -0.688132966969 1.46866123001 0.289468619545 0.696543757228 -0.0851043176909 0.0583805420877 -0.226633044871 0.859565798487 -1.0614550556 -0.978058832303 -2.72828040089 -0.540295560114 0.37327233955 1.99280027394 0.755356985677 0.326816196104 1.54322764682 0.639928823453 -0.489284405002 0.878695317137 -0.811753116006 -0.935890305941 -0.0222656865965 1.38728775978 -2.23777690436 0.432747717463 -1.05138267246 1.09038324674 1.65418656587 1.53726251727 -0.444563539891 1.03036682286 -0.270167552282 0.110006360571 -0.901956449466 0.777441902945 1.05399830147 0.713314426046 0.850806349158 -0.698066399352 -1.64281376252 0.268226197588 -1.51396807538 0.372032235912 -1.05501671365 0.178228931193 0.963893697325 -1.2318414599 -0.364013806197 0.681954524312 0.221400304865 -0.382386041328 -0.609507510975 -1.4010759491 0.849351458784 1.63354901311 0.0191015071461 -0.278850271457 -0.777298074227 0.0877172009923 -0.66908406888 -1.32210598882 -0.580330595501 -0.322820030209 0.0899906474217 -0.253735515968 -1.66035478465 -0.0817953662027 0.284618249569 1.49476180997 0.798911092282 0.110250258819 0.652115963856 -0.465738119072 -0.316800793799 -0.319159155767 0.686054963296 1.20271263698 -0.575752009736 0.356938432688 1.62889640081 0.69775650072 -0.495113077838 0.558558130667 0.442402243373 -1.15298899839 0.268706128161 0.150306145002 -1.61875443786 -1.17441052955 -0.193348236517 1.47133349123 -0.705351814552 2.22518238567 0.603478859954 0.889048242334 0.777057961473 0.0304187605458 -2.40737452505 1.09357025205 0.312015864047 0.679963180354 -0.921384294732 -0.345147794729 -1.09509812662 0.80693829344 0.615649406645 1.19760704845 1.12212723964 -1.36972374162 0.678916446883 -1.24402932756 0.662886612989 -0.465523942403 0.130910860843 0.14946715612 -0.184889285055 -0.0954748789491 0.276735321683 -0.745478902252 2.24981062806 0.336824435374 1.06561498885 -0.317573010949 0.397292175405 1.5205285626 -1.11680168649 -1.12975617001 10.2619223453
-0.0413439310946 2.39122681948 0.0628378166887 -0.113527239193 0.605172883125 0.277738225689 0.447048757973 -0.553613135041 0.976831044075 0.185149435118 1.34588663144 0.726418227146 -0.407590373977 0.292652366132 1.73729704504 0.625794175747 0.217135502937 0.493725933251 -0.181518979466 0.0627534930718 0.314383476054 -1.89427800367 -0.616406489952 -2.15673531691 -0.0894214506121 0.943407999489 -0.313798290495 -0.9702383981 -1.37876277336 -2.06231062161 0.947427854382 -1.18305686992 -0.615145826278 1.42178997012 0.756683688603 0.130535473319 -0.137743798773 -0.554131747943 -0.00264631108493 1.90772658076 0.751241854773 -0.289925784327 0.155510548676 -1.21542995009 -1.01038840863 0.101419508516 0.296786245009 -0.911211215981 -0.9083959597 0.00821304638104 1.0974814595 -0.871330521833 0.186412773427 -0.0569620912542 -0.917211213957 0.905579522547 -0.312998483497 1.16407862982 -1.15135452487 -0.141467105807 0.351627841578 -0.132497904686 0.170630869979 -1.34139102846 0.232256068387 -0.807076684713 0.777707780065 0.710587617039 0.690530463073 0.830361471694 -0.590182273248 0.893551636462 0.244815617794 0.787756134999 -0.621720785995 0.928356013384 0.248550187712 -1.16772379717 -0.445469174174 -0.0844758102147 -0.0369639286578 0.145613691531 -1.63609687405 0.446105405938 0.52883454589 0.815815405144 -0.158692119732 1.14577787956 0.66089290579 -0.491722826677 -2.08677767719 0.0165178431254 0.0714737773383 1.08172970892 -0.608988508683 0.411903445418 0.0630977812618 0.330914978322 0.981942367738 0.303910025127 1.26945073842 0.489026460379 0.293283012891 -0.30844292445 -1.43888347903 0.516073328329 -0.344782533918 1.4054836878 -1.59647997289 0.0304945756071 0.205431885786 -0.97800322942 2.03278548581 0.30472363816 -0.388805144252 0.0289974514549 0.132900802755 -0.595204112953 0.999621944034 0.0557023885024 0.271790760157 -0.704605479257 -0.494205483199 -0.20875636077 -0.730097535766 -1.74637086715 0.502034637985 1.28988007958 -3.05441363955 0.512986203253 10.2146101976
-0.636428128976 0.211541758703 0.20535017283 0.815389912092 -1.44961956461 -0.683260862226 -0.696924668622 0.245763940564 0.848561640939 0.0075221958266 0.105922134461 0.211012347112 -2.08124510968 1.22474399643 -0.506617695815 -0.747880691077 0.981017905224 0.223318873581 -1.29824869511 0.840110343784 -0.179400435187 0.895114966911 0.171034505771 0.989283292148 0.133727649029 -1.71666547546 1.15838899551 0.356595145544 0.530911570291 -1.54465223712 1.65458428658 -0.407885667531 -0.431768283853 -0.589744371072 0.744639222342 -0.0990860862752 -1.01878647727 0.169185579694 0.72686221865 -0.276205817365 -0.762583054026 0.248735187026 0.357408757865 0.630722782194 -0.96643929469 0.608468078091 0.847434687479 0.696263366098 -0.953182080588 1.23872090995 0.143421887132 0.329062355925 -0.406041953571 -0.438398709069 -0.227339459888 -0.543612230104 0.0544797598101 0.256424010294 -1.00086001557 -0.0213759116934 1.55581222534 0.599047055144 -0.546679310193 0.83595222008 1.67519967869 1.07770313548 -0.180291124299 -1.10706078008 0.749223348779 -0.349489382883 3.1595088092 -0.842970359113 0.943290718864 -0.355148451586 0.764478577862 0.921688901347 1.0811321597 -1.22014739108 -0.527236910207 -0.936208171072 0.0354075665235 0.607339520605 1.92278221949 -1.55449052289 -1.0141698841 1.62769352502 -1.32014420012 -1.1455333437 1.03961637147 -0.586511810301 -0.984861186227 0.133194824493 0.099009275203 1.40524280957 0.977146499589 -1.60031101657 1.34751586771 0.607691036226 -1.59614546039 -1.02321401635 -0.185076470117 1.70937243647 1.53909664407 -2.58592919805 -0.013265186025 -0.810286756589 -1.39271427017 -0.289035681472 -0.287743330322 -0.230620489335 0.192904242439 -0.0508219525714 1.59025251484 -0.473282087028 0.176406755942 0.529822582442 -0.62610649122 -0.728205539791 -0.89882960398 0.46279877081 -1.4642735816 -0.241426996051 -1.59065175969 0.0728499641579 1.49058294001 -0.251913557235 -0.716139485719 -1.67226721264 -0.923015677595 0.0398519633988 -36.7256933642
1.27579937032 0.200900055668 0.696946788312 1.11008741419 0.653867969239 -1.58931144024 -0.313015693184 -1.50738427405 1.55943284223 1.09851768795 0.579385809631 -0.509990818648 0.735113817547 -2.25880120808 -0.0547208064638 0.939647432159 0.796804032021 -0.873814025028 -2.1767481114 0.472670033587 -1.40262166837 -0.115808065752 -0.255296475255 -0.901950995107 2.25797257052 0.285536859498 2.04325102719 0.543872594404 -1.36557361271 -0.453673737691 1.31696809462 -0.72211409895 0.184258554316 -0.98975397494 -2.07449267691 0.487789034922 -1.4360921184 -1.11385297896 0.242294716932 -1.17966497975 0.951022696517 0.395013425658 -0.0964472673282 0.578836708299 1.24434413752 -0.990054790868 -1.06243128499 0.599226188907 0.693672556338 0.0397917377455 0.875016378656 -1.22565402038 -0.265234024783 -0.54451140074 0.169297166067 -0.942063921189 -0.700558730398 -0.603606133636 -0.248754045536 -0.879883877703 0.352770808164 -0.891326763212 1.3261403057 1.65404348182 1.54575592139 -0.131551792053 0.944791253288 -0.629239996248 0.762399432847 -0.359898191843 -0.90523769982 -0.44183976982 -0.138240338785 2.06005218606 0.105075433497 -1.16973109255 -0.229151232789 2.20688320917 -0.632789977631 -0.0118216192028 1.65722669333 -1.03868086124 0.25988828715 -1.4357004601 1.03146708305 -0.895615904622 0.737062154469 -0.18314848681 -2.03543948909 0.297859494449 -0.935180037015 -1.52961975441 -1.11598622291 0.277321520522 1.17907260122 0.425931496015 -0.702713631687 -0.380759315422 0.58941395037 -0.0523322410191 0.454205362475 -0.858740309019 -0.846958788405 0.922676439851 -1.11933936274 0.742402988027 0.676891196692 0.255494768234 0.190750887767 -1.51018137327 -0.459654520469 -0.742508641529 0.337348797175 1.31686575729 1.96579956307 0.190045615844 -1.26513494172 -1.35648800646 0.566418708476 -1.05148545509 0.940529982101 0.483560371715 0.60586918496 -1.19587609927 0.0748642206542 0.142995079611 -0.512011038138 -0.915010293433 -1.19105313751 -0.865838247517 16.5774430375
-0.627459710574 -1.71343182528 1.76192792045 0.459091203933 1.29555801875 0.440680367417 2.28126220118 1.24886345746 0.418913008397 -0.796821738915 0.132243013414 -1.23593903256 0.479514228753 0.442887370502 0.820938957559 0.775540676133 -0.420570953662 1.50967359272 -0.033898802959 0.135453303175 0.0106618176597 0.421358445583 0.0429436594235 -0.777336337194 1.10835805995 -1.23913571 -0.00569205284962 -0.0485458880268 0.714538698781 -0.522360115534 -0.00551533837752 -0.999375799179 0.0995381809832 0.102547482257 -1.79888039739 1.14679424478 -0.550129678306 0.182624818303 -0.357439424862 -0.046118921525 0.164980064222 -1.03383715333 -0.972481337258 1.89193007016 0.488116918034 -0.0699321620738 -0.379228521855 -1.13121690706 0.0656341130047 0.0269315880605 -0.505026755252 -0.50159096677 -0.385677835075 -1.00357039176 1.19138940372 0.928673376952 1.57972640608 -1.23173557872 -0.741096094432 -0.106848011404 -0.885612888312 -1.98401007514 -0.164399777639 1.56142092181 0.3640802158 0.492906763767 0.621958639392 0.411880393539 -0.270252803961 -2.10706133034 1.1220924366 -0.173913667973 -0.576149631513 -1.01793807186 -0.489769753021 -0.589321978401 1.40008479246 -0.230827241754 -0.388476640651 0.00277011584041 -0.333221801175 0.0472194720919 0.973133566455 -1.98268665087 0.937100351289 -0.125074756252 0.674968581917 0.044956252791 -0.00267148391685 0.691196276637 -0.57327389346 1.77462292076 2.17385605316 -0.157978372639 -0.134342504009 0.791374361735 1.48880930076 0.443866251534 -1.98043909912 0.1101447242 -1.29361354683 -1.43203527559 2.21786088957 0.482180367816 1.01584683606 0.494689676596 -0.415854562117 -0.056360982617 -0.55186938367 -0.227969463519 -0.0586269221551 -1.36837473396 -0.182036211693 0.759162571852 0.736436150037 -0.400503859423 0.252314394154 -0.288334973638 -1.11995237817 0.0478910455811 -0.471331529085 -0.609890265674 0.161449197743 1.01436500739 -0.764473348311 -0.752632206706 2.57500444241 -0.952814821377 1.17613868252 0.606383542601 -14.306419142
-0.260321120934 2.46975588952 -0.253948442609 0.204186393774 -0.328260190352 2.619344716 -0.277370413902 -0.323043640667 0.273793316573 0.386907261762 -1.3221582271 0.937016784994 0.102015486707 -0.0570747072516 0.111112845697 -1.26356249919 0.0527834803809 0.411547054539 0.645093210022 -0.343547218008 -0.438984808023 -0.264630956742 -0.416327186584 -0.186047486738 0.854419746498 -0.613194560764 0.603583314081 -0.315569011817 0.422135573088 -0.610833304889 -0.0154821982863 -2.35770654622 1.63147175855 -1.78684937432 1.794368386 -1.38052994695 0.0304533701013 0.0898903907368 0.245137803318 1.42675108922 -0.978860528183 0.0010855635766 0.189472561397 -0.0780818559579 -0.805753784731 -0.552105756324 -0.282480386517 -0.803222186477 1.16187795838 -2.13536157924 -0.081669026771 0.565470222845 0.361535134016 -0.256702989312 -0.322482806534 -0.283211190072 -0.502530902975 -0.336212070965 1.5073048964 0.545830048086 2.71390247819 0.997001545416 -0.157149683558 1.00289438885 1.11577576873 0.395586231454 -0.763277951375 -0.273008539436 -0.0625337339547 -0.703627319046 0.746561714924 2.04851520725 1.38903234229 -1.37430645964 -0.0947091463647 0.678290727553 0.959008964755 0.0694337671099 -0.381295303883 0.560073719908 -0.721990842111 0.866821269689 -0.924025036834 -0.130320061717 1.02206065325 0.216535150937 0.605178309481 -0.0807409479339 0.962928050075 0.115162344565 -0.212398820829 -1.06953734961 -0.69221295302 -1.72711710599 0.628038421032 -0.372919327622 0.75992635033 1.28168403285 -0.127202420828 0.351859776892 0.872702673221 -1.80708604013 -0.667634728113 0.927616440493 0.157792719423 0.443404224237 0.621698038789 0.270399838933 0.493685010933 -0.221184150373 -0.67574261855 -0.159835784362 1.01099881323 -2.39843019876 -1.69309971014 0.557526851081 0.68640259921 1.63873213436 0.20093829948 -2.12220176873 0.956958771563 0.761066874874 -0.971752778067 1.52932806742 -0.167263652509 0.683850921426 0.376247413065 -0.898339173166 0.0678943862276 -0.132959372217 52.4592506229
0.348251657828 0.229556225187 -0.539526293627 0.259172059016 0.803055613411 0.574393674133 1.71159604108 0.811440513913 -0.0490231830059 -0.848315513081 -0.47976648027 0.859137407402 -0.920215763036 0.85514374967 -0.516231226599 -2.1198679371 1.17766243486 -0.196551383871 -1.08011546025 0.839903394297 -0.251262887098 1.83801769041 0.114620476228 -1.06880511653 -0.197490244152 -0.0844780716538 -0.474462725578 1.27569979386 0.0662693961503 0.0811640813321 -0.879232176475 -0.822000866109 -1.04828956512 1.58448474555 -0.362014254962 -0.143972241436 0.883373608118 1.15560227734 -2.00253892455 0.0235590509681 -0.542748855208 -0.411856662922 -2.02646633607 -0.892721563163 -2.02795432237 -0.499505476379 0.0329410618318 0.316481490747 -0.706227832837 0.51961541469 1.18250309723 1.43924492421 0.792178842752 -0.980152220079 -1.67492050483 -0.702630137905 1.66175616032 -0.152111233072 -1.07137503717 -0.143863257478 0.321908325455 2.31908261011 -0.108515253766 0.35993209669 -0.443507099188 0.911501404472 0.885717133997 0.756628280256 -1.87675866098 -0.547485297163 0.817812404399 0.0624434196885 -0.18477790241 -0.436395857781 -0.149013855597 0.0451068585716 -1.17191343771 -0.680707914023 1.32331517465 1.36659734942 1.22555764258 0.73659481729 -0.399197067449 0.539583493252 1.34785921419 -0.128905444502 -0.0125382573446 0.42286151731 0.186426715177 -0.333352559336 -0.589684275117 0.281172846847 1.53573232933 0.386376503848 0.421662952261 -1.88395213221 -0.480729242134 -0.170278695585 -1.16207871197 1.55883882502 -1.71249778456 0.986708366217 -0.0453853235843 -0.847144311318 1.22473305365 0.378901605629 -1.08311825043 -1.18716064934 -0.881915483674 0.771555390768 0.651568833725 0.897079118619 0.888474098428 -0.843369562826 0.514451730625 0.712710838432 0.259281001233 0.170264739542 -1.07613960439 0.147065003129 0.182381746283 0.729280776729 -1.07586527052 1.24450575983 -0.262964414625 1.49540292016 -0.633855437308 -0.597521480165 -0.56507093549 -0.447262282886 9.39351299937
