90 100
0.496714153011 -0.138264301171 0.647688538101 1.52302985641 -0.234153374723 -0.234136956949 1.57921281551 0.767434729153 -0.469474385935 0.542560043586 -0.463417692812 -0.46572975357 0.241962271566 -1.91328024466 -1.72491783251 -0.562287529241 -1.01283112033 0.314247332595 -0.908024075521 -1.41230370134 1.46564876892 -0.225776300487 0.0675282046879 -1.42474818621 -0.544382724525 0.11092258971 -1.15099357742 0.375698018346 -0.600638689919 -0.291693749793 -0.601706612229 1.85227818451 -0.0134972247379 -1.05771092896 0.822544912103 -1.22084364997 0.208863595005 -1.95967012388 -1.3281860489 0.196861235869 0.738466579995 0.17136828119 -0.115648282388 -0.301103695589 -1.47852199037 -0.719844208395 -0.46063877096 1.05712222622 0.343618289568 -1.76304015536 0.324083969395 -0.385082280416 -0.676922000306 0.611676288841 1.0309995225 0.931280119116 -0.839217523223 -0.309212375851 0.331263431404 0.975545127122 -0.479174237845 -0.185658976664 -1.10633497401 -1.19620662408 0.812525822394 1.35624002857 -0.0720101215803 1.00353289789 0.361636025048 -0.645119754605 0.361395605508 1.53803656647 -0.03582603911 1.56464365581 -2.61974510409 0.821902504375 0.0870470682382 -0.299007350466 0.0917607765355 -1.9875689146 -0.219671887838 0.357112571512 1.47789404474 -0.518270218274 -0.808493602893 -0.501757043585 0.915402117702 0.32875110966 -0.529760203767 0.513267433113 0.097077549348 0.968644990533 -0.702053093877 -0.327662146598 -0.392108153132 -1.46351494813 0.296120277065 0.26105527218 0.00511345664246 -0.234587133375 -2.58299052555
-1.41537074205 -0.420645322765 -0.342714516527 -0.802277269222 -0.161285711666 0.404050856815 1.88618590121 0.174577812832 0.257550390723 -0.0744459157662 -1.9187712153 -0.0265138754492 0.060230209941 2.46324211249 -0.192360964781 0.301547342334 -0.0347117697052 -1.16867803762 1.14282281452 0.751933032687 0.791031947043 -0.909387454795 1.40279431094 -1.40185106279 0.5868570938 2.19045562581 -0.990536325131 -0.566297729603 0.0996513650876 -0.503475654116 -1.55066343107 0.068562974806 -1.06230371373 0.473592430635 -0.919424234234 1.54993440502 -0.783253292336 -0.322061516206 0.81351721737 -1.23086431643 0.227459934604 1.30714275428 -1.60748323456 0.184633858532 0.259882794248 0.781822871777 -1.23695071088 -1.32045661308 0.521941565617 0.296984673233 0.250492850346 0.346448209497 -0.680024721578 0.232253697161 0.293072473299 -0.714351418026 1.86577451114 0.473832920912 -1.1913034972 0.656553608634 -0.974681670227 0.787084603742 1.15859557901 -0.820682318352 0.963376129244 0.412780926936 0.822060159994 1.89679298265 -0.245388116003 -0.753736164357 -0.889514429626 -0.815810284965 -0.0771017094141 0.341151974817 0.27669079933 0.827183249036 0.0130018918779 1.45353407716 -0.264656833238 2.72016916659 0.625667347765 -0.857157556416 -1.07089249806 0.482472415243 -0.223462785326 0.714000494092 0.473237624574 -0.0728289126569 -0.846793718068 -1.51484722469 -0.446514952067 0.856398794323 0.21409374413 -1.24573877871 0.173180925851 0.385317379729 -0.883857436201 0.153725105946 0.058208718446 -1.14297029783 -2.33423450356
0.357787360348 0.560784526368 1.08305124318 1.05380205203 -1.37766936796 -0.937825039915 0.515035267209 0.513785950912 0.515047686306 3.85273149065 0.570890510693 1.13556564018 0.954001763493 0.651391251306 -0.31526924464 0.758969220493 -0.772825214538 -0.23681860674 -0.485363547829 0.0818741393863 2.31465856667 -1.86726519259 0.686260190375 -1.61271587119 -0.471931865789 1.08895059697 0.0642800190955 -1.07774477793 -0.71530370926 0.679597748935 -0.730366631717 0.216458589582 0.0455718399038 -0.651600347606 2.14394408933 0.633919022318 -2.02514258666 0.186454314769 -0.661786464768 0.852433334796 -0.792520738433 -0.114736441467 0.50498727898 0.86575519417 -1.20029640706 -0.334501235841 -0.474945311161 -0.653329232574 1.76545424028 0.404981710961 -1.26088395434 0.917861947055 2.12215619701 1.03246526055 -1.51936996595 -0.484234072866 1.26691114919 -0.707669465619 0.443819428146 0.774634053429 -0.926930471578 -0.0595253560618 -3.24126734007 -1.02438764133 -0.252568151393 -1.24778318196 1.63241130393 -1.43014137796 -0.440044486697 0.130740577286 1.44127328907 -1.43586215118 1.16316375215 0.0102330610196 -0.981508651048 0.462103474263 0.199059695573 -0.600216877159 0.06980208499 -0.385313596862 0.113517345251 0.662130674521 1.58601681615 -1.23781549883 2.13303337466 -1.95208779952 -0.151785095036 0.588317206485 0.280991867735 -0.622699519821 -0.208122250357 -0.493000934659 -0.589364756944 0.849602097021 0.357015485965 -0.692909595261 0.899599875433 0.307299520877 0.812862118839 0.629628841924 28.7116115506
-0.828995010922 -0.560181040197 0.747293605123 0.610370265433 -0.0209015939641 0.117327383309 1.27766489579 -0.591571388836 0.54709738117 -0.202192652434 -0.217681203227 1.09877685199 0.825416348988 0.813509636001 1.30547880715 0.0210038416328 0.681952971295 -0.310266756593 0.324166352488 -0.130143054368 0.0969959649927 0.595157025437 -0.818220683233 2.09238727569 -1.0060173815 -1.21418861279 1.1581108735 0.791662693963 0.624119817052 0.628345509264 -0.0122467728469 -0.897254371486 0.0758045581937 -0.677161711512 0.975119733418 -0.147057381502 -0.825497196793 -0.321385841653 0.412931454276 -0.563724552804 -0.822220395566 0.243687211492 0.244966571109 -0.506943175371 -0.471038305618 0.232049937358 -1.4480843415 -1.40746377438 -0.718444221252 -0.213447151712 0.310907565598 1.47535621695 0.857659623202 -0.159938529963 -0.0190162079027 -1.00252936464 -0.0185131359924 -0.28865863892 0.322718560338 -0.827230943552 0.519346514241 1.532738913 -0.108760148457 0.401711722099 0.690143991711 -0.401220471886 0.22409248181 0.0125924007818 0.0976760985488 -0.773009783855 0.0245101742589 0.497998291245 1.4511436078 0.959270826085 2.15318245751 -0.767347562888 0.872320636721 0.183342005738 2.18980293322 -0.808298285355 -0.839721842181 -0.599392645444 -2.12389572431 -0.525755021681 -0.759132661554 0.150393786476 0.341755975777 1.87617083922 0.950423838186 -0.576903655662 -0.898414671348 0.491919171507 -1.32023320702 1.83145876585 1.17944012072 -0.469175652105 -1.71313452909 1.35387237417 -0.114539845253 1.23781631197 -12.2758697184
-1.59442765879 -0.599375022954 0.00524369971818 0.0469805937647 -0.450065471479 0.622849932347 -1.06762042938 -0.142379485021 0.120295631712 0.514438834059 0.711614878089 -1.12464209184 -1.53411417074 1.2776768219 0.33231401198 -0.748486536557 1.55115197552 0.115674634293 1.17929718406 0.0675184814101 2.06074792488 1.75534084244 -0.248964148479 0.971570950954 0.645375949585 1.36863155753 -0.96492346058 0.686051459998 1.05842448685 -1.75873948642 -1.18325851267 -2.03923217776 -0.269406834445 0.717542255796 1.5023570521 0.0740947804198 1.62861554557 -1.38010145821 -1.70338243936 -0.0555476988966 0.384065448939 -0.0326947480941 -2.06744210004 -0.0891200395128 -1.3044695005 0.66967254883 0.366598246097 -0.939879786327 -0.513866917337 -1.05921352189 -0.0626790972732 0.955142320501 -0.985726046336 0.504046515518 -0.530257618372 -0.792872832262 -0.107030359955 -1.03524232242 -0.553649305347 -1.19787789259 1.96472513292 0.0352635519717 -0.699725507993 0.213979910734 -0.112328049691 -0.220969599533 0.614166700043 0.757507710047 -0.530501147611 -0.575818240645 -0.275051697152 -2.30192116474 -1.5151910622 1.36687426744 1.6449677135 -0.249036039556 0.576556963056 0.311250154544 3.07888080846 1.11957491143 -0.127917591481 -0.9555404406 -1.60644632026 0.203463635867 -0.756350745284 -1.4222537096 -0.646572884243 -1.08154800361 1.68714163507 0.881639756949 -0.00797264131662 1.47994413889 0.0773683076476 -0.861284201328 1.52312407727 0.538910043685 -1.03724615433 -0.190338678084 -0.875618253385 -1.38279973096 -6.70481425103
0.926177547532 1.90941664047 -1.39856757382 0.562969236691 -0.650642569122 -0.487125383765 -0.592393924239 -0.86399076968 0.0485216279448 -0.830950116411 0.27045682578 -0.0502381094491 -0.238948046866 -0.907563662042 -0.576771330568 0.755391225826 0.500917187624 -0.977555244799 0.0993323054292 0.751387123372 -1.66940528112 0.54336019238 -0.662623758946 0.570598668593 -0.763259156543 -1.80488210066 -1.62754243788 0.0480849466614 0.259722501721 -0.904316625104 0.638592458777 -1.66152006227 -0.0660797986473 -1.21101619976 -0.651836107802 0.0473986713164 -0.860413365284 -0.38455554423 1.00629280921 -0.576891869523 0.835692112065 -1.12970685466 0.529804177915 1.44156862066 -2.47164450013 -0.79689525547 0.577072127181 -0.203045386043 0.371145873371 -0.603985186716 0.0865897874729 -0.155677235392 1.16778206166 0.254420843301 0.337602662075 -0.411876966122 -0.487606224072 -0.43255818782 0.394452142378 -0.42098448082 0.289774856896 2.07540079865 0.871124703432 -0.326023532168 1.20121392216 -0.408075373022 -2.03812453518 -1.00808631092 -1.87079192103 -0.351513484041 0.0184183791896 1.67643731228 0.326927373764 -0.219100528809 0.829405581183 -2.21113530901 0.235614558109 0.770865193887 -1.47858624578 1.14375404321 0.338496407494 -0.415287913901 0.632781866106 2.2706928578 0.181866255058 0.2482205863 -0.45936089954 -0.849844369465 0.830335816544 -0.856083825909 0.0715662372194 -0.477657446765 0.478979825746 0.333662105287 1.03753994426 -0.510016398855 -0.269874935293 -0.978763715782 -0.444293260076 0.377300493045 1.85145087345
0.756988616645 -0.922165324178 0.869605920106 1.3556378588 0.413434903224 1.87679581256 -0.773789199104 -1.24465470331 -1.7787202489 1.49604431149 0.654365656354 -0.0555846709105 0.27996862632 -1.1254890473 2.44575197962 0.129221181975 0.109394794605 0.725766623899 0.481009231737 0.223884024279 -0.790474455445 0.471468357136 1.88202449648 1.34542004615 1.59318662664 -0.511215676431 -0.989604820259 -0.1257869201 0.0557249122887 1.09419151847 -1.69246462971 1.52955031946 -0.158007898579 -0.426881069947 -1.01210437526 -1.65485667187 0.823170583962 0.0733179671884 -1.28996089974 -1.29507877206 -0.33578469929 1.66902152529 -0.259591351364 -1.50314295312 -0.245743064086 -0.272723569748 -2.69688664294 -0.0542948665178 -0.230934530209 0.696206364813 1.84895609495 1.12656502955 -0.268888690555 -1.10652590874 2.57335980325 0.0592184340145 0.0139292919129 -0.02412508711 0.198084760768 -0.144360411924 -0.57366200688 -0.54685894124 -0.032753270216 -0.543424771134 -0.712845782677 0.106430227692 -0.254977217421 1.50399298858 -2.65096980839 1.09150685192 1.2460851925 -2.07339023241 -0.34268759408 -0.371440865996 -1.40751169472 -0.777816687591 -1.11057584547 1.75227044342 0.935678393147 1.27155509499 0.721672064043 -1.12905177122 -0.52452026628 0.489374561228 -1.22212780889 0.712998430172 -0.240325398158 -0.37482080755 0.710959968203 0.444263311486 -0.360966165819 1.15932980336 -1.0810633276 0.615935606944 0.593101257968 -0.309546439314 0.326133022242 -1.25111357639 0.924027019207 -0.184902136443 -22.3585424674
-0.522723020519 1.04900922584 -0.704343690543 -1.40846129636 -1.55662917352 0.606009951346 -1.2804293525 1.75479418198 -2.08192940788 1.69645636829 0.211017467203 -0.0967131118704 -0.544919086809 0.399136114352 -0.0376347024248 1.10330188202 0.114227648662 0.150301761462 -0.363612212214 -0.0569456237211 0.307801768892 -1.71016839266 -1.34818542211 0.743264094023 0.170865438128 -0.183983336353 0.0184339330654 0.347581705362 -0.539759680309 -0.778304725402 0.195845255098 -0.978372777615 0.408252755714 -1.70258360424 1.02915563733 0.472597482413 0.256029734314 0.982690983946 1.66547444446 1.01437006502 -1.84087423133 -1.27957696674 -0.624818577696 0.0260910502108 0.517659020469 -0.725743813153 0.186766764477 -0.755382932353 -0.611517802992 -1.40666109685 -0.923233246111 -1.35168460562 -0.975873252977 1.05364179661 -0.949398888832 2.63238206484 0.493317900881 0.184836123695 -0.858357780181 0.700309879409 -0.575637826238 0.122009814645 2.56008453827 -0.0960598997246 1.14927332629 -0.703176425126 -0.034988490497 1.77080063564 -0.626967057788 1.812448558 0.707751935455 -0.562466775894 0.632407739056 0.972554449627 0.621809962217 -1.57022471989 -0.727137175825 -0.247518635552 -0.0744334291 0.620672097551 0.177701000933 -1.33534435871 0.380197851006 0.610585745284 0.559790447931 1.08078072555 0.833922154549 0.459180079228 -0.0701657114586 -1.66096093352 0.429618219133 0.207687687163 0.271578837195 -1.27674857582 -1.08105654041 1.05315285333 -0.0395551538567 0.681500697373 0.0283183761305 0.0297561394957 31.983690279
0.938283805976 -0.516044728217 0.096120776941 -0.462275288705 -0.434496227432 -0.309172123469 0.222133771634 -0.478748621663 1.25575612557 -0.89460730222 -0.186871644161 -0.439731058274 1.44697788435 0.196554776512 1.03184453947 -1.48556037304 0.267050265869 0.889630795623 0.0822839892754 1.06548037507 -0.5172884501 1.40934744019 2.29889812362 -0.36283856044 -0.445502521401 1.45338447712 1.57957214573 -0.522860027153 -0.420186817096 -0.281784608861 -1.34445051103 -0.918651946484 -1.00414076675 -0.767797565104 -0.0346848873868 0.234214732537 1.55050049281 -0.998354040739 0.984322398477 -0.213988844226 -0.0494637096524 0.674819492167 -1.12272202156 0.382409746184 0.166452208213 0.492451264008 0.289168643908 2.45530013991 -0.637739984251 -0.530996955002 -0.623140526425 -0.55547711916 -0.637387127307 1.18901653111 1.42050424799 -0.570746293749 -0.832355573104 0.471415556386 -0.552223044281 0.632931817756 0.202923020851 -1.515744115 1.54750520133 1.7958776731 -0.612788690484 -0.387701559936 0.285865390725 0.334456789987 0.658544272673 2.01020453877 -0.176947227494 -0.798297244538 -1.37931922801 -0.730930039942 -0.0331269728738 1.79455786352 -0.517611299036 0.223787951639 -0.0164228960728 1.18839327345 2.52693242587 -0.53086877292 -0.489439442518 1.04416087707 0.681891489626 1.84670732574 0.583928185326 -0.359292090787 0.590654830692 1.10870358058 0.820482181197 0.507274031107 1.06667468959 1.16929559045 1.38215899104 0.64870988759 -0.167118080317 0.146713686433 1.20650896651 -0.816935670987 4.69003325026
0.368673308873 -0.393338812327 0.0287448229348 1.27845186261 0.19109906802 0.0464365481561 -1.35985614098 0.746253566027 0.645484181141 2.16325472331 -0.307778234953 0.219150327664 0.249383683711 1.57745327976 -0.095295532387 0.27902152577 0.607896509717 0.186609123156 -0.446433614551 0.194089992898 1.07363174986 -1.02651529941 0.132969674147 -0.700120814939 1.19504662892 -1.52318690478 -0.558921847272 0.377211875065 1.56552402923 -0.065750261073 -0.555199526693 1.88115706944 -1.44801390042 -2.19880595662 0.440014450053 -0.502054224353 -1.02123281713 0.708356447299 0.243800713771 -0.564078630737 -1.28030439867 0.87245732828 0.650201177959 -0.0991758637794 1.84663699605 -1.07008476633 -1.52552517092 -0.691908069881 -0.0455860163555 0.243339449323 -0.241236057856 0.352055396514 -1.25153942419 1.44376460407 -0.0821511783926 1.11729583159 0.342725346378 0.456753219154 0.569767280232 0.447708560017 0.642722759868 1.32915253013 0.196521169701 0.709003757589 -0.0897356942872 1.44011721545 -0.676392302059 1.80094043291 -0.0401579506443 -1.43077510212 0.128104414911 -0.681051657475 0.840643548989 -0.652623979302 -0.446183433215 -1.88954073095 -0.452306319249 -2.42387932663 -1.58390282349 0.760414656144 0.785800158651 0.425457561785 -0.966976143129 -0.047711356142 -0.00360253909057 -1.15836468919 1.50339830177 0.877362290576 -0.22096417383 0.0268858389945 0.208382807948 -2.04173486842 -0.247177382521 -0.681984247998 -1.00162000989 -0.281100292886 1.79768652685 0.640842861267 -0.571178989783 0.572582781356 8.64075114865
1.39935543659 0.924633682913 0.0596303699202 -0.646936777706 0.698223313614 0.393485385422 0.895193220028 0.635171801682 1.04955271532 -0.535235211561 1.31739406563 0.197599604692 2.07526087263 -0.68918781809 1.73596380317 0.197910783463 -0.651418003614 -0.483885834054 -0.320347308194 0.424165946402 0.522835488035 -0.573700003939 -0.024354592261 2.14227035861 1.7275431701 0.436323669674 0.0380034781682 0.120031326718 0.61351797273 -1.0227925652 -0.257376537423 -1.66858407388 0.399223122605 0.647195939703 -0.483186462299 1.57398676329 -1.225765663 -1.46437488021 0.22445181856 1.04709830261 1.68392769146 -0.458884262869 1.07868083343 -0.0385084695007 -0.172627299941 0.883659937487 0.652322878413 -1.57639215698 1.47654034973 1.38009135415 -0.62556270151 0.395803533437 0.494030186283 0.260673765824 -0.550305153845 -0.671623367938 -0.0255540709914 1.17272901926 0.543600154594 -0.370614332086 0.771698710648 -2.84854262063 1.14876570037 -1.73971377878 -0.362440941403 -1.11966989463 -1.29468147572 1.16082678738 -0.467701201312 0.346503881731 -0.0469205788792 0.477040827223 0.0768218910603 -1.28299222419 0.996266819447 -0.493756583161 -1.55658189866 -0.428115160966 1.50075979063 0.850221742113 -0.348652134408 -0.349257704318 -0.321635051217 2.07674798356 0.381935452232 0.430041647191 1.03028345403 0.238789159027 -0.259042145821 -0.196349849085 -0.0716012594141 -0.0372222365098 0.727629543637 0.0519458858073 0.732640077216 -0.0807165801086 0.0786351903161 -1.99820068453 0.916327674702 0.346488475898 17.8565952596
0.99801010986 -2.89625537819 2.08837470478 -0.139589628155 1.10818281674 -1.03990592713 0.612773905063 -1.05341556317 -0.623768960696 1.91403135387 -0.190682400763 0.21743287318 0.870067730689 0.495681887973 0.150418905144 0.364961002466 2.40341558524 -0.0576187970336 0.201099046715 1.05065439601 1.10552593296 1.18703030556 0.638730222029 -1.14300491273 1.6334315323 -1.14634539302 0.302635465239 -0.754275850019 -0.064138346593 0.328762410303 0.32135721545 0.421920754235 1.61371126906 0.453534301514 -0.244156635291 0.964087168288 1.18947048892 -1.22760781514 0.59740006985 0.701172742311 -0.29756350336 1.37570681331 -0.150055587033 0.125576453472 -0.173071824284 0.0155790475815 -1.0962750869 -1.44005088259 1.59450506322 -0.846961348318 -0.991392349456 -2.1533901136 -0.63896174769 -1.32308979341 1.64201516014 1.00981708934 -0.688150345178 2.25243580534 0.981765486992 -0.324831383509 -2.49940571487 2.29094257259 -1.38957246676 -1.64539874696 1.02257043201 2.43975240634 1.38427281851 0.563909120052 0.594754341665 0.85341555878 0.758928589787 0.281191423969 0.104201103952 -0.0625931278995 -0.753964588867 -0.280675076867 -1.6929568142 -0.0983396267947 -0.988591107151 -1.10358931722 0.179894151153 1.39200228634 0.918316606002 -1.57050060362 -0.98962813657 0.940771187988 -0.982487393538 -0.224633149997 0.550052099025 -0.968344454864 0.105375506146 -1.33402549492 -0.601367643951 0.319781934143 -1.59299373353 0.44047473796 -0.0196377989267 0.552489954417 0.223914134065 1.36414042997 8.84722447018
0.125224502648 -0.429405541125 0.122297503032 0.543298029036 0.0488600703257 0.0405916912039 -0.701991687807 -0.662900917551 -1.4026052718 1.74957674319 -1.24386323539 -0.692905197796 -0.718407265569 0.894924376944 -0.294949678292 1.24774207267 -0.673490624244 0.278994162224 -0.83534705326 2.14514912777 -1.18759841903 0.309820710227 0.633776880932 0.413799097451 -0.185287658878 -0.129820699733 0.0438114719791 -0.147002001628 0.963879116795 2.21052300159 -0.557491785008 -1.36980297958 -0.0882820483513 2.57970933765 -0.80367456797 1.63911680544 1.67770081408 -0.553588241708 0.568983079185 1.62839662313 -0.379127740987 -0.203580360102 -0.581680913949 -1.01475673069 -0.649277545066 -1.22394026676 0.0340834682592 -0.769973231059 0.233785911791 -1.5558956462 0.330880232214 0.833528961609 -1.99373564257 0.374056569848 1.22766899247 -1.20964101869 1.67257238684 0.419019009366 -0.705011855758 -0.0557690776577 0.558326912522 0.0760053914124 0.538755992446 -0.920673593079 0.169360824036 -1.4137144969 -0.111226061349 -0.903907641465 -0.73552994259 1.23609317521 1.09131012059 0.609138120907 -1.09231276467 -0.316408449695 1.21309769998 0.14171691364 2.31932953998 0.393317839394 0.19204911649 -0.309116464203 0.133540904782 -0.152469836381 0.708108676689 0.956702316795 -0.785989460508 -1.33123295356 -1.8362053731 0.507991326913 -1.10336660617 -2.15289059295 0.388578604531 2.49299951743 -0.00607091153989 0.838490774452 0.0818293585476 -0.0988896531911 0.919076482988 -0.290274544189 0.267392314072 0.321697806196 0.260864939485
-0.668090453643 0.992042349537 -0.174959756695 -0.755745159493 0.53650984357 -0.898467981791 0.0281811573691 -0.0091189966442 1.08589556583 0.47469823288 -0.0250269587451 0.8177662992 1.39020754902 0.557810306352 0.0103526198434 -1.31183623235 -1.06511366308 -0.305224704355 -0.609512202159 -0.186971302985 0.0566499248971 0.529692754357 -0.0704987780591 0.486501643826 0.0644744148101 -1.97546656635 -0.939335393819 -0.144087555722 -1.20969474284 0.599928729996 1.53075083234 1.2187618517 -0.21344287093 1.49072613685 0.148667457202 -0.337085971118 -0.613402663541 -0.302469686488 -0.388176818541 0.170416222375 0.16057398105 0.00304602015341 0.436938169746 1.19064627479 0.949554135441 -1.48489796845 -2.5539211349 0.934319911239 -1.36687869842 -0.224765401893 -1.17011302606 -1.80198043758 0.541462728205 0.759155160303 -0.576510400727 -2.59104229214 -0.546244448252 0.391804005403 -1.47891156877 0.183359919779 -0.015309849173 0.579291499601 0.119580368414 -0.973068940882 1.19657150166 -0.158529573027 -0.0273045395099 -0.933267959073 -0.443282251192 -0.884802714027 -0.172946059923 1.71170848014 -1.37190114293 -1.61356139788 1.47117032749 -0.209323677152 -0.66907273866 1.0399046874 -0.605615539737 1.82600971355 0.677925871339 -0.487911408146 2.15730821327 -0.605714923003 0.742095372009 0.299292580406 1.3017412894 1.56151119673 0.0320041490658 -0.753417870346 0.459972142939 -0.677715369752 2.01338724753 0.136535331083 -0.365321551312 0.184680305865 -1.34712628953 -0.971614038511 1.20041390794 -0.656894278971 22.6360011882
-1.04691098268 0.536652752527 1.18570415466 0.718953310665 0.996047685806 -0.756795088569 -1.42181066674 1.50133365196 -0.322679838842 -0.250833016455 1.32819414185 0.556230009401 0.455887772082 2.1650023449 -0.64351823038 0.927840128081 0.0570131248971 0.268592278863 1.52846842641 0.50783575629 0.53829607905 1.07250733731 -0.364952729543 -0.839209667339 -1.04480919402 -1.96635658938 2.05620712994 -1.10320836572 -0.221253623586 -0.276813299889 0.307406697809 0.815737212539 0.86047348836 -0.583077438569 -0.167121713786 0.282579950488 -0.248691126184 1.60734557602 0.490974951638 0.73487778605 0.662881268667 1.17347385749 0.181021558704 -1.29683194796 0.399687951753 -0.651356893792 -0.52861668175 0.586364018755 1.23828307143 0.0212715767361 0.308833012599 1.70221494464 0.240753179489 2.60168311418 0.565509645632 -1.76076275916 0.753341621105 0.381158384883 1.28975275408 0.67318135127 -0.138455983984 -1.22429823629 -0.209023257286 -0.850520454209 -0.580523449805 0.588578404421 1.66990450435 0.394671529823 -1.19588306204 0.44460266822 1.19663148665 -0.609782904319 -0.134017166673 0.0146881947292 -0.784898313082 0.648280433844 -0.120948148608 0.419532443907 -0.887492177802 -0.437458300323 0.722381357828 -0.372833152092 1.72696385123 -0.399636185615 0.224684725752 0.932590831873 -1.41836573293 -1.76080881198 -1.52565631457 1.26258410343 -0.551858145892 2.55819928567 -0.564247598657 0.184551303197 1.54210995257 2.00609288816 2.06150357664 1.20836623059 1.02406252581 0.592526949201 8.35848096951
0.778361076167 -0.551185716329 -0.818198883422 -0.00337445741095 -0.170184622525 -0.453228049327 0.696387447457 0.955305208571 0.0884068862918 1.47753008106 -1.14168911413 -0.19365945928 -0.716822320603 -1.86653661707 -0.0826806858427 -0.121747508383 1.51344974324 0.630811684555 -1.02418682433 1.85409256633 1.22103369553 0.582097703469 -0.22648409885 -0.959439236723 -0.372206776071 1.0887486197 1.88458630593 1.54324352827 -0.488849421786 -1.11961743329 0.140886246911 -1.76843936556 0.323167714185 -0.147602586299 -0.466036501868 -1.59470306727 0.51360010657 -0.532700839662 -1.16991683571 -2.87226221328 -0.0275149050506 1.77225159667 1.66125921455 -0.457096256586 -0.602212060362 0.468774256075 -0.998385439188 0.301791899819 0.766080278385 1.22693322388 -0.10015407648 -0.203673750177 -0.877982586757 -0.82688035404 -0.226478891902 0.367365506816 0.913584626233 -0.80317895068 1.49268856896 -0.271123601043 -0.0213672943484 -0.747211679148 -2.42424026027 0.884045396361 0.736843897092 -0.281327557118 0.0669907172249 0.515939217704 -1.56254585689 -0.529052677346 0.794264679622 -1.25428942317 0.293557932167 -1.35658180462 0.466429982434 -0.0356414822975 -1.61513181591 1.16473935446 -0.734591576798 -0.810252437014 0.200569197231 1.14863734943 -1.01582181898 0.061679849848 0.428816500331 0.693105607263 0.176441555277 -0.367027839083 -0.827590220649 0.0861438830464 -1.07213901199 -2.92135048349 0.436559804158 0.903934841086 -2.36293243554 -1.00973070471 0.619154261005 2.05749546971 0.0207937076754 -0.728002941229 17.0512376295
-0.182896441105 1.37487641915 -0.645964179125 -0.79919200665 -0.482743522182 -0.953328608259 0.122670315995 1.62467845847 0.323079273116 -0.252353502126 -0.291811268916 -1.5631908087 0.883109777147 -0.0778371970128 -0.180479913591 3.19310756784 0.298752908366 -0.751791050095 -0.426357596206 1.1484457092 0.113270410538 -1.43827797832 0.919228934575 -0.668144085539 1.87329777622 1.08004806571 -0.447321895659 1.28101636174 0.0678555105274 0.852773675122 0.484732817294 -0.846356654991 -0.643549832317 1.02996081758 -0.334775332107 -0.403648463242 -0.955122579349 0.423599065593 2.06252491924 -1.06753291425 0.0242194566728 1.41222055542 -0.0796413912457 0.45237179625 -1.06239352815 0.428307097208 -0.187144265005 0.98572999568 1.18738605156 2.58956364202 0.579633173214 0.325796316582 0.194384301577 -0.353166292811 0.338483843462 -0.295401410139 0.16846097627 1.31759753561 -1.00654256528 1.13987856113 1.31711506734 -0.118068526991 -2.12185489901 -0.607821987094 1.29699454656 -0.0228680622989 -0.999302232295 -0.504774921228 0.840620026505 0.546733568201 -0.23893209917 -0.366824411815 -0.391758149044 -0.922410184499 1.61537568947 -0.322320469211 1.21715852083 1.52131605192 0.998310898148 -0.431620312718 0.403730090337 -0.0241956063909 -0.90370186073 0.324359281722 -1.17903979116 1.18767938846 -0.464617297298 0.201159655873 0.283287871546 -0.258904973704 0.586693801475 -0.474903656623 0.871297297457 -1.34597968025 0.126379579546 1.93892899906 -1.00033132461 -0.677744970525 0.513907849659 0.17958178194 28.1590490033
0.350630099274 0.489187130148 0.634721468562 1.10969984196 0.409818656929 -0.241257654619 0.672573701203 1.8998819349 -0.132633746383 -0.974529304671 1.10708066929 -0.120381163954 -2.17266954601 0.84742167715 -0.535328185954 -0.0905332823042 0.331980330569 0.190499679779 0.709451817139 -0.43548637057 0.513105798176 -0.259546677584 0.738810480888 0.615367484013 -0.935438702045 1.08598211618 -0.535963445114 0.808057798281 0.367287313401 1.8381836768 -0.223465982372 -0.349316796118 -0.0194196058877 -0.303179782834 0.799941901942 -1.61631060844 -1.05368241915 -1.06780292158 0.950307591974 1.71061337258 -0.104449218537 -0.16882172319 0.0700521631132 1.16187830261 -0.927353134191 0.238368982735 0.975197629782 0.50109416994 0.189581616599 1.00104609257 -2.703232293 0.677875319531 -0.654075683127 -1.83063289686 0.511202599525 1.37365854516 -0.137448514628 0.952874547203 1.61227825799 1.31491445358 1.63996452937 0.742127491072 0.0754336389016 -1.6019658119 -0.24606248813 -0.843246595316 2.1709427175 -0.175885812432 0.123204806784 0.55148537604 0.0436024463725 1.69505104043 -0.622649361734 0.194607455237 -0.742470585698 -1.32002251122 -0.611769090905 -0.0370367970484 -0.429302224517 -0.692420979874 -1.40631746367 -0.0831055726287 -1.50472037403 0.76005596369 0.0824397529345 -1.45755149946 -0.30920907705 -0.752156405591 0.319174510419 1.34045044602 -1.87517246965 0.115026079147 -0.160132795567 0.67134007645 0.213196628238 -0.751969331739 -0.319053935667 -0.796025856803 1.0760071386 0.0213116486719 2.75090212337
1.90119068575 -0.0606608138146 -0.70840676691 -1.51371439261 -1.80313967626 -1.58413594301 0.267126651011 0.50872502323 -1.58119070203 0.895038314076 -0.483061051683 0.146793011986 1.61222062826 0.896839315866 -0.268530647906 -0.891192225415 -2.15181540133 -0.719153319242 -0.211130238828 -0.987179527151 -0.131256967092 0.0768518829588 -0.224855981808 -0.650002580823 0.168654671967 0.441940649569 -1.09039907744 1.41093237975 -0.0985881322843 0.0188496229448 0.708214423257 0.233216131264 0.953136633913 0.287124165202 -0.61243737464 0.361503525206 -1.14372620732 0.108559705777 -0.0332299906445 -0.208116857273 -0.128537511439 -1.8818490455 -0.548724907741 0.0928449011411 0.159856391997 -1.02767514093 1.26570784086 -0.866174848215 0.969457200527 0.427194361872 -0.646227309844 1.77531089261 -1.19363683176 0.91915417361 1.00058231804 -0.670620209077 1.39246530006 -0.250046514599 0.28869362928 0.260321838771 -0.134308741471 0.81080827316 0.793488720552 -1.74853197324 1.30434024288 -1.66249198804 1.03254620434 1.12670513683 -1.09096643022 -0.410814287955 -1.10570466849 -0.214921030289 -0.308034284186 0.779660532269 1.31030874612 1.39568381079 -0.562168026578 -0.209221873745 -1.68343819222 -0.805870066496 0.964851633097 1.61558282355 -1.23434887188 -0.592464259153 -0.0264057569589 0.28016115882 -0.809603519922 0.424061044464 -0.473839347071 -0.0144522708783 0.546284248004 0.00642226981094 -0.436385890527 -0.109609803926 -0.0883629592053 -0.370011029882 -0.258796062667 1.5986471705 0.560919447941 -0.295480318029 38.6838945325
0.696954404511 -0.333819489756 1.17312463759 0.369642192198 -0.107302144004 0.44771692581 -1.57087615207 -1.12676746891 -1.1939250064 0.142943094764 1.73251499949 2.23130014619 0.638051101441 0.500844474944 -1.80105773415 -0.542673799734 -0.787783751908 -0.620847598251 -0.168143818585 -0.472090577697 -1.97929981038 0.747910256118 -1.07274302574 0.239246864111 2.07408266975 -0.919384591586 -2.53028752275 -0.28600422188 1.100959635 1.95834745422 -1.22954959445 0.496699223237 -0.46531045678 -0.105948354304 2.64434334702 -1.5029703284 0.253739661495 0.467693171765 1.08578632494 0.0979831534709 0.308050539504 -0.391648567422 0.269126941245 -0.343192275497 0.621571889856 -0.369610336044 0.377100393902 -0.029262813685 1.12605025077 -0.0513937235885 -1.77303246821 1.26192150071 -0.905732300863 -0.653766338649 -0.595661294043 1.37443809317 -2.13567421398 3.13774853366 1.05605680907 0.223238914129 -0.0548940006163 0.285554074858 0.521122428379 0.64521558595 0.555604466003 0.0895806812552 -0.197338420307 -0.151273283654 -0.194908280353 1.13377009687 0.593556722281 -2.94038863466 0.65590077653 0.194736194719 -0.0187087564459 -0.388518453089 1.12411271999 0.947526462123 -0.772877667824 0.407052287125 -0.971656734541 -1.37961816479 -0.62671722459 0.862393472383 0.953125045376 0.513085420097 0.725095786848 0.516178287115 -0.641481595223 0.431922544674 0.800409525228 0.754291329814 1.18891337147 0.708303847201 0.351448207542 1.07015023832 -0.0265212592491 -0.881874651228 -0.163066963944 -0.744902644806 -4.90352453176
-0.675178274974 -0.144518670716 -0.792419921 -0.307961529639 -1.89361466695 0.213293707373 0.00120547536222 -0.817088631068 0.659245668432 0.937570137627 -1.60755986437 -0.762724778566 -0.769142349787 -0.939903101109 0.829474841932 -0.193826138773 -0.264514841311 -2.00386236441 0.635418030209 -1.23925839485 0.0599326302663 0.277376937958 1.36065859584 -1.30882039912 -3.01951215582 0.183849544754 1.80051118151 1.23894635294 0.209659415275 -0.491636185632 0.807122596637 -0.973546199704 0.476357769356 0.505470159167 1.0602099075 2.75966003891 0.392415967179 -0.508963625707 -0.025574312192 -1.76907590489 -0.694713131089 -0.409282438113 -0.524088397935 0.152354872034 -0.822419932382 1.12103066732 0.000207064918197 -0.00930032113861 -0.327894716513 0.155190683859 0.825098264668 -0.867130215711 -0.658116489075 -0.303726028777 -1.34587092347 -0.819257859721 -0.476220873545 0.874389180713 0.262561329002 0.193589911368 0.850897962168 -0.137371788399 0.390464849929 -0.103221752932 0.2653623494 -0.582758657612 -2.43881715828 -0.134279162186 1.4227481361 0.926215402242 0.965397484591 1.23613072181 0.0886575909614 0.197315707406 -0.617651895434 -0.316072856027 0.615771149771 1.20388443717 -0.139446275681 -0.450189264851 0.000527958856597 0.601206748929 -1.44385481613 -2.29618095314 -0.550536849492 -1.22071242591 -0.508140197647 -0.147780318817 -0.453248409023 1.45246753447 0.326744764602 0.300474359611 0.622207144043 -1.13883311778 1.03911178742 -0.0757642865355 0.670480617241 -1.07185723304 -1.55375876602 0.817889658025 3.26561208159
0.376409526098 -0.902051554358 -0.869663081275 1.12543478441 -1.18941189287 1.64267295326 -0.900620734648 0.638391925608 -0.328618475749 0.603187431082 -0.544114002114 -0.162792906072 0.0409191753957 -1.00218745578 0.74082434542 -0.513213566472 -0.22859991534 -0.994349374609 -2.5623336588 -0.1910277626 2.41261542161 0.784604287898 -0.0192603797344 -0.262890829208 0.022465892812 0.547119115175 -1.18081281531 1.11432169467 0.715381315441 0.718185725708 0.43847573881 0.019616657694 0.672861235967 0.591814133741 -0.354040710941 -0.573601772897 0.101856295262 1.5490201515 -1.23910707565 -1.46752526575 0.164760841237 0.050887701856 0.17334166437 0.243953197909 -0.223202254635 1.4898634386 -1.60090397848 -0.82849702478 -0.103254760149 -1.64318881115 -0.175854404432 1.66147016573 0.020886488296 0.230700905719 -1.26016476517 -0.616361408039 -0.375196380324 -0.317715096756 1.281643795 0.557691060725 -1.11145795694 0.246504778432 0.498221748497 1.14014903852 1.58054068657 -1.01509419183 -0.81085751121 -1.25757785891 -0.234019859107 0.466358374446 0.987334516589 -0.0759510236425 -0.319847523255 0.151757992249 -0.83514290163 2.08953872169 -1.60766102712 0.184740578896 2.02360621923 0.00679984456 -0.190039035001 -0.35744542281 -0.180391681762 1.37284847468 -2.21186191133 1.5334337013 -1.42395715245 -0.266652329234 -0.429244420299 0.588553269771 -1.59812435188 0.462172666082 2.02430962329 -1.36317400459 0.18970616761 -0.661982177797 0.425887206193 0.0191477774158 -0.641486909044 0.487872284871 -15.3059076878
1.80434810979 -0.190903791727 0.719757942148 -1.29327295787 -0.956436376818 0.47240627788 1.48411602854 0.355613348786 -0.313058030523 -0.000708594576646 -1.25040773397 0.604515326355 0.882333062323 -0.452090332833 -0.47004214776 0.265878229652 -0.436719736041 -0.0661326146258 2.09972178917 -0.247025700746 -0.358340152021 -0.647541805635 0.7441919715 -0.181224173218 -0.649373038321 1.32130403227 1.41960300451 -0.600423565739 -1.86653995136 1.00751368984 -0.68462982576 0.790625599163 -1.97010381771 0.892597338299 -1.21117192928 0.730764119067 0.0142730678364 -0.953939419397 -0.407036312927 0.686318456957 0.105894453115 0.584412980472 1.97644058452 -1.56424161171 1.61721257497 0.104355937523 -0.898784048323 -1.33031362574 -0.189120390777 0.921650111924 -0.127549120378 1.51115493025 -1.45117569005 -0.0120889478461 -1.25239344441 0.363631882625 0.886887390097 -0.420761793681 -2.60421385663 0.198948146796 0.436738551734 0.404294754962 1.23578219182 -1.07105367965 0.68021610545 1.19250751248 -1.77858758401 0.319651825919 -0.504179831008 -0.0815226731016 0.347676483538 -0.487228564114 -0.675708079162 0.034152417488 -1.08724593886 -1.08582512889 0.679373282957 -1.14879403516 0.666312500909 0.462591292854 -1.72580672879 -0.677564652336 1.19410940305 -0.98116553114 -0.464404262309 0.462060893252 0.783390509283 -0.251538886044 -0.597510194692 1.4223698617 1.7388996638 0.978858050782 0.085318142565 -0.808265721641 -0.830444406557 0.522514105266 0.418398220889 1.40159859295 0.650450092536 -1.50308030176 21.4962081247
1.05194761772 -0.998060627314 -0.383971271952 0.250200206252 1.99566748978 3.10991855601 0.606723059136 -0.18319661872 0.534505648481 0.887655425874 -0.320667625557 1.79521135591 0.230070759191 0.497743089091 0.665924252054 0.421586610614 0.83894050047 -0.617253186547 -0.558301753946 -1.10015423297 0.43950123062 0.778936503512 0.457772866152 1.67449243335 -0.00559601882905 0.668741655593 -1.09170087614 -0.387099702474 0.695537757566 0.849102110743 -0.293966947664 -0.0715992518581 -1.51787374668 -0.357029200807 0.89038316352 0.575205016107 0.500665721381 0.049773687181 0.00706315862818 -0.660321139473 0.698828420203 0.420972944389 0.492018847993 -0.526034842668 -2.15334291987 1.09715271175 -0.478837456008 -0.862775764043 0.693478911914 -0.392012639919 1.05993638405 0.617005949577 0.6835693232 -1.3659557112 1.21194398539 0.261250531234 -0.369277139246 0.143388467342 -1.7762352329 0.408652811481 -1.02937150818 -1.35267028584 -1.52235918622 1.11268837499 -0.629263393693 1.53372770992 -0.535801463052 -1.70735795759 -1.11652443995 1.23581162001 -0.155898177937 -0.548287296491 0.160018225853 0.501782736168 1.1173988159 1.44849922989 -0.359768645789 -1.32604768608 -0.413465161123 0.260280506583 -0.963758926211 -0.957150914895 0.34378788155 -0.0486523515705 0.0327969954116 -0.7584953347 -0.230400714206 -0.924233144268 0.890198411125 1.03524933472 -1.84618786224 -0.929510860192 -1.49652925509 -0.650023934407 -0.0834379697904 -1.4496452197 -0.921859813125 -1.00395737208 0.207267329399 0.0693443370363 -18.0209615294
-0.721737553337 0.176820872139 -0.546680084587 -0.271655110326 1.6734520903 1.34046105179 -1.29958123693 0.829732417879 0.811396554492 -1.14826328875 0.818777643755 1.53793191841 -1.12254480624 -0.917502821014 1.01766146684 0.271495310826 0.55147627524 0.3405892164 0.390695920928 -1.32647212831 1.04731770662 1.16958999243 -0.229390744068 -0.0434769498139 -1.53110750256 0.514254756018 0.572057441714 -0.0621910169993 1.12435335987 -0.33407723098 0.564605925894 -1.01966433869 -0.0235521508742 -0.174354257903 0.225307922041 -0.369526928833 -0.131472595672 0.826047171442 -0.436764237238 -1.60657710074 1.74958390421 1.38145407869 -1.29226269511 0.689707805245 -0.502974770551 0.263487215331 0.294224129013 -0.234407800316 -0.783765665586 -0.690541052316 -0.916191915481 -0.83182220823 -0.0671782900494 -0.715759989111 0.682052065713 1.48724615534 -0.58005324137 0.239404500535 0.499685110303 0.472002270919 0.0759552679161 0.74268241836 0.482248952681 -1.23766242233 0.869156064389 0.887290837267 -0.763286104179 0.0379378354476 0.683328992811 -0.209313819579 1.07297804777 2.36387249462 -0.785986032635 -1.38104460315 0.303818595605 0.721562505126 -0.230866373845 1.45326066332 -1.33860579972 0.692918623032 -0.605860820759 1.71937790621 1.99251535317 -0.766656587783 -0.549557135909 0.85958788698 -0.38713064979 -0.0454112179322 0.0253884205424 -1.9196731562 -0.0138377460942 -0.689727774064 -0.4931228224 1.44363200347 -1.25650689428 0.813205186748 -0.278962930332 -0.279760168496 0.790371896052 0.340051294569 -6.58481883149
0.57061299722 0.968184660533 -0.331308383183 -0.612236734508 -1.08515052656 -0.825410529979 2.94909442531 1.24467958074 -1.35107436621 -1.32245795674 0.481866061718 0.547264797378 0.548883835317 -0.254955793554 -0.125454260003 0.327879524159 0.0858930062933 -2.21930037275 -0.229799630575 -0.85140643426 0.175211418909 2.9852590026 0.367481665474 -0.313529686172 0.921801501977 0.482687887209 0.420094490452 0.606850593216 2.05654356483 -1.13088843533 0.473632076811 -0.926381129982 0.555512646342 -0.918686511486 -0.417366813605 -0.295089914238 0.975816719345 0.918454443942 -1.24571737645 0.0549341109998 -0.709579854749 -1.25850491068 -0.217017050424 -0.308482788456 2.42671648635 0.432959825361 -1.37761750075 -0.564774004171 1.02138329543 2.08844277287 -1.58598331224 -1.87992438514 1.87096517537 0.389614177371 -0.868292731876 0.534629086122 -2.63574773902 0.00337550659716 0.327821172843 0.924270139538 -1.01389595229 0.0856871614034 -0.92542462606 0.255383755674 -0.895346322363 -0.40810083916 -0.99581539479 0.651136241824 0.858451116657 -0.234620569957 0.03823799496 -1.44859141463 -0.299676648007 -0.0502046170417 2.62079309103 -1.11196702577 1.46417723875 0.996858773466 0.28063640449 1.7586204842 0.372105472607 0.389159195668 -0.0531206530175 1.22356888242 1.09646923381 -0.625677287496 -1.3192471946 -0.202980637396 -0.800038564398 -0.0635245746154 1.23743813468 -0.457301655087 -0.0428233813116 0.0580227348084 0.848430882205 -2.24688933398 -0.606700294765 0.211283692279 1.20007895643 -0.491902447506 14.9670707278
-1.87655270604 0.619711445966 -0.635362388826 -1.18966665909 -0.624345389713 -0.184525357656 -0.604744664538 -2.2055660571 0.897066196887 1.27487504128 0.65152199134 -1.13768567042 -0.201491533948 -0.00652131522946 0.598794389562 0.668340488718 -0.734173798778 0.0819955564136 0.457280404615 1.45582232215 0.704506539825 0.789056687376 0.0838266279294 1.4104591452 0.409762795959 -0.861087910174 1.40336997013 0.697903272539 -0.443044021128 -0.479492967399 0.296575545141 0.463184795268 0.197292265631 0.311308673443 1.69995737458 1.07154315223 0.190635591265 0.941310580767 -1.03252390353 0.397927049947 1.80930634973 -0.218045895392 -0.847633928619 -0.652088888593 -1.08963303734 -0.784761908128 -0.37050809859 -1.40556701918 0.0156183339496 0.902277173787 -0.907756180147 1.51928392364 0.510792088528 1.03058058562 -0.657834553852 0.854525227067 -1.0919339004 0.890247500837 0.171839339794 0.553251219985 -1.17559460562 -0.895069842277 0.597228218253 -0.948348004224 0.463206292099 -1.36713780646 0.848174212667 -1.23252331477 0.55229993768 0.625630933646 -0.69677181843 0.582026567085 0.260442263334 -0.538841856193 -1.00855468408 -1.96262569167 0.3496500473 -1.56480277136 0.0953441994413 -0.263448216082 0.679142775438 -0.30204549949 -0.329447786347 0.731870704288 0.335058029084 0.316155957183 0.469267589809 -1.53557212321 0.756788679987 0.612468794014 -1.01668312858 -0.244080473674 -0.0393072876276 -0.134496784402 0.333859966569 1.43136678183 1.08176672767 -1.31221919343 0.622069990306 1.32893331954 9.19168720598
0.386808520689 1.09098042519 2.0122704457 1.02370954611 0.249308595642 1.04508847408 0.144887833097 0.023903043285 -0.351414235714 1.56341335883 -0.818428665942 1.53236772468 0.49986412374 -1.3993061748 0.367649292991 -2.10002650765 0.625508016831 0.885231482989 -0.592355955652 0.123547695956 1.95415743375 -0.505746704262 -1.05890758706 1.48166340246 1.96258719053 0.00369567184785 1.01146303541 1.34147591553 -0.742484232538 -0.485305835368 1.23087451315 1.68501427871 0.562880860174 -0.879814353502 1.9870611117 -0.530970897812 -0.335137781171 0.34233783449 1.55416042071 0.853975976552 0.414865500362 0.463288530118 0.0435146686435 0.558139514519 -2.52956007769 -0.29660745907 0.241321934917 -1.15101408362 0.386323317812 -0.204471220986 1.75547569832 1.57301972521 -0.465805569118 -0.150837711567 -0.0739475656084 -0.45165947616 0.195024984028 -0.758282068888 -1.13061533494 0.6227112239 0.629529584222 -0.80431575966 0.895355430763 -0.631577729165 0.253165238038 0.820344012612 -0.0336125647037 0.454740912141 -0.516429643888 -0.196466583428 -0.20585943088 -0.74657834654 -0.176774163116 -1.54861829886 -0.491153747142 -0.28487549337 -0.256179752495 -0.241497445871 -0.0617641998601 0.479441518086 0.874517074133 -0.649765226848 -1.20320085539 -1.04204441224 -0.487202921195 -0.351921317817 -0.769996066197 -1.29611666425 -0.456120827474 0.181426620114 0.595029465836 -0.557423053108 -0.412997822143 -0.926698308847 -0.0314391703748 -0.848428634191 0.573127813241 -1.78586649193 -0.359629672452 0.301107339192 8.93340760559
0.183834516323 2.69303366398 0.349800024568 -1.00405459684 -0.0954642470891 -1.77624633347 -0.0805997492968 -0.833056057001 0.91539027556 -0.549540274596 -0.116765915795 -0.635557841404 1.73885135185 -0.321242766118 1.83255704348 0.814151762118 0.482066727335 0.368733147318 0.393797298216 -1.92767257935 -0.278883394151 0.845157971184 -0.0488971834741 -1.4051898468 -0.0524044505775 1.70410551626 1.24689171553 -0.062004009366 0.951449277058 -0.366507020368 -1.70387158683 -0.92446598813 1.56288876851 -0.273993081829 -0.243383979375 -0.299838196275 1.90413658957 1.62595891536 2.21878023345 -0.1590452104 0.295624488747 -1.51664254942 1.47693442612 -1.16777955127 0.216775563763 -1.09730252763 -0.588866826739 -0.83726243105 -0.607875260676 -0.539122703149 -0.548268794925 0.83333391178 -1.10486279306 0.220541427014 1.21795915231 -0.513196364513 -0.717918890748 -0.23052462518 1.17972520836 0.194107630953 -0.531214294608 0.483876651188 -1.10229214984 0.681359510443 0.408607307702 -0.307808471139 -0.838585798447 -0.886680922283 0.534817336346 1.22898050249 -0.637307747029 0.458386703551 -2.0870270186 -0.584617730657 -0.0310589328709 -0.909683416982 -0.93650637479 -0.667779556469 0.292192728326 -0.187329018406 -2.23823123332 -2.12070015264 -0.606865177857 0.457686586054 -2.74750484273 -0.499730176152 -0.526247856517 1.38833777821 -0.385021811713 0.382988984741 0.141257140087 -2.13056647981 0.768207216632 0.215396505456 0.508268639675 3.92623770644 -2.0841129395 1.72469664976 -0.2874475194 0.287328904403 34.1353199392
-0.0455122453012 -0.424236333398 -0.569832928239 0.329508735573 -1.51717369667 0.750579167522 -0.416194404885 -1.13006933904 -0.450012857996 1.25714921686 -0.535335087016 0.35845361821 -0.730956275715 0.757921849924 0.68550773879 1.8486088333 -0.175563945499 0.668654804758 0.0980675395389 1.29587178186 -0.718832387609 0.745005312877 -0.194697296117 -0.0641881771085 0.0917524844484 0.252240396427 -0.116229043122 0.214713183171 1.57811805756 0.985449685615 0.869154592497 -0.455539526024 -0.889240828228 0.955300558238 0.87604679253 1.47267067575 -0.603980625969 -0.22954865536 -1.63948416253 -0.392471106061 0.996570510579 -0.466495379228 0.640479795201 -0.190503105998 0.324057028222 -1.14769138982 0.0852094496339 -2.9911359709 -0.186896158162 -1.63047324372 1.20599451655 0.777407352765 0.466670981966 1.52100622716 -0.948916520825 1.74736319792 0.93219156426 -0.236555287219 1.13562014718 -1.10629351241 -0.824514161528 -0.60858972324 -0.528977708064 -1.05655764276 1.2230830671 -0.25885440037 0.352504968357 -0.570351366414 -1.82060330055 0.270057358391 -1.91225497542 -0.0686340460855 -1.36831503883 1.98727599923 0.911362722175 0.105753791271 1.26370667765 -0.846315977466 0.54347937867 0.199810433719 0.264020081334 1.27235350011 0.73249210278 0.288723662825 -1.65488743623 -0.960046295279 -0.122708933596 0.0933723742767 -1.13020372467 2.41167667558 1.51639405525 0.602118320392 0.0720368612837 -0.212208969901 -0.951918460022 0.0774805185189 0.257752540143 -1.24176057548 0.334176417245 -0.155259048825 -5.82374354753
-1.90780755788 -0.86038501078 -0.413605533422 1.88768765734 0.556553124534 -1.3354815691 0.486036289418 -1.54730398894 1.08269105389 -0.471124651818 -0.0936361887392 1.32579664754 -1.28716356858 -1.39711818511 -0.583599326346 1.03837885102 -1.51934607548 -2.83215559811 -0.451158858409 0.551740799911 1.20026174974 -0.463161362085 -0.411426607116 1.15390073426 -1.8697416997 -0.388520775183 0.190423889925 0.449218721285 -0.509806693191 0.0344410117058 -2.48832735341 -0.658248412334 0.453508712554 -0.982294034255 0.0589842215896 0.446872500803 -0.342549200858 0.170463770997 -0.962732565285 -0.206611279696 0.610216169589 0.156972960968 -0.586531269564 0.224216404291 0.714609790637 -2.04994127858 1.15907406496 -0.336254738681 0.42548993324 1.19724692365 -1.37167369723 -0.709441002428 -0.288548695876 -0.783753521124 1.73493657584 -0.856772093827 -0.555546779487 0.204389031603 -1.20214952608 -0.395680711756 0.31745326125 -0.332860404383 -0.0933868588999 -0.529332112448 -1.51447030918 0.321593211339 1.75493307165 0.0184016307834 0.225264117248 0.692722755117 -1.26933049655 1.70251465813 0.202328796423 1.63185689909 -0.733032995524 1.81806192256 0.775155494035 0.553040085852 0.234024454353 -0.248528618074 1.20053165847 0.140359869848 -1.96706970359 -1.11718646171 -0.185845752193 0.309998983166 -0.0565884888999 1.21897078979 -1.95110186404 0.143587936505 -1.81797922539 0.759712295484 -0.094458714442 0.419609972024 -0.86388296059 1.27946493166 1.04172466406 0.583544303012 -0.129517246863 0.579857285295 -29.9098147358
-0.706892567987 0.855555659021 1.64948089432 1.07061055998 -0.729602469807 0.361417317273 -1.29314154376 0.572390311176 0.450603412863 -1.86981633953 -1.16178384391 -0.283138896744 -0.300859747141 -1.20947693542 0.388978729352 0.251473608941 -0.194269131979 -0.755791500158 1.04870712642 1.65540711309 -0.483561483847 -0.612166917155 0.491207665412 -0.358029379747 -0.139397200663 0.739653151725 -1.90935608751 1.31830232485 0.0726805243293 -0.411493144562 -0.0892341542214 -0.0375706449795 -1.73120130344 1.49493822745 0.0413256322706 0.443002130447 0.951549770574 -1.02116245756 0.473471899035 -0.267641090899 0.846770775216 -2.12722742035 -0.0990943002413 -0.602820655784 0.432262950634 0.470044187368 -0.707625894822 -0.712173864176 -0.110665368557 -0.896642227315 0.841983695452 -0.369207200447 -2.90698821932 -0.374822056622 -1.03854382084 -1.63127581546 -1.23742663822 0.109408471833 1.32864082825 0.313184473865 -0.606503388216 0.455904195171 -0.459090310219 -0.694600369163 -1.15436266823 -1.75182880675 -0.389923706559 0.15805348992 -0.0966236700149 -0.415966927947 -0.945746060697 0.608246191685 -1.31713191995 0.776027913843 -1.00221701893 -0.752435237353 -1.46678519062 -0.501402146886 0.975312458478 0.515628088444 0.978422112028 0.522142545934 -1.10366982853 -0.330789224328 -0.780199129117 1.33057490404 -1.19678864643 0.893697689389 0.892953870109 1.82962020172 -0.409686592629 0.71232215958 2.28165183654 -0.617641676934 -1.53504024753 -1.88001003391 0.712712028861 -1.88315020806 -0.372319052938 0.437313187039 -8.55604526948
0.18517553683 0.425444864184 0.222289855801 1.27886581331 -0.952316380739 -0.676995138459 -0.772659445271 0.830191811863 0.900398588395 0.451225319319 1.18349366689 -1.17804086738 1.66722411155 1.52323862171 0.735621997246 1.78179890877 -1.65662320768 -0.524448136263 -0.735303460682 0.721479323757 -1.0501407396 0.757495149337 1.370536144 0.695202900084 0.283751023662 -0.987873340901 -0.846850966125 1.2496189053 0.779349003905 -0.0390195193775 -0.417909545766 -2.02580787311 -1.07085241868 1.91141908714 -1.280455571 0.189479821221 1.0074439732 -1.254922668 0.184710474781 0.937915537511 0.0124993219073 2.86840305567 -1.66859925888 1.05872852988 -0.172801737396 0.771920154837 0.441307151699 -0.73315619711 0.228996392459 -1.8579014514 0.603247500571 0.298158465991 0.638660168643 1.05811832509 0.36761984021 0.148089419798 -0.881068336661 -0.712220763649 1.18673462018 1.43633540571 -0.238110436312 0.0460027472533 -0.904614374994 1.17275684527 0.665416823692 1.94121743646 -0.87832307718 -0.378007899018 0.231445922526 0.646489537726 -0.215667637548 -0.872961090454 0.881407528924 0.721135362546 -0.916274100564 1.35544280111 1.1701987092 0.134296497248 0.079597862376 0.554057771116 -0.861703070256 0.0300314791641 -2.15238354461 0.876455645503 -1.56149322244 1.50341982843 -0.330120093966 -0.211666981931 -0.627733906085 -0.288038873922 1.41853134515 -2.48780865654 1.27696538609 0.338023481102 -1.20702164786 -1.07531239305 1.67639302721 -0.945506879943 -1.1533505106 1.13731454236 7.99546480468
0.338552876286 -0.937925576536 0.216624975405 -1.02575268364 1.10082139842 1.06137096487 0.532006198822 0.361661061247 1.76118812487 -0.000313672611775 -1.18187412542 0.449473912832 2.08604704954 -1.01475949319 -0.361462766694 0.416446038101 -0.0539048490057 -0.982303580377 1.12185785623 2.32004072202 0.196131459024 -0.904068289736 -1.54896052505 0.257975981221 1.10387734332 0.475167746495 -0.00240384091885 -0.589271651789 -1.09216363272 0.834751326325 0.913771621386 -1.54572978669 1.58983897818 0.574071220894 1.39959464515 -1.34212774849 -1.36582415542 -0.148969309767 0.502784426895 1.79636082293 0.706078913815 -0.242681276812 -1.02636920767 1.23000057272 -0.964705425751 1.62846855477 -0.284384649607 1.59058207262 0.678931290059 -0.136995489442 -0.519396371826 -0.340907877346 0.428316692375 0.0771564962177 -0.593811408069 -0.165631410318 0.0785770297191 -2.12873409441 0.458168114789 -0.979721224717 -1.15333240321 -1.68734434711 -1.79389249787 -1.35544750311 -0.70902095763 1.95325913753 -0.525879675895 0.177750106268 0.400481386506 0.131065186216 -0.077443460726 -1.1952937636 1.45092754828 1.80719664364 -1.68265869412 -1.02402859089 -0.279810342377 -0.96453779491 0.505965553456 -0.728272202407 2.16505606781 1.19054859434 0.212574030632 1.02698626332 1.10590042436 -0.563947488058 -0.816217244542 0.0781430629696 0.861636124498 0.139060398653 -1.57699648219 -0.802824443951 -0.0739728635944 -0.0756656043258 1.97254217679 -1.3859879424 0.505589241836 1.48911310833 2.27144974542 -0.404397423184 4.86875064631
0.49142945272 0.569760357199 0.195481731553 -0.0988452012393 0.4359753895 -2.53224608522 0.682069490063 0.126177903662 -0.222474896778 2.04686219572 -0.674934018791 -0.403075989065 1.9915533022 -0.83206130485 -0.550115282937 -0.147025423431 0.84073448213 0.207802507353 -1.29262534715 -0.532168563127 -0.607354433212 -0.077221045223 0.42584365863 0.418205755888 -1.77601175405 1.06394098756 0.252568845997 1.38453204759 0.444198327291 1.10132295774 0.46654531145 1.3462257562 0.522250636018 -0.0979152464429 2.27243472045 0.88903712228 0.573744421004 -1.27630441654 -1.28830761746 0.292715482142 0.145521197768 -0.614122565008 0.140982699612 1.58862692804 0.69540247455 -1.14100850975 -0.111508827143 -0.804966480853 -0.387699916409 -0.41361566563 -0.477645582604 -1.25513537197 -0.127654681518 -0.560607636847 -2.92944869 2.0529720245 1.08876965422 -0.376300724925 0.0188190497406 -1.17165434732 1.69572287781 1.89728869477 0.156693728247 1.02353064419 0.175286778934 -1.33672543888 -0.411823368964 0.131927966772 -0.454547718743 -0.218653277435 -0.0913995575091 -0.0808784978655 0.0522584904975 -1.0606050664 -0.717016149128 -1.2845842657 0.977815549686 -2.10564694184 1.15359034332 1.38634939726 -0.302180586983 -2.60313708783 -0.361310561967 -0.0641841612888 -1.01059821993 -0.515218393808 1.53019519886 0.664927162302 -0.924564114378 -1.5975991696 -0.32701731761 -0.21345677935 0.496199187363 -0.535316712568 0.511499575362 1.93515404006 0.815501022444 -0.0480885073308 -0.183150471053 -0.35667313418 34.7162496623
1.18064091245 -0.627313445951 0.045222709 0.0511979018811 -0.501784192812 -1.37246554788 0.322974503618 -0.0610039718554 0.500240469437 -0.533600306439 1.22082129881 -0.876773781212 1.71204028402 -1.74763650983 0.434770064557 0.475430682527 -0.795557067941 0.424393937861 1.27951866976 -2.21681883935 0.502744807491 -2.49327082033 -0.965664803523 1.6291663649 -0.581782033392 -1.17387996441 -0.197937728985 2.06790633816 -1.83168224721 -1.05130991164 1.49743168318 1.85770234354 -0.10343122429 -1.23905270253 2.09584350181 1.59444239175 0.678946987762 -0.812402348937 -0.049029340838 -0.160360081045 0.330851304616 1.45100143813 0.879417041137 -1.07737607698 1.37649645002 0.313132140013 0.687065795859 1.46654085928 -1.11158024951 -0.0358255787065 -0.531454551359 -1.56785942537 0.346709977605 2.51155655158 -1.84007774451 -0.0322806110495 0.640542935075 0.123078201656 -0.113128052516 -1.29921636345 0.23278674294 -0.756763977016 -2.18992170498 1.19459222051 0.958385819842 0.0516609768511 0.229074688206 1.07431801272 0.224339656778 0.904017554761 -0.297482200874 1.31198373857 0.320785725933 0.194051943606 -1.27006108871 0.286955854302 -0.831954917494 -0.638282726528 -0.815375628316 -1.0662349319 2.12477140302 1.33133906199 1.92036750214 -1.22289501956 0.0712537499109 -1.2935076252 -0.695694877197 -0.918126983417 1.23958400644 -0.396229678102 1.06837933369 0.604120889589 2.3036387521 -1.47944422314 1.25923323979 1.1464408704 -0.973378838027 1.00713333647 0.336144963026 -0.227476259953 7.67737613439
-0.823935486972 -0.719109451449 2.04981209579 0.000682818957483 0.782130001531 -0.790899381668 -0.779852946222 1.08198480925 -1.34957621155 -0.415213767905 0.0340274110722 0.11137260184 -0.179093285016 0.395819781096 0.692855755818 0.734637545459 -0.985803808668 -0.284155097929 1.19476286188 0.894647187574 -1.37285945148 0.351479900352 -1.97822524937 0.0469349020604 1.89776701675 -0.947892717269 -0.834323045492 0.764029781573 -1.54280151521 -0.632755029885 0.596441137582 -0.634285847689 -0.235969987211 0.744185710315 0.421546083537 0.266818396295 -0.33912227927 0.370061115269 -0.1237326801 0.457805609926 -0.496932025118 -0.18256897438 -0.989957792552 -0.0350076100062 -0.811000863629 -1.11404645016 0.258661147855 0.212739775858 0.782873734949 -0.431125569575 0.408052846837 0.550797572274 0.444773807832 -0.825653682802 0.149363482271 0.364140296055 0.00717846690794 -2.08647765837 0.160489623973 2.2125310394 -0.360039268757 -0.728077097855 0.373348559711 0.312378210467 1.19273516542 -1.25786815591 0.731380252575 0.590422061251 -0.142146536941 0.338687317922 1.0294574816 0.872315380028 -1.14301931207 0.820158186755 -0.0646886050325 0.0728740980155 0.0731969910017 -0.150242988798 1.19170749711 -0.0837179598492 -1.11954612838 -0.39352985597 0.17869471681 1.2292147843 0.603094684949 -0.850535278747 2.48518991668 0.264775310978 1.275390738 -0.151714433577 0.533359244705 0.839468504518 1.21819471175 1.05736830538 0.872197000073 -0.315086731194 -0.571746041956 0.332607510324 0.933128072341 -0.222720700777 7.98160016147
1.06517196571 1.45261674549 -0.916320919073 -0.836920703796 -0.140375058905 0.307612668189 -0.524567013767 1.35220267887 0.424066861518 0.0394470482407 -1.43590952387 -1.31581581643 0.281009250282 -2.13259562615 1.01263740964 -0.158153844372 3.24309296959 2.30791625062 -0.181449069248 -0.106337002531 0.995581514002 1.70317260992 -1.63802905744 -1.78637546535 -0.622034805554 0.582737583174 0.496873590508 1.06977145498 -1.19969752837 -2.31614386297 0.858014195302 -0.828196272965 -2.01848786439 0.145063745959 0.793175688219 -0.122057132121 -0.457848386182 -0.159362232146 -0.370582762401 -1.34804711194 -0.71468067699 0.521279905014 0.321678541377 0.168059805967 -0.995148481853 -0.181503162136 -2.17706504644 0.178476663885 1.42885770781 -1.47413213204 -0.585927673318 0.32910677871 1.25284263443 -0.4482246163 -0.692250329266 -1.96892314242 0.103438129308 2.04207604014 0.277358461965 -0.0222789791837 0.322082310767 -0.0110920039486 -0.81301437226 0.823279915678 0.225761523112 0.0176132519337 -0.975366027278 1.30350793193 0.664702745333 -0.552920837367 1.00182485368 -0.497570838385 -0.782003492511 -0.75970311748 -1.77106855309 0.471542380418 -1.83114487834 -1.22844383127 -2.07558800908 -0.0860696927909 -0.150320460272 -0.326696213186 -1.04257769467 -1.17223375344 0.464369863547 -0.550551931708 0.316358321536 -0.885248686124 0.181062742771 1.30327803732 0.586165800393 -0.412413818216 0.257198970356 -0.24066517453 0.00788018469473 -0.325611052149 -0.164335205885 0.212093353074 -0.993358699582 -1.01587882699 27.0178688576
-1.38854255383 -1.6002711045 -1.21728269222 0.159462506804 -0.892787515492 0.513614464231 0.0347137487526 -1.96850421344 0.654975584222 0.810798645592 -0.993862674835 0.420191542895 -0.856498237409 0.0976703767483 -1.26449840695 -1.79310645253 -0.382817189613 -0.123728946275 -0.397679693615 -1.18403055822 -0.399899062131 0.269294752581 -0.0448930301225 0.182501030599 -0.670115200454 1.17171791472 -1.17617333655 0.487560297087 1.18189109296 0.480908092749 -0.202524227065 -0.528297046663 1.03608765105 -1.42297492526 -0.97012426038 -0.397557765492 1.23765375751 0.379767636041 -0.96804575851 -0.310307705385 -0.614323144096 -0.709788992234 0.978889558557 -1.37174312926 1.60878085573 0.828229690185 1.0908616706 -0.462939512025 -0.149940719079 -1.43315181452 -0.524662407067 0.493654847643 1.29606306178 -1.1071568168 -0.365505936985 -0.151299220233 -1.39578920219 0.591349241758 -0.723990331743 -0.195390351177 -0.451949371912 -0.78933850572 -0.00704498548055 -0.215609578568 -0.371857882279 -0.72846162168 0.319524670783 1.65361726849 0.139887232839 0.996118214911 -1.39022192515 0.157761439294 -1.09736831897 -1.47692492753 -0.739371407459 1.19189933441 0.95001582867 0.243004722054 -1.53270055989 -0.196280651388 0.301700008902 0.175536229579 -1.84379358348 -0.89031784802 -0.0640777641487 0.536290909517 -2.1961278211 -0.16212397548 0.143048769879 0.849611988516 0.692857584237 0.582571318809 -0.799940506702 -1.90800213712 -0.393052757061 1.00163182521 1.39345452752 0.710549102298 0.429340822802 0.379639648386 -21.9814143112
-0.556118746761 -0.130060293554 1.66906952583 -0.942558005792 1.61477879071 -0.322028154492 1.3254321091 -1.4068150095 0.585904201165 -0.736770135948 -1.41526719192 0.218534042411 1.0094717886 -0.844941438593 -1.49901596046 -0.091844764335 -0.0874353287772 0.548319627554 0.949594571364 -0.0594151812725 1.85550331479 0.224234744535 -0.346426506007 -1.6115673591 -0.262659520316 -0.336386945411 0.960304796281 0.462483624067 -1.17936912163 0.172254386411 0.671531171729 1.52803135939 0.887503967414 0.760846654311 0.0600859946152 0.388312005423 1.24950490071 -1.33277739748 -0.349439327217 -0.772568748756 0.379153118726 1.23022217565 -0.596974286721 -2.39030436747 -0.412220745024 0.913473732017 0.53762990295 0.428186247811 -0.279993301874 -1.27903073622 0.515294321624 -0.834281810035 2.18409673338 0.570507208355 -0.580648302554 -0.611385247389 -0.0929442066136 -0.239501922022 1.11683377553 0.186416169744 -0.731631738909 1.89044068516 0.0493083315202 0.768839675969 -0.608226507445 0.363115627745 0.311109991143 -1.8896492921 2.01527511046 1.29064446092 -0.397195316146 -1.10226974046 0.347561613804 0.0866976994144 0.355668948563 0.191577396194 0.506240989306 1.44730569939 0.568103205129 -1.04965549891 1.36256285271 1.64061456349 3.15205673451 -1.12349403324 0.24288201315 -2.08209870319 0.553149156379 -0.548200298167 1.92344579482 -0.774614970019 -1.68918303797 -0.471263740703 -1.97548777122 0.751099454507 -2.06508304626 0.0284575811832 -2.07781181986 -0.320297804537 1.6433781558 0.360647891436 3.42122124829
-0.863493604965 -0.0312034889391 0.0180168720444 0.472630345843 -1.36685836328 0.592567273847 -2.7043916316 -0.629884552364 -0.488273842452 0.633326826071 0.0226308526769 -1.40556305386 -0.984993125817 0.198680009547 -0.0790673418646 -0.579124109636 -0.480833789512 0.696167997159 -0.517692572869 -0.0880912440291 2.16993658808 -1.42368263688 -1.85184273157 0.783589664799 -0.678643061294 -0.318237527743 -0.781156378131 -0.259800140768 1.5985381121 0.802128458618 0.862223511887 -1.41622705579 -1.15115373655 -2.83907865949 -0.809380821083 0.956703186386 0.516946515748 -0.221513262952 -0.0223002837181 -0.688885542575 0.204758882402 0.765878279481 -1.61588678741 0.299647687837 0.932434870955 -0.415100288963 0.700700612121 2.81465444447 -0.104342792987 0.393307050005 -0.738057083661 0.181251162602 0.460271624982 0.19484234027 -1.01969531971 0.206361771325 1.46219593872 0.448635764515 0.961987189072 -0.237011970013 0.749900239424 0.279267838217 -0.950910729687 0.318521004799 -0.99169666344 -0.632880274885 0.189328307292 0.29724427338 -1.18923246508 1.05398577118 0.5720062783 -0.704728435611 -1.53758479645 -0.144904579081 -0.445943713861 0.113140457053 -0.363116661156 -2.00745686075 -0.388346938301 -0.305619111068 0.633661024774 -0.698199674611 1.67867467337 -1.91164055065 1.3111674978 -0.224318970878 0.859584872344 0.0798014840587 1.13955553603 -0.387361964553 -1.09862042518 1.42050428727 -0.113480645882 0.221558473624 1.23475191404 -1.03195524209 0.595490897639 -0.589894756463 -0.132169355644 0.0722789653843 -4.41343143388
-1.50022186145 -0.77883704282 1.35107289241 0.886191188585 -0.0626395773272 0.243123458513 -0.294242505636 1.35658338583 -0.200352577794 0.231842092135 1.14603014414 -0.777371484846 1.5587891845 -1.53046140974 1.62964213111 -0.372675583952 -0.242698747825 -1.89001017118 -0.454794717378 -1.03980653103 -0.607646345373 -0.137310965789 0.957791614473 0.207603351401 0.307676653401 -1.09551938885 -0.880754089603 1.79872501835 -0.735201034763 1.65620825206 -0.243061198881 0.0022879361435 1.07036516023 1.27189242194 -0.110812560279 -0.388243053522 -0.0559204485222 0.337957528232 0.89130368687 0.00422985899415 0.618886298023 1.63835973227 0.381309612265 0.311652856005 -1.51891082509 -2.63073013683 0.38837572923 -0.0948242312809 -0.514782674915 0.243530204186 -0.0604037291969 1.12778025063 0.086110868259 -0.74692328507 0.990166238959 -0.217131074946 0.526536683672 -0.477410706193 -0.649826885497 0.0841682301857 0.0128286435437 0.479827035367 -0.26864575331 -1.83635978377 -0.432773883588 0.793818467144 -0.297376079243 -0.246383402515 0.986376505906 -0.711973227259 -1.54280321824 -0.160631119525 -0.484173951249 -0.966246319753 -0.175378455899 0.491505647247 -0.00928856156782 0.306981072686 1.81340769852 -0.342878861558 0.278348634645 -0.509213362599 -0.846359719887 -0.584907653418 -0.478758571522 0.359475797547 2.3490757867 -0.716043436276 -0.416625305615 -0.0631230131112 0.39579884871 0.263550811955 1.28409579395 -2.42639207054 -2.3869298702 -0.49587817201 1.09730018754 -1.56564803161 -3.00763233969 0.571179406219 -6.67402370413
0.243657223703 -1.0902084068 -0.985539600721 -0.969743719635 0.110535317474 -0.626315276183 0.494063918976 -2.8546266629 -0.856851865128 -1.12605396091 -0.256340678372 -0.53804775849 0.797843779896 -1.85933677166 0.0454914763308 0.558336423212 1.85664743656 -0.481765971093 0.324458604353 -1.80386279256 -2.39195620431 0.844774375782 -0.00556029364807 1.1785126898 -1.37340288897 0.519902139529 1.86881784054 0.419705608357 0.276581505591 0.00855608082435 -1.57088145713 1.35557293571 -0.610857639805 0.504483256383 -1.56303430657 -1.17945966451 1.43508739922 -0.347302288958 1.45327547604 -0.0782306590585 -1.84189777296 0.892067599732 -0.589892317756 0.698688813517 0.0252108675401 -1.54311822794 0.164294765371 2.19622314215 0.492986458514 -0.0575177530055 1.07534340196 0.210668465203 0.209534230263 -1.09162517216 0.23384802579 1.03544341642 -0.8360621521 1.42449582125 -0.0917060241451 -0.887769511539 0.99763207692 -0.286794235738 0.759514887486 -0.291758632259 -0.0598261435299 0.493560204334 0.29089705759 -1.99553178045 -1.12124374009 0.929409984791 -0.132136588902 -0.523731302771 -1.35857401526 -1.07973632128 -2.02179863996 -0.101280718702 -0.598437580581 -0.966587890985 -0.068123425168 0.363970630853 2.09319793221 -1.51188341956 1.1593810433 0.973101561015 -0.779092739377 0.203235954586 -0.457633249338 0.185688580419 1.5091310134 0.605606232631 0.508608373233 -0.430309319955 -1.48405666492 -0.20846821054 1.20660815486 -1.52716785659 -1.05508936818 0.126267736234 -0.984654784847 -0.792523447115 -13.7547634739
-0.423598581728 -1.36561740419 -0.974121846216 0.703427916787 -1.30736978223 -1.59787213449 -0.630024979534 0.73195550251 -0.196921807997 -0.464581078116 0.0443587975156 -1.74570743286 0.494705653775 0.383435031404 -0.409308474096 1.0059245118 -1.12749609895 1.12790899325 0.154493665595 -0.336552589878 -0.0198736353683 -0.107264765811 1.22028289642 -1.07667912747 -0.762519239147 1.03630289207 -0.595534935184 0.900533077332 1.69943598301 -0.401795026942 0.681362326575 -1.15369228134 0.754733298068 0.199423985987 0.47303828216 -0.645572072035 -1.66108341557 0.50325206475 -2.06340315248 -0.317350492243 0.94118186642 0.191897735873 1.94834264479 1.02510915258 -0.653898388326 0.0273133798514 -0.0473707025444 -1.58217676335 -0.940398916484 -0.56076090698 -2.03622050286 0.0474934682516 -0.249071844653 -1.67289390131 0.404212865277 0.715872744691 0.227034478865 -0.324068175209 0.591442151752 0.680220360477 0.30740356972 -0.824612250435 0.276600765511 1.19548065083 -0.596629058612 2.09793933913 -0.525630933985 0.0324070133401 -0.672485596006 0.22327083592 -1.74222169264 -0.546041798817 -1.09212120035 0.135338347892 0.994447375509 0.646006187115 -2.37165936086 2.04206965293 0.295279940621 -0.776499140493 0.157127918991 0.176189822503 -0.666848716952 0.197916667342 -0.60747228762 -0.40436199269 -0.686279135755 -1.43267128974 0.145836470215 0.585299436516 0.514883596076 0.819925252635 0.324340210015 -0.532725498217 0.839663864431 -1.35751753984 -0.900671382512 -0.964200071423 1.08005605914 0.94278851414 -4.0397900354
0.487305237045 1.07192986521 -0.879282782412 0.348595119861 -0.125174428383 0.846882103885 -0.115224232552 -0.38494288841 0.540908518561 0.876169167191 -0.668345194847 -0.0610756713524 -1.05844063364 -2.49806101749 0.200459631414 0.608905356255 0.262066809087 -1.94956171775 -0.350849430076 -2.21834776005 1.36970110765 -1.08605458212 1.25540360946 0.945869643684 -0.900590352536 -1.13278495127 0.350370216386 -0.844324037183 0.102484642158 -0.482827590807 -1.78115841447 -2.23046801912 0.226684248495 -0.561557746331 -0.553089816914 0.695863839094 1.17344227663 -0.272544721362 -0.34059870691 0.500143033114 -1.3569355697 0.223153054748 0.551885971822 0.680230208418 -1.9367527025 -0.761355269809 -0.878263252823 0.0998869544092 0.480744579768 1.49671040745 -0.494965480368 -0.497572498309 1.14967201888 0.29657693853 1.26765151119 0.28872800301 -1.15711661871 -1.33312835478 -1.55151224906 0.662051834758 1.18859682309 1.84936214139 0.843105332323 1.16283857753 -0.580016332654 -1.15641581674 0.850079332418 0.417680752239 0.107444374341 0.387371480633 0.323185482458 1.28381685985 1.29498558482 0.54422035234 0.845802872563 0.514062552425 -0.461169732035 0.756564674913 -1.39449506886 1.0538915523 -1.19452293977 0.285803286795 -0.845153958426 0.553388983074 -0.0339252259279 -1.59475595816 0.420699631018 -0.577920776833 0.881146720813 0.00132568873441 0.395420985388 -0.957568955015 -0.589332231427 -0.458638636101 0.856702480243 1.67737708781 -0.805171751743 1.07684814466 -2.16967741773 -1.19418940109 2.58426577851
-0.958778456187 -1.35250868944 -1.58358838979 0.412998912138 -0.214067697728 0.379405397605 0.690472686122 0.265616993173 0.65776317615 -0.0695322862423 -1.18699338831 1.05781418082 -0.589112132781 -0.935596298762 -0.177917875804 -0.912810919297 -0.417430381989 0.344053921563 0.348341739246 -0.897830066426 -0.487705372949 1.07433300477 0.496400117734 2.07506503935 1.18012817374 1.14429306856 -1.38786855046 0.763860351633 -0.0531068016969 -0.550981803538 0.168015340533 0.945211534611 0.500831591004 -0.878473801342 0.742458913593 -0.637587542076 0.216683118964 -0.303350067477 -0.218866251736 0.766242975041 -1.04019371982 1.94519507428 -1.82108606929 -0.597667683255 0.370211889942 0.584314166435 -0.100475720572 -0.0573907030015 0.410550085328 -0.231069477458 1.39318125793 0.839349114232 0.872824351006 -0.96615672337 -0.0793884244057 -0.300465948721 -1.00560137569 0.360164183946 -0.53764575778 0.65540382985 -1.07019156289 1.71904061284 -0.896332658592 0.2193023372 0.791859310388 -0.5706404302 0.852468643433 -1.2291835978 1.45211769918 0.0141492649658 -0.596411407969 -0.299181772427 0.808919269393 -0.58445529185 -0.749357689423 -0.221536597584 -1.17696211277 1.82054390794 -0.566394591215 0.83161678618 0.209470083648 -0.984534050482 -0.00595470921273 0.784002779311 -0.188261335086 1.19311294585 1.02151539278 0.918914854658 -0.459656772273 -1.07984244778 -0.613587605363 0.196240940667 0.545786713532 -2.17157140476 -0.00811320161175 0.158089225323 -0.277544256316 1.29127383902 0.421780074251 1.31019190808 -17.3979324142
-0.21596052035 0.937477492507 1.63506639453 1.31169344927 -1.09214159343 -0.253676077542 -0.34516470545 0.489254535076 0.686353555015 -0.838892674026 0.0678385139169 -2.01992733216 1.4419450058 -0.512374240677 0.0558639398445 -0.309649713988 1.14602757501 -2.8375064414 -0.0166103423259 -0.105818757498 -0.453636387592 1.72622654564 -0.887329458856 0.771796177236 0.356252788706 1.26151925254 -0.667189084778 -0.732968899124 1.09606990748 0.42532130833 -1.54493734668 -0.539305014463 0.386382653848 0.837764221547 -0.679230653193 -2.91425598982 0.523223185737 -1.22032068994 -2.01733879812 -2.83232592498 0.813980860198 0.128617450405 -0.225656380712 1.38902436296 0.637324683023 1.61630004272 -1.39273547217 -0.034550623954 -1.61671337495 -0.229382331855 -0.248615853767 0.626613637263 0.0455638811419 0.62340713828 0.703440133139 2.15492867738 -0.315296655286 -0.941022700666 0.246083615316 -0.80228002714 1.48196076844 -0.283218038945 -0.565576367874 -0.471315721151 0.718417423472 -0.157746983231 -0.64166682013 1.66535191762 -0.856169840662 0.035566074033 0.65230615161 -1.63133511042 0.480260501406 -1.05510767548 0.822782780834 -0.962651011919 0.692769031849 1.10583306629 0.861436525633 0.251316648238 -0.23130094293 -0.576419576335 1.47103469082 -0.699495220168 -1.03706607357 0.665368935033 -0.796136803186 -0.950063497466 -1.44360426217 -0.482909839461 -0.0827150238965 0.243091727661 0.951306244299 0.526897923666 -0.190872219553 -0.19819567638 0.510157468915 1.27257016293 0.126314199483 -0.46913085421 -0.348179765045
-0.992866001086 -1.44520526441 0.666269672044 0.57797852364 0.577363525107 -0.128659446352 1.40693474589 -0.484118494585 0.955269237207 -0.0387428949895 -0.608350764679 0.592530307318 0.409636118684 0.356972759267 0.0812784220562 -0.0378930817168 2.38837199287 1.1842566452 0.722826894986 0.111799158203 1.0071572006 0.517994776391 0.026204752774 -0.303564325266 -0.0809173376627 -3.17042573588 0.210600839298 -0.48847608011 1.59266999828 0.0193440708118 -1.18896341953 -0.0498801541281 -1.04612108506 0.473407415712 0.290947364339 0.957839631108 -0.790881791695 0.0340080962281 -1.36502179543 0.701494781925 0.51887118044 0.495805021028 0.00161903135694 0.414772890789 1.60433910831 -0.285094257042 0.13864518371 -1.08612629918 -0.868260961598 0.0978132930933 1.1039335467 -0.256280824252 -0.235916529312 -0.406885244504 -0.534756670844 0.294971455709 -1.49725764518 1.28093957667 -0.665422298129 0.721903485438 -1.26999859739 0.668840130546 0.671944607814 0.384202072006 -0.9944285218 0.249548189598 -1.18305618473 -0.252763255096 1.02941310096 0.796701927071 0.0151829425404 -0.974806575923 0.645587712174 0.019381237698 -2.32031559823 0.782629826317 -0.0242328338697 1.20245124798 -1.09527051884 -3.1767038132 0.279083858345 0.291563676682 -1.69067162761 -0.978499545867 2.75521774372 -0.305610614154 0.730958976376 -0.650659827368 -2.09030289885 -0.170258246796 -0.265604560286 -0.399878238668 -0.114640835506 0.264268271646 -0.150116951254 -1.26400616795 0.486184791562 -1.94937175532 -2.05035745728 0.739180494702 -14.8910330876
0.507020272135 -0.057395365074 -1.39544850476 -0.707910940674 -0.262746747687 -1.59589396857 -0.739028658023 0.652330338177 1.42730536429 -0.419434752659 0.756488354316 -1.91406007059 0.659451241114 -0.803948414727 0.307345616708 -0.24775241824 1.32041400978 -0.87443564834 0.627606297562 -0.279507463297 -0.15830547801 -0.183853893159 -0.845673104494 -0.0140989659067 -0.0626482221218 0.241240248407 0.0845051456929 0.797994549612 0.923508616047 -1.05062332183 0.868772500591 -1.18633642711 0.587855888138 0.619738784703 -1.91131689166 0.0929792465294 -0.46849611336 -0.758765257935 1.3508523307 -0.653679140637 -0.806376929118 0.0756949400051 0.685589746298 -0.14164858601 1.16637054567 0.530975661964 -2.17821131973 -0.529466963507 -0.561842099352 0.479360953429 -2.62481705637 2.54900970872 0.531026094894 0.148876803918 1.18156771642 2.34365405281 0.870746644588 0.948813096472 0.130690024464 -0.141525753367 -0.475795444005 -0.826111991715 -0.687014099699 -1.35055596434 -0.075871450685 -1.68466757723 0.190916524144 -0.0363306080423 0.146935298387 -0.52213157002 3.07686037018 1.36011590018 -1.24454250008 0.232868087427 -0.608006142937 -1.01447972671 -1.34007207112 0.432216690759 -0.68138023507 0.967826024025 0.99378221453 1.37391438521 -0.852386766074 0.475365610692 0.632454216642 -0.474178175104 -0.771771957393 1.60952066578 0.227495875732 0.635967750712 -0.822076011828 -1.21928446652 -0.569449774492 -0.12402138739 -1.06422000682 -0.00984480865038 -1.68850518807 -1.12004742247 0.670911248277 0.603790520278 19.6873707837
-0.391876765387 -1.01776430908 -1.02740355153 -0.373268245941 0.644518491645 0.928245691344 -0.496531735482 -1.15349242598 0.267843637866 -0.823534970626 -0.518252638861 1.32527609044 0.827115428566 0.157974312251 -1.27191900111 0.211396567471 1.06265729079 -0.375633665766 1.35111408999 1.29274528952 1.66373283214 0.305243126531 0.587391699806 1.41418728833 0.447393937069 -0.50123410779 -0.448542836528 0.238554953774 -1.29056142195 -0.143258915364 1.09654711823 -2.19125385117 1.53448210179 1.1223742187 -0.45976461583 0.543390827872 0.00314772690633 1.22999036844 0.98268314277 -1.40007072318 0.587262413464 -0.205627853643 0.0828325705181 -0.72817190097 1.74813706912 1.0400618199 -0.739771163973 -1.33461060691 -0.385672630978 0.434502646091 0.240205843946 1.25313282477 0.789919722181 0.969569025753 0.32685540061 -1.38929873021 -0.195698531147 1.06008973991 -0.0515229285246 0.503090368624 -0.318748315246 -1.02981184854 -0.123344064046 0.309047443033 -0.655687719461 -0.235711244857 -0.939463241986 1.11924491756 -0.294455757588 1.45275554513 1.52874785054 -0.0810459647217 -1.00844873255 -2.08589787773 -1.47203707303 -1.3738348249 1.37846962746 0.115824587227 0.389604524092 -2.22042100894 -1.19796642922 0.887079776446 0.286774112383 -0.147205278686 0.5648423586 1.63579780614 -0.221042463537 0.0693698026581 0.192596918731 2.39210963527 -2.09935626442 0.683223014789 -0.114802248759 0.566771726184 -0.657372553995 -0.0489650308585 0.711410579465 3.11291020104 0.808036189402 -0.848065598031 -17.0795758365
-0.423759682023 -0.453414108384 -1.79564317263 -0.330090191701 0.732829081822 -1.27423211908 1.04848265105 0.487774821084 -0.734233321971 -0.141529637338 1.59832180764 0.733547813506 0.00878365489815 -0.237683316961 0.0766090704517 -0.511763557942 -2.10474950572 2.04217791053 0.155324999199 0.398147265123 -0.0579077498769 -0.735116800725 -0.185924480949 -1.59939476219 2.27708649805 -1.23451199842 -1.03196628385 -0.440259204386 1.28807572485 0.0145089992627 -1.23613579603 1.25433836076 0.731000626785 0.538434957216 0.715734241171 2.39436190058 2.18509489504 -0.686715343003 1.62388499281 0.383168189759 0.499095816138 -1.69227083164 -0.170385765388 -0.812823590337 0.828058814893 1.0710805004 -2.07448635102 -0.0220348640043 1.12186150479 -0.186678962313 0.729063645002 0.351165467627 0.341660231953 -0.271314978068 -1.21658080414 -1.12153014743 0.709352514455 0.0194582555189 -0.138512244607 -0.423890042322 -0.305188845481 1.04691179449 -0.335244081868 -1.3410647133 0.74365177554 -0.204876663865 0.0313958655328 1.6075783064 -0.0205605573505 0.289183673119 -1.1789234913 -0.219669452351 0.609526045209 -1.55537373384 0.200845093116 0.100791072645 0.0412874555874 1.03715889866 0.334438514849 1.47807189836 -0.993589515594 0.135924567218 0.0844667863899 -1.06925449376 0.956295002091 2.32467330585 -0.0170060744838 0.505021088274 0.0845184758153 -0.713584669907 -1.8207602778 -0.705773483095 -1.39195838095 1.70410207806 -0.115109693923 -0.345919329047 0.889153824788 -1.12175110286 -0.766864038005 0.0680722692486 3.76028120317
1.02876899142 0.501685045169 0.248325142516 0.078117735236 0.400235855527 0.201652905129 -1.02997227478 0.0460792216332 -1.07368865892 0.0810825429008 -0.480647941488 2.53938162278 -0.0398943837517 -1.40423956626 -0.134180210677 0.519358745638 1.67336394615 -0.589452399939 -1.58242797402 0.816837011431 -1.3805987059 -0.436155441507 -0.257620485511 -0.0696334533001 0.689164457074 -0.683634282286 -0.273729252167 -0.0142703529494 0.149597957519 0.0978271747079 0.436005775223 0.843839509642 0.392634115651 0.453585523509 -1.58222316675 0.0502276991657 0.479507548002 0.72894119457 -0.692350774234 -0.659039274889 -0.574100675284 0.536413899891 1.03388105492 -0.407460107292 0.907962313627 0.123479809165 -0.124285777162 -0.211384229818 0.746611364602 0.325577816787 2.27582542765 -0.852224642997 0.51810170203 -0.529201009812 -0.869286986989 -0.010867137035 0.137352479407 2.91817355506 -0.184145815683 -1.13017872948 0.273010717494 -2.07464003755 -0.0919567826043 0.0160252822952 0.794600382945 0.973622249428 -0.503569618908 -0.15061401463 -0.766120830611 -1.12806255481 0.309894779381 -1.2735855486 -0.414626900572 -0.995173959899 0.54968318629 1.80143009927 -1.3015879828 -1.8530184829 -0.12488688535 0.0156977959578 0.218659306757 -0.446320515234 -0.200639298825 0.367510410541 1.04043089264 -1.95504877032 -0.368939439031 0.213808793941 -0.917976104611 1.73116963177 -0.635409880229 -0.0412926870073 0.556022096842 -0.591284788802 -1.8465730478 -0.428654526917 1.02944055593 -0.336895126785 -0.846434301459 0.925672209503 8.14786659438
-0.330774896023 -0.51016081365 0.149456089663 0.770750209619 2.38171353173 0.827236107657 1.15983996639 -0.505966198988 -1.02586810597 0.0623313496191 0.10716991526 -1.07851274136 -0.175294529904 0.399317601719 0.360393395018 0.504287853384 0.290964730137 -0.50700865927 -0.513900626649 -1.19895139799 1.78477503919 0.0134503646193 -0.224853055795 -0.928792081452 2.93565790233 -1.07332803222 -0.428847925606 0.415836836286 0.600212965744 0.957932055216 1.80760850777 0.506157655461 -1.05603079997 -0.256945125122 0.307832372514 2.06822604151 -1.39780547842 1.20257650523 0.179914369546 0.837830535229 -0.101994716636 -0.842432630126 0.750872779401 0.654431027106 0.97205696574 -0.0133046353786 -0.59982202332 -1.55878699502 0.819373268139 0.423889482444 -0.965782632864 -0.538573673297 -0.466758811951 -1.48298443198 -0.817682396605 -1.13383035681 -0.412479011888 -0.73869749833 -1.62700492087 2.02259023057 1.25254073103 -0.77901942152 0.272421396654 0.417465089821 1.19108585477 -0.81860502666 1.09210678398 -0.547905304207 -1.33586240417 0.724136559314 1.29075842412 2.58790897353 -1.19972526509 0.698919685081 -0.409801243794 0.783358710524 -1.47048955123 -1.2627697757 -0.775874823166 0.0789640456681 -0.641081266538 0.659054343913 1.02689461826 0.599577541245 1.61878763966 0.415826629455 -1.21689671034 1.36337651354 -0.605156235606 0.910418499686 1.57373421656 0.45668801073 -1.49615881316 -0.91821216651 1.32274446689 -0.169122685643 0.0795735349422 0.758824416164 0.69632286208 0.278799812385 -19.2092267071
-0.20866837122 -0.312668445732 0.857898825291 0.553569531068 -0.257300000618 1.08211231299 -0.12903411513 -0.851662174334 -0.758970698903 -0.97874083631 -0.272410016604 1.23372427834 -0.805095181031 0.188475761018 -0.656689345627 -0.260309041271 -1.51004121199 -0.220538229157 -0.193705379805 0.540287944036 0.223280913255 -1.19839212495 1.08419824404 0.210303040222 0.198393517177 -0.00918235338514 -0.517757447222 0.217802339749 0.475588435929 -1.74689569135 -0.538760837346 -0.254946970404 0.256170605694 1.19331100593 -0.771740814597 -0.497961846818 -0.512534110647 -0.801527590105 -0.347186495112 0.770802219988 -1.05383549536 0.427814395153 -1.70190223002 -0.561337996442 -0.329489300218 1.67485967291 -0.274802304753 -2.20124347345 -1.99888890686 0.0340295863467 0.61377085579 0.375455857627 0.167570105801 1.16225959751 -0.539591220737 0.894910556027 -1.63201488503 -0.904947832938 -1.80704139493 -0.27484530067 -0.0462612172663 0.114101492227 0.0618833528871 -0.927553330812 -0.190240844413 -1.49744666861 1.36322897513 -0.303626072898 -0.488886119044 1.58894032844 -1.24224653355 -1.12558711403 -1.09622032487 -0.0678713816995 0.431631629638 0.739675468118 2.57199531749 -2.2494324542 0.608735589124 -0.557130572572 -0.586415148889 -0.619772128254 -0.908769670808 1.6845248346 0.842297327014 0.0231959785574 1.35101575249 -1.5125289653 -1.33070513133 -2.17796773219 -0.699414540123 0.161698526705 0.102858577932 0.14934191106 -1.41105683107 0.803154742614 0.239627518239 0.733054281466 -1.89276217759 0.311490858798 -20.3741172216
-1.18776523992 -0.397323252551 0.534364898636 0.0910936062559 -0.851539979779 0.00627315618442 -1.53153531524 1.1502673959 -0.205284019496 1.11854994426 -0.526531687096 -0.523575988407 -0.764186786638 0.876173931693 -0.709431157328 0.644595432415 -0.382452397669 -1.97596329989 -0.570314067786 -1.17910821436 0.0339027236823 -1.19040773567 0.925975100715 -0.091075860353 -0.177595994759 0.655892137788 0.963906934076 -0.0200987517697 -0.771200299549 -1.77396961611 -0.686049757035 -0.617212246648 0.107057452992 -0.345146881138 0.687932972051 -0.612983271271 -0.0570411668529 1.1839874432 0.341825213955 -0.0600375416886 -0.601944441935 -0.633231396715 -0.850613252952 -0.541006865783 0.755665838744 -0.221888271292 -1.34977306938 1.76816929306 0.319965191145 -1.40694340051 -0.441848927241 0.110886382828 1.7045920933 -1.10811245826 0.976040719356 1.39948642697 -0.628654305075 -0.27751361886 -1.03630924737 -0.20346114108 -0.0365899743429 0.659649998082 1.09018347102 -0.748096064622 -1.96732506423 -0.0212447792762 0.293537529969 0.249417687685 -0.326673247509 0.124752099664 1.51544480835 0.381734168963 -0.373368425003 -0.500197817096 -0.169852357678 1.63673996183 -0.183300709526 -0.0197943445207 -0.482313570936 1.09898335744 1.95983725474 0.450613049431 0.0827729037854 0.0367828331742 -2.38430678879 0.745150864285 0.134166415996 0.428342050661 -0.711462194084 -0.384456878977 -0.411024936503 1.02162298407 -0.378759836603 2.08266032211 0.430862419015 -1.27568266 -0.128546293252 -0.651675122156 -2.19438246982 1.59947094011 11.147061199
0.70314254222 0.533207317899 0.1654036603 -1.38201756869 -0.483617139555 0.841780774784 -1.05122002978 -2.53176931625 -0.227106007781 -0.141757554028 0.135563416415 0.728518643515 0.637605812231 0.258769805244 1.19553138809 -1.51896978081 0.504581814477 0.626538363337 -1.23956228608 -1.50287060868 -0.745942126476 -0.661541442515 0.753419463502 -0.614538783691 -0.856348518281 -0.611633736695 1.11863233415 0.013043374377 -0.179251025357 -0.110005498701 1.29206033433 -0.749171726603 1.31550829094 0.210496298922 -0.160419381975 2.50090049793 -1.0556394898 -0.353685759567 -1.23243123916 0.952461970536 1.68918893365 1.6699227814 1.22394875315 -0.197620467796 -0.36524097749 -1.67116977249 2.03587353518 0.468978078148 -0.491956904869 1.32805688899 -0.97276451676 0.406622034223 -0.172629134291 0.63867713988 -0.0635735391861 -1.45092789111 0.07557637267 1.04886414188 -0.029216405854 0.775115121589 -1.04552948567 -0.0262607932699 -0.624510455089 0.746980840105 0.031491562262 0.690073676337 1.08771042616 0.691618575121 0.273118434294 -0.998212258511 -0.0027861106669 -0.533090402016 -0.344063956704 -0.37453415075 -0.979925574782 -1.95733858913 -0.668143048328 0.193379451924 -1.34817704543 0.0156822364716 1.90026842431 1.02305655525 1.64354150912 0.391127876933 1.16750982299 -0.723964730468 -0.644340267022 -2.73914020614 1.18614547404 1.54032397982 -0.553177245347 -0.253951706397 -0.753862113691 0.382653551477 1.1249325453 -1.74277197388 0.409438530642 -0.276671771719 0.113394391967 0.458994001674 5.031367273
-0.188202438773 -0.103586853406 -0.213875167555 0.970316201788 0.418759960127 0.220583537737 -1.27095172109 -0.378579743213 0.898669160339 0.0376965731239 0.659531469589 1.76651180033 1.03860606921 0.0931583376997 -0.510989170196 -2.55354959606 -0.168384922473 -0.326012495817 0.390366194395 -0.153905226975 -0.320385059437 -1.77939893051 -0.93996782915 0.476651040801 1.71590763113 -0.0975253837456 0.327811073574 0.952478156953 -0.8108939362 0.366814043285 -0.740490106332 0.864824438491 0.151403047952 0.298451813981 -0.782598597419 0.707032359611 2.08471292123 -1.00791169543 -0.339759007648 0.231607474168 0.786406211996 -0.559546285289 -2.83303029014 1.35918949416 0.760506119584 -1.74294753049 -0.60756879178 1.56818242953 1.44779641846 0.938640022679 -0.17611243396 0.0829874188125 -0.130925805126 1.12823978327 -0.875842406495 -0.805799654884 1.01027458684 -0.0443614555116 1.37846735545 -0.671512206981 -0.0547783603388 -0.922412984844 0.00736268142357 -1.478546937 -0.487633420955 -1.43625386493 0.693923233191 0.71658933976 -1.73026273048 1.3338857455 2.49741512642 0.0460063867363 -0.641114260225 2.824330591 -1.3189684983 0.0201064668691 0.179622272632 1.34514762045 0.359738975127 -0.498633895788 -0.951184370388 -0.341821820246 -1.00692736095 0.0478253197847 -0.56419617986 -1.49403779329 1.25514578837 -0.497672523429 -1.26813680498 -0.168259134488 0.0683715659677 -1.74646672558 0.331647667126 -1.04715756869 1.71102880919 0.523960512077 -0.399899990109 -0.745167770317 -0.104967707564 0.612790741583 -9.71033545703
-0.0254941285852 -0.217158807137 0.0583702908179 -0.603858931237 -0.343205926843 -2.08579243891 0.973726230852 0.298797780322 -0.773455844033 1.89873498136 0.0870164803924 -1.03614357198 0.85673742147 0.398048216509 0.394579985484 -0.425755604652 0.450495723778 -0.261758290221 0.555941451646 -1.90494445401 -0.433873462979 1.72215509781 -0.7670674554 -0.603838297493 -0.44796133845 -1.21480613589 -2.20828077623 -0.230586398524 0.135859424082 -0.0525050685387 -0.144878561948 0.0430408708504 1.02284147155 -0.190446185929 -0.574082577087 -0.281125484888 0.579346759757 1.41202687854 -0.628143739169 0.0989337870289 0.338357441936 -0.992578006729 0.0204171672129 -1.46567385734 -1.76905030374 0.366746407892 -0.383874741331 0.202280407621 -0.0178949770084 -0.976400048664 -0.0452543019643 -1.23310130501 1.390972358 -1.35597034486 -0.195785270969 -1.04227158805 0.570421173361 -0.331431371282 -0.518666719621 0.853201545052 0.0294305916776 0.516644445936 -0.981325936517 -1.40481694393 0.10720796204 -0.318846355495 0.626434672454 -0.0799084526625 0.205075339235 -1.62338252994 1.88843693961 -0.164241985032 0.697586970339 -0.83609167022 0.308009902217 -1.30284476352 0.45206783826 -0.355974084386 0.0291905039356 0.69797403013 -1.23254031122 -0.684491730613 0.457324281087 2.09822147455 -0.138082334661 0.591136117924 -0.106971469858 1.94224559476 -1.74722166697 0.0946210446694 -1.62554403356 -2.50657157054 0.297462053118 0.139497796147 -0.284836937742 -0.10619409004 3.09829943407 -0.258175138031 0.51012436125 -0.649364819614 30.8376330957
0.295232575041 -0.238233675056 -0.41051848273 1.8188985322 1.17718496318 0.136746647399 -2.30421193594 -0.361009223253 2.70302756441 -0.23066166664 1.10321757205 1.44194240195 0.218963915856 -0.841821631868 -2.43531233178 0.684163208609 -0.814756002824 0.176150451888 -1.24982033959 -0.26523754047 0.0337190549011 0.268593581044 -1.11482218735 1.19691094876 -0.596894784732 -1.67446946045 -0.109023419963 0.0343753090265 0.160589433172 1.36213240369 -0.236448836736 -0.119619624369 -1.10318438123 0.820553502888 0.184309064078 -0.420027727294 -1.90467469347 1.44441219506 -1.22767996446 -0.59127800937 0.358344511076 -1.19655792862 -1.49350977825 -2.1239475827 0.720996952906 -0.545186244726 2.92727009247 -0.994355065631 -0.921451023429 -0.565392970285 0.243134655138 -0.470203338785 0.612332214003 -0.978588389989 -1.38159171846 -1.79821473941 -2.22357416794 -0.518069019475 -0.300980312393 -0.631437027483 1.24340579719 1.22803020961 -0.334802987445 -1.79392111319 -0.566705108055 -0.599821393917 -0.657134962278 -0.697718903898 -0.653462895725 -0.386541615898 -0.635541098816 0.208322508626 0.360368715905 -0.910645087182 1.27106532601 -0.980062301841 -1.61780061382 0.380778071365 -0.817408134414 0.321291470757 -2.4036686011 1.39245594148 0.67229340804 -1.50047654916 -1.47877712385 1.6722659041 -0.737379903498 -0.834184848733 -2.26605209415 -0.350778205602 -0.227719614836 0.715493096769 -1.39907842818 -1.52028679224 0.450962634776 1.00673007123 -1.57115235112 1.0815140863 0.0375418414868 1.09180533907 -12.6863885165
-0.0702203615176 -2.52227791749 -0.151967382316 1.06014381867 -0.893746019084 -0.387964968907 -0.176133503551 -2.89951387987 1.67134757544 -0.901375679897 0.505735432473 -0.0867011361482 1.25761905636 0.406056122428 -0.234924271521 -0.893515092519 0.797850701382 -1.87344130395 0.645890420276 -1.09904475155 1.25228366196 0.161299542663 0.64412376785 0.0819888138247 -1.75237709514 -0.860729163395 0.672389337611 0.16665581736 1.18098990531 0.403274563037 -0.966701890703 -0.796064137721 0.102917390523 -2.314044066 1.67344188562 0.441746736378 1.22703459705 -1.58060394081 1.24456516036 2.23149891103 -1.32087835538 0.771401794904 0.00110994468729 -1.54443384825 0.492883971852 0.833603204837 -0.601126552669 1.16591652026 -1.66676340679 -1.49475614645 0.136597395589 0.0253852779723 -0.716573488424 0.809594435972 0.530894314216 0.858139070934 -0.123136435352 0.602580267978 -0.44565030303 2.05381869009 -0.812545770122 2.10529742946 0.0348879470894 -1.37551088957 1.36807935049 0.125901388395 0.85112409838 1.22385591854 0.337955554145 -0.592240844813 0.975713377669 0.000755507454596 0.685857818608 -2.15373057379 0.44698171701 -0.638585825145 1.65330963718 0.623087347889 0.239857745849 0.48630999335 -0.998440852877 1.62325669053 1.99137041842 0.392913510548 1.59040356857 -0.569148198673 -0.797113566225 0.0409247487289 0.434941038368 -0.393986681243 0.537768190368 0.306389482073 -0.998306775291 0.518793017452 0.863528242522 0.17146931759 1.15264810326 -1.2174037935 0.467950422132 -1.1702807064 -34.4737683985
-1.11408135823 -0.630930833738 -0.942060183574 -0.547995818741 -0.214150310711 0.837154486331 -0.321159038706 -1.58562570677 1.1400678465 -0.837090133615 -0.0587204271046 0.446536506941 0.199610418403 1.09417954752 0.479003143393 -0.861309579697 2.17856217399 0.194333463338 -0.147340226622 0.963925423056 0.24945094593 0.399228192939 2.4921839986 -0.275121428255 -0.317760894017 0.116578512012 1.07151593558 -1.50653403019 -1.96555589148 -0.58711527062 -1.63392295906 -0.424831347526 0.502499696129 -0.890748863552 -1.42682657678 0.0693371617153 0.862543484615 -1.69497343852 0.820232398306 0.817306203738 0.954085102157 1.21848021487 2.20201392466 -0.356092048619 0.109571580078 -0.416438433248 0.00197684475581 1.53287335564 -1.34501448393 -0.861049672166 1.3771809365 1.0200365069 -0.363131646817 0.854402001121 0.341215842492 1.500274609 0.0745095938268 1.02563211387 2.64201191049 0.598099155047 0.0493281657948 0.722446985221 -0.365280858204 2.38796770552 0.180071037696 -0.272933320226 -0.83568900502 1.09722019161 0.867187412828 -0.497354371414 0.576451345122 -1.50855596821 0.184970575073 0.452756352077 1.70732980956 -0.770818802729 -1.2783526288 -0.895427960925 -1.33656850031 1.33665735776 1.54863929502 0.320216577949 1.22129494569 0.13395838058 -0.0951116477008 -0.333037619054 -0.310390991378 -1.54780155631 0.264254763607 -0.040333910214 0.745360724078 0.0935234964386 -0.162703701569 -0.871193030008 0.0721532368218 0.738237230816 -1.14333899108 0.0874737536807 0.233042951529 -0.718064783618 -15.9346268159
-0.587856304908 0.230610848766 -1.13342101829 0.349923715249 -0.895354373659 1.06285369303 2.33782774539 -0.860756801702 0.534207862375 -0.726741904882 1.0409541738 -1.26525840909 0.480586758428 -0.872988966889 -0.206984589098 -1.03102527515 0.822350470896 -0.83698035444 0.551964259332 -0.344098028262 -0.114472371799 0.1477559074 -0.761824671659 0.210367113541 1.53033456435 -0.778094785833 1.17181014327 1.49809763349 -0.816154989028 -1.45505460509 0.301960900172 -0.547407522767 1.86860321916 0.0348075404998 -0.802199408035 -1.14715951101 1.08990495909 -0.571183974084 0.0438287994604 0.955802745112 -0.484258351931 -0.0459288287402 -0.0165684098225 0.683324511516 0.59074433551 -0.220113731255 0.0636490614965 -0.371779011523 -1.47761240692 0.257600857398 1.89219176083 -0.883719140691 -0.773029709603 -0.870727771644 0.724591778723 0.448485454196 -0.158537692416 -0.918019061639 0.0923767916399 -1.56462212734 0.143426566857 0.871524386088 -1.25119913663 -1.53251827683 1.57943789169 -0.611759639505 1.13594784594 -0.153997665198 -0.161954816941 0.438412699497 -0.883998856746 0.132497143496 -0.381489414824 -1.32049344341 0.337482074726 -0.263307806878 -0.157024828445 -1.21016094341 1.59140036776 0.876714186386 0.964155884172 -0.305444702442 -1.7291828895 1.95291738249 -0.0610975080059 -0.74879979602 0.416801574483 1.167120788 -0.0230505560855 1.27857516794 1.08299993852 -1.0763811874 -0.673790105659 0.95753716328 -2.71261256381 -0.149455693165 -1.43083120162 -0.476553801434 -0.298820089029 -0.358244377908 -20.1461400656
-0.552261252113 -1.09714364963 2.29191126682 1.86746200416 -1.16206582026 1.5821167513 -0.399465490473 0.129187473332 -0.0632739598969 -0.659748641254 0.983852343606 0.125886530577 -0.476551423219 -1.3045894438 -0.893595013719 -1.6413801156 0.0122235484152 -1.19666559228 -0.265560512519 1.37010185361 1.19929957292 -0.0322768941026 -0.0870847261431 1.87987454942 0.520756120359 -0.327806459877 -1.42601811712 0.393873218165 0.829323772583 -0.631651524514 0.291202755138 -0.363573294915 -0.184032399199 -2.48782205756 -0.221781403716 0.969369302408 -0.631402555567 0.0525263682153 -0.755950706692 0.360441676293 -0.216523197536 -0.939241540682 1.33255146767 0.928932013532 -0.604906763928 0.497788309418 0.53741200282 0.642301235011 -1.694255896 1.00660654103 -0.569698962926 -0.357827933441 2.63788175226 0.301873380721 -0.386322475447 -2.20529437276 1.38976413395 -1.34520967081 -1.0034389035 -0.331352299088 1.4164117917 0.773239986666 -0.15783750984 0.308292063639 -0.600385692871 0.139653689565 0.0733367447781 0.968769895681 0.967178122439 0.493977382206 -0.362347557546 0.74182229439 -0.091968466203 -1.08191436871 -0.403287791911 0.0845269837843 0.910215783665 -0.183528172157 -1.20919871124 0.0567416832968 0.113456040057 0.185837628903 0.919871515954 1.01892324009 -0.594210872382 -0.616143458049 -1.04019871096 0.69881567028 1.44882010834 -0.315081927909 -0.241430564725 1.4667825569 0.505557853215 0.436235704801 -1.19091650597 0.678728069279 -0.92913634051 -1.13402018593 -0.346771576767 -0.585792723449 -30.107879271
-0.221599694385 -1.44098163452 0.958816306468 1.12768629452 -1.94734247414 0.978457805667 -0.810528629822 0.856975536983 -0.0684464926664 0.028775564081 -0.185097649421 1.21212920423 -1.23958801253 0.607840338735 1.10133016489 0.71634008054 2.32469891432 -0.528946762725 0.957304822594 -0.106090635341 1.23340607635 -0.00768899572137 -0.387875781862 1.30607220387 -0.491561939019 -1.4127257589 -0.516846883174 0.619032946589 1.39203875159 0.111129375297 1.31819706723 -1.35817492148 -0.443263464818 -0.288575117154 -0.114559427473 0.0840943882502 0.690910957392 -0.44480683817 0.139028686953 -0.0451228903241 -0.925889903891 -0.113666689081 -0.143659529897 -0.165080565003 0.0317594565815 0.0756735406134 -0.432295179107 1.27271473397 -1.1694806292 -0.72097010847 2.77996362422 -1.03799135499 -1.35375467471 0.734476745001 -2.07711985377 -0.235273909972 2.14582492508 -1.54493592215 -1.98196448574 -1.49918120196 0.898359568347 1.12477671999 -0.512588796979 0.683212404001 1.39025532751 1.78734641443 -0.24633528118 -2.30147171767 -0.82087892241 -0.426804194935 -0.258938796578 -0.187859401009 1.11889459793 1.27442842669 -0.171673653925 1.09848487605 0.357661366631 0.0645059728626 0.90654415711 0.0722520482379 2.0578111771 -1.43841116679 -0.515170899092 -0.126518896954 0.439452690458 1.2679604871 -0.0243985672362 -1.42222964951 0.842513896455 0.754958766142 -1.94185865938 -0.0038041336708 -1.59014183068 -0.664651097502 -0.902808926963 0.809264698242 0.116830174172 -1.28559100076 0.880065962957 -1.43380582393 -11.7133593653
0.330113790471 -0.814010669292 -0.365677082531 0.504270748038 0.52144939906 1.33696907356 -0.0822536996715 0.306450862963 -0.437737322404 0.181989882623 0.439486048009 -0.0983098474544 -1.80375048409 0.331470896331 0.364561477355 -0.680173476348 -1.28438703607 1.4758791505 0.491445510894 -0.229081030922 -1.13703288315 -0.821814828421 1.30259039679 0.137661940868 -0.550587067001 0.509689231225 -0.814398187446 1.50084303028 1.3528005349 -0.466574071203 -0.628670247031 -2.61813319869 -1.48158077155 -1.33946977496 0.135190340987 -0.326233704441 -1.34533548742 -0.281164042465 0.505337147647 0.527839349916 -1.89967028086 -0.128263480484 -1.38334077697 0.90172869714 0.784146416353 -0.898027226324 -0.7660452024 -0.461267050498 -2.25279339473 0.335968173441 -0.27284454634 0.970175082568 -1.09840921796 -0.61912294825 -1.50652525804 -1.00429056349 -1.18198199607 0.995973678846 -0.698261848751 0.124175684745 -0.380763403862 -1.26946526601 -0.168300423172 0.599103331864 -1.20775939254 0.809112790731 -0.849720921478 -0.482983926073 0.53068312301 -0.663436157219 0.0375748593359 -0.314690828788 0.129368006704 -2.38073910552 -1.82968181521 0.615967006047 1.03718140565 -0.910486703532 -0.244028352171 0.294719252902 0.693217601659 -2.02767727167 -0.886040246978 -0.33257937985 0.703140197236 2.49843048372 -0.22800572681 -1.4069774621 0.402268077201 1.32099578954 0.10801412098 -0.906648545154 0.95799394148 0.663545618498 -1.0260808442 0.381425617534 0.997265567659 1.18189004256 -0.0664489753095 -0.358079446179 -10.0296891632
